svm_type c_svc
kernel_type rbf
gamma 0.333333
nr_class 3
total_sv 20665
rho -0.403843 -1.01417 -1.01142
label 1 -1 0
nr_sv 9887 9844 934
SV
1 0 1:-1 2:-1 3:-1 
1 0 1:-0.940594 2:-1 3:-1 
1 0 1:-0.940594 2:-1 3:-1 
1 0 1:-0.80198 2:-0.877551 3:-0.901639 
1 0 1:-1 2:-1 3:-1 
1 0 1:-0.60396 2:-1 3:-1 
1 0 1:-0.940594 2:-1 3:-1 
1 0 1:-0.920792 2:-1 3:-0.901639 
1 0 1:-0.861386 2:-1 3:-0.934426 
1 0 1:-0.841584 2:-0.346939 3:-0.934426 
1 0 1:-0.920792 2:-1 3:-1 
1 0 1:-0.841584 2:-0.918367 3:-1 
1 0 1:-0.940594 2:-1 3:-0.934426 
1 0 1:-0.881188 2:-1 3:-1 
1 0 1:-1 2:-1 3:-1 
1 0 1:-0.920792 2:-1 3:-1 
1 0 1:-0.940594 2:-1 3:-0.868852 
1 0 1:-0.90099 2:-1 3:-1 
1 0 1:-0.920792 2:-1 3:-1 
1 0 1:-0.762376 2:-1 3:-1 
1 0 1:-0.940594 2:-1 3:-1 
1 0 1:-0.841584 2:-0.714286 3:-0.967213 
1 0 1:-0.524752 2:-0.918367 3:-0.836066 
1 0 1:-0.861386 2:-1 3:-0.770492 
1 0 1:-0.940594 2:-1 3:-1 
1 0 1:-0.90099 2:-1 3:-1 
1 0 1:-0.80198 2:-1 3:-0.770492 
1 0 1:-0.90099 2:-1 3:-1 
1 0 1:-0.920792 2:-1 3:-0.934426 
1 0 1:-0.920792 2:-1 3:-1 
1 0 1:-0.960396 2:-1 3:-1 
1 0 1:-0.90099 2:-1 3:-1 
1 0 1:-0.861386 2:-1 3:-1 
1 0 1:-0.960396 2:-1 3:-1 
1 0 1:-0.920792 2:-1 3:-0.967213 
1 0 1:-0.920792 2:-1 3:-1 
1 0 1:-0.861386 2:-1 3:-1 
1 0 1:-0.960396 2:-1 3:-1 
1 0 1:-0.722772 2:-1 3:-1 
1 0 1:-0.960396 2:-1 3:-1 
1 0 1:-0.920792 2:-0.714286 3:-0.967213 
1 0 1:-0.821782 2:-0.959184 3:-0.934426 
1 0 1:-0.920792 2:-1 3:-1 
1 0 1:-0.564356 2:-1 3:-0.967213 
1 0 1:-0.940594 2:-1 3:-1 
1 0 1:-0.762376 2:-1 3:-1 
1 0 1:-0.960396 2:-1 3:-1 
1 0 1:-0.841584 2:-1 3:-0.934426 
1 0 1:-0.940594 2:-1 3:-1 
1 0.06230437526788847 1:-0.70297 2:-0.877551 3:-0.737705 
1 0 1:-0.80198 2:-0.673469 3:-1 
1 0 1:-0.960396 2:-1 3:-1 
1 0 1:-0.920792 2:-0.918367 3:-1 
1 0 1:-0.920792 2:-1 3:-1 
1 0 1:-0.861386 2:-1 3:-1 
1 0 1:-0.920792 2:-1 3:-1 
1 0 1:-0.920792 2:-1 3:-1 
1 0 1:-0.940594 2:-1 3:-1 
1 0 1:-0.663366 2:-1 3:-1 
1 0 1:-0.920792 2:-1 3:-1 
1 0 1:-0.881188 2:-1 3:-1 
1 0 1:-0.881188 2:-1 3:-1 
1 0 1:-0.70297 2:-0.918367 3:-0.868852 
1 0 1:-0.980198 2:-1 3:-0.934426 
1 0 1:-0.861386 2:-1 3:-0.967213 
1 0 1:-0.920792 2:-1 3:-1 
1 0 1:-0.821782 2:-1 3:-0.57377 
1 0 1:-0.940594 2:-1 3:-1 
1 0 1:-0.841584 2:-0.346939 3:-0.934426 
1 0 1:-0.940594 2:-1 3:-1 
1 0 1:-0.960396 2:-1 3:-1 
1 0 1:-0.940594 2:-0.55102 3:-1 
1 0 1:-0.960396 2:-1 3:-1 
1 0 1:-0.0891089 2:-1 3:-0.934426 
1 0 1:-0.920792 2:-1 3:-1 
1 0 1:-0.980198 2:-1 3:-1 
1 0 1:-0.940594 2:-1 3:-1 
1 0 1:-0.80198 2:-0.510204 3:-1 
1 0 1:-0.485149 2:-1 3:-1 
1 0 1:-0.940594 2:-1 3:-1 
1 0 1:-0.861386 2:-1 3:-0.901639 
1 0 1:-0.920792 2:-1 3:-1 
1 0 1:-0.70297 2:-1 3:-0.868852 
1 0 1:-0.960396 2:-1 3:-1 
1 0 1:-0.90099 2:-1 3:-0.836066 
1 1 1:-0.60396 2:-1 3:-0.672131 
1 0 1:-0.742574 2:-0.918367 3:-0.868852 
1 0 1:-0.90099 2:-1 3:-1 
1 0 1:-0.722772 2:-0.918367 3:-0.836066 
1 0 1:-0.148515 2:-0.959184 3:-1 
1 1 1:-0.940594 2:-0.959184 3:-0.803279 
1 0 1:-0.940594 2:-1 3:-1 
1 0 1:-0.920792 2:-1 3:-1 
1 0 1:-0.841584 2:-1 3:-0.836066 
1 0 1:-0.80198 2:-1 3:-0.868852 
1 0 1:-0.940594 2:-1 3:-1 
1 0 1:-0.861386 2:-1 3:-1 
1 0 1:-0.920792 2:-1 3:-1 
1 0 1:-0.940594 2:-0.755102 3:-1 
1 0 1:-0.80198 2:-1 3:-0.967213 
1 0 1:-0.881188 2:-1 3:-1 
1 0 1:-0.940594 2:-1 3:-1 
1 0 1:-0.841584 2:-1 3:-0.967213 
1 0 1:-0.920792 2:-1 3:-1 
1 0 1:-0.920792 2:-1 3:-0.639344 
1 0 1:-0.861386 2:-0.714286 3:-1 
1 0 1:-0.920792 2:-1 3:-0.868852 
1 0 1:-0.861386 2:-1 3:-1 
1 0 1:-0.782178 2:-1 3:-1 
1 0 1:-0.683168 2:-0.836735 3:-0.901639 
1 0 1:-0.940594 2:-1 3:-1 
1 0 1:-0.881188 2:-0.0612245 3:-1 
1 0 1:-0.960396 2:-1 3:-1 
1 0 1:-0.920792 2:-1 3:-0.934426 
1 0 1:-0.70297 2:-1 3:-1 
1 0 1:-0.940594 2:-1 3:-1 
1 0 1:-0.782178 2:-1 3:-0.868852 
1 0 1:-0.940594 2:-1 3:-1 
1 0 1:-0.940594 2:-0.877551 3:-1 
1 0 1:-0.70297 2:-1 3:-1 
1 0 1:-0.782178 2:-1 3:-0.901639 
1 0 1:-0.90099 2:-1 3:-1 
1 0 1:-0.920792 2:-1 3:-1 
1 0 1:-0.643564 2:-0.918367 3:-0.770492 
1 0 1:-0.960396 2:-1 3:-1 
1 0 1:-1 2:-1 3:-1 
1 0 1:-0.920792 2:-0.918367 3:-0.934426 
1 0 1:-0.920792 2:-1 3:-1 
1 0 1:-1 2:-1 3:-0.967213 
1 0 1:-0.940594 2:-1 3:-1 
1 0 1:-0.920792 2:-1 3:-1 
1 0 1:-0.742574 2:-0.959184 3:-0.770492 
1 0 1:-0.881188 2:-0.918367 3:-0.868852 
1 0 1:-0.70297 2:-1 3:-0.639344 
1 0 1:-0.683168 2:-1 3:-1 
1 0 1:-0.861386 2:-1 3:-1 
1 0 1:-0.861386 2:-1 3:-1 
1 0 1:-0.762376 2:-0.510204 3:-0.770492 
1 0 1:-0.940594 2:-1 3:-1 
1 0 1:-0.940594 2:-1 3:-1 
1 0 1:-0.881188 2:-0.714286 3:-0.934426 
1 0 1:-0.980198 2:-1 3:-1 
1 0 1:-0.663366 2:-1 3:-1 
1 0.03602056228160284 1:-0.861386 2:-0.918367 3:-0.934426 
1 0 1:-0.881188 2:-1 3:-1 
1 0 1:-0.940594 2:-1 3:-1 
1 0 1:-0.742574 2:-0.428571 3:-1 
1 0 1:-0.841584 2:-1 3:-1 
1 0 1:-1 2:-1 3:-1 
1 0 1:-1 2:-1 3:-1 
1 0 1:-1 2:-1 3:-1 
1 0 1:-1 2:-1 3:-1 
1 0 1:-0.960396 2:-1 3:-1 
1 0 1:-0.80198 2:-0.632653 3:-1 
1 0 1:-0.722772 2:-1 3:-1 
1 0 1:-0.940594 2:-1 3:-1 
1 0 1:-0.960396 2:-0.836735 3:-0.803279 
1 0 1:-0.821782 2:-1 3:-1 
1 0 1:-0.960396 2:-1 3:-1 
1 0 1:-0.960396 2:-1 3:-1 
1 0 1:-0.960396 2:-1 3:-1 
1 0 1:-0.742574 2:-0.959184 3:-0.967213 
1 0 1:-0.782178 2:-1 3:-1 
1 0 1:-0.762376 2:-0.959184 3:-0.836066 
1 0 1:-0.841584 2:-0.918367 3:-0.737705 
1 0 1:-0.980198 2:-1 3:-1 
1 0 1:-0.722772 2:-1 3:-0.901639 
1 0 1:-0.782178 2:-0.795918 3:-0.934426 
1 0 1:-0.861386 2:-0.836735 3:-0.901639 
1 0 1:-1 2:-1 3:-1 
1 0 1:-1 2:-1 3:-1 
1 0 1:-1 2:-1 3:-1 
1 0 1:-1 2:-1 3:-1 
1 0 1:-1 2:-1 3:-1 
1 0 1:-0.920792 2:-1 3:-1 
1 0 1:-0.861386 2:-0.918367 3:-1 
1 0 1:-0.960396 2:-1 3:-1 
1 0 1:-0.940594 2:-1 3:-1 
1 0 1:-0.90099 2:-1 3:-1 
1 0 1:-0.80198 2:-1 3:-1 
1 0 1:-0.881188 2:-1 3:-0.934426 
1 0 1:-0.960396 2:-1 3:-1 
1 0 1:-0.940594 2:-1 3:-1 
1 0 1:-0.960396 2:-1 3:-1 
1 0 1:-0.960396 2:-1 3:-1 
1 0 1:-0.940594 2:-1 3:-0.967213 
1 0 1:-0.564356 2:-0.510204 3:-0.836066 
1 0 1:-0.960396 2:-1 3:-1 
1 0 1:-0.940594 2:-1 3:-1 
1 0 1:-0.722772 2:-0.795918 3:-0.868852 
1 0 1:-0.940594 2:-1 3:-1 
1 0 1:-0.960396 2:-1 3:-1 
1 0 1:-0.841584 2:-0.918367 3:-0.836066 
1 0 1:-0.445545 2:-0.469388 3:-1 
1 0 1:-0.762376 2:-0.959184 3:-1 
1 0 1:-0.940594 2:-1 3:-1 
1 0 1:-0.60396 2:-1 3:-1 
1 0 1:-0.920792 2:-1 3:-0.934426 
1 0 1:-0.960396 2:-1 3:-1 
1 0 1:-0.425743 2:-1 3:-1 
1 0 1:-0.960396 2:-1 3:-1 
1 0 1:-1 2:-1 3:-1 
1 0 1:-1 2:-1 3:-1 
1 0 1:-0.940594 2:-1 3:-0.934426 
1 0 1:-1 2:-1 3:-1 
1 0 1:-0.960396 2:-1 3:-1 
1 0 1:-1 2:-1 3:-1 
1 0 1:-0.821782 2:-0.877551 3:-1 
1 0 1:-0.940594 2:-1 3:-1 
1 0 1:-0.90099 2:-1 3:-1 
1 0 1:-0.960396 2:-0.918367 3:-1 
1 0 1:-0.940594 2:-1 3:-1 
1 0 1:-0.940594 2:-1 3:-0.934426 
1 0 1:-0.782178 2:-0.877551 3:-0.836066 
1 0 1:-0.861386 2:-1 3:-0.967213 
1 1 1:-0.881188 2:-1 3:-0.803279 
1 0 1:-0.80198 2:-0.510204 3:-0.803279 
1 0 1:-0.920792 2:-1 3:-1 
1 0 1:-0.90099 2:-1 3:-1 
1 0 1:-0.940594 2:-1 3:-1 
1 0 1:-0.960396 2:-1 3:-1 
1 0 1:-0.920792 2:-1 3:-1 
1 0 1:-0.861386 2:-1 3:-0.967213 
1 0 1:-0.920792 2:-0.918367 3:-0.803279 
1 0 1:-0.960396 2:-1 3:-1 
1 0 1:-0.960396 2:-1 3:-1 
1 0 1:-0.960396 2:-1 3:-1 
1 0 1:-0.90099 2:-1 3:-1 
1 0 1:-0.960396 2:-1 3:-1 
1 0 1:-0.940594 2:-1 3:-1 
1 0 1:-0.881188 2:-1 3:-1 
1 0 1:-0.920792 2:-1 3:-1 
1 0 1:-0.940594 2:-1 3:-1 
1 0 1:-0.80198 2:-1 3:-1 
1 0 1:-0.861386 2:-0.918367 3:-1 
1 0.0195572990129523 1:-0.881188 2:-0.959184 3:-0.934426 
1 0 1:-0.90099 2:-1 3:-1 
1 0 1:-0.920792 2:-1 3:-1 
1 0 1:-0.940594 2:-1 3:-1 
1 0 1:-0.940594 2:-1 3:-1 
1 0 1:-0.920792 2:-1 3:-1 
1 0 1:-0.762376 2:-1 3:-1 
1 0 1:-0.762376 2:-1 3:-1 
1 0 1:-0.980198 2:-1 3:-0.901639 
1 0 1:-0.742574 2:-1 3:-0.901639 
1 0 1:-0.940594 2:-1 3:-1 
1 0 1:-0.881188 2:-0.918367 3:-1 
1 0 1:-0.90099 2:-1 3:-1 
1 0 1:-0.90099 2:-1 3:-1 
1 0 1:-0.980198 2:-1 3:-1 
1 0 1:-0.881188 2:-0.836735 3:-1 
1 0 1:-0.90099 2:-1 3:-1 
1 0 1:-0.920792 2:-1 3:-1 
1 0 1:-0.940594 2:-1 3:-1 
1 0 1:-0.940594 2:-1 3:-1 
1 0 1:-0.960396 2:-1 3:-1 
1 0 1:-0.722772 2:-0.632653 3:-1 
1 0 1:-0.90099 2:-0.918367 3:-0.967213 
1 0 1:-0.940594 2:-1 3:-1 
1 0 1:-0.623762 2:-1 3:-0.934426 
1 0 1:-0.643564 2:-1 3:-0.967213 
1 0.101665375632101 1:0.247525 2:-1 3:-1 
1 0 1:-0.861386 2:-0.795918 3:-0.803279 
1 0 1:-0.782178 2:-0.836735 3:-1 
1 0 1:-0.920792 2:-0.959184 3:-1 
1 0 1:-0.663366 2:-0.959184 3:-1 
1 0 1:-0.940594 2:-1 3:-1 
1 0 1:-0.960396 2:-1 3:-1 
1 0 1:-0.70297 2:-1 3:-1 
1 0 1:-0.821782 2:-1 3:-0.737705 
1 0 1:-0.960396 2:-1 3:-1 
1 0 1:-0.920792 2:-1 3:-1 
1 0 1:-0.920792 2:-1 3:-1 
1 0 1:-0.960396 2:-1 3:-1 
1 1 1:-0.80198 2:-0.877551 3:-0.836066 
1 0 1:-0.90099 2:-1 3:-0.836066 
1 0 1:-0.623762 2:-1 3:-0.770492 
1 0 1:-0.762376 2:-1 3:-0.803279 
1 0 1:-0.485149 2:-0.387755 3:-0.901639 
1 0 1:-0.940594 2:-1 3:-1 
1 0 1:-0.960396 2:-1 3:-1 
1 0 1:-0.881188 2:-0.795918 3:-0.967213 
1 0 1:-0.920792 2:-1 3:-0.934426 
1 0 1:-0.80198 2:-1 3:-1 
1 0 1:-0.564356 2:-1 3:-0.934426 
1 0 1:-0.742574 2:-1 3:-1 
1 0 1:-0.80198 2:-0.755102 3:-0.967213 
1 0 1:-0.960396 2:-1 3:-1 
1 0 1:-0.920792 2:-1 3:-0.868852 
1 0 1:-0.980198 2:-1 3:-1 
1 0 1:-0.920792 2:-1 3:-0.967213 
1 0 1:-0.940594 2:-1 3:-1 
1 0 1:-0.940594 2:-1 3:-1 
1 0 1:-0.841584 2:-0.918367 3:-1 
1 0 1:-1 2:-1 3:-1 
1 0 1:-0.960396 2:-1 3:-1 
1 0 1:-0.405941 2:-0.877551 3:-1 
1 0 1:-0.960396 2:-1 3:-1 
1 0 1:-0.60396 2:-1 3:-0.868852 
1 0 1:-0.821782 2:-1 3:-1 
1 0 1:-0.960396 2:-1 3:-1 
1 0 1:-1 2:-1 3:-1 
1 1 1:-0.881188 2:-1 3:-0.901639 
0.9217509157178463 0 1:-0.742574 2:-0.877551 3:-0.803279 
1 0 1:-0.920792 2:-1 3:-1 
1 0 1:-0.920792 2:-1 3:-1 
1 0 1:-0.861386 2:-1 3:-1 
1 0 1:-0.544554 2:-0.877551 3:-0.934426 
1 0 1:-0.90099 2:-1 3:-1 
1 0 1:-0.940594 2:-1 3:-1 
1 0 1:-0.90099 2:-1 3:-1 
1 0 1:-0.920792 2:-1 3:-1 
1 0 1:-0.60396 2:-1 3:-1 
1 0 1:-0.821782 2:-1 3:-0.704918 
1 0 1:-1 2:-1 3:-1 
1 0 1:-0.960396 2:-1 3:-1 
1 0 1:-0.90099 2:-1 3:-1 
1 0 1:-0.742574 2:-1 3:-0.901639 
1 0 1:-1 2:-1 3:-1 
1 0 1:-0.960396 2:-1 3:-1 
1 0 1:-0.920792 2:-1 3:-1 
1 0 1:-1 2:-1 3:-1 
1 0 1:-0.920792 2:-1 3:-1 
1 0 1:-0.881188 2:-0.959184 3:-1 
1 0 1:-0.326733 2:-0.959184 3:-0.868852 
1 0 1:-0.920792 2:-1 3:-1 
1 0 1:-0.940594 2:-1 3:-1 
1 0 1:-0.861386 2:-1 3:-1 
1 1 1:-0.683168 2:-1 3:-0.901639 
1 0 1:-1 2:-1 3:-1 
1 0 1:-0.920792 2:-0.959184 3:-1 
1 0 1:-0.584158 2:-1 3:-1 
1 0 1:-0.960396 2:-1 3:-1 
1 0 1:-0.90099 2:-1 3:-1 
1 0 1:-0.722772 2:-1 3:-0.934426 
1 0 1:-0.762376 2:-1 3:-1 
1 0 1:-0.90099 2:-1 3:-1 
1 0 1:-0.920792 2:-1 3:-1 
0.695955104143244 0 1:-0.267327 2:-0.428571 3:-1 
1 0 1:-0.940594 2:-1 3:-1 
1 0 1:-0.940594 2:-1 3:-1 
1 0 1:-0.683168 2:-0.959184 3:-1 
1 0 1:-0.80198 2:-0.755102 3:-0.737705 
1 0 1:-0.920792 2:-1 3:-1 
1 0 1:-0.227723 2:-1 3:-0.868852 
1 0 1:-0.940594 2:-1 3:-1 
1 0 1:-0.920792 2:-1 3:-1 
1 0 1:-0.960396 2:-1 3:-1 
1 0 1:-0.861386 2:-1 3:-0.901639 
1 0 1:-0.881188 2:-1 3:-1 
1 0 1:-0.980198 2:-1 3:-1 
1 0 1:-0.960396 2:-1 3:-1 
1 0 1:-0.960396 2:-1 3:-1 
1 0 1:-0.762376 2:-1 3:-0.967213 
1 0 1:-0.940594 2:-1 3:-1 
1 0 1:-1 2:-1 3:-1 
1 0 1:-0.643564 2:-0.55102 3:-1 
1 0 1:-0.960396 2:-1 3:-1 
1 0 1:-0.861386 2:-1 3:-0.901639 
1 0 1:-0.940594 2:-1 3:-1 
1 0 1:-0.80198 2:-0.959184 3:-0.934426 
1 0 1:-0.920792 2:-1 3:-1 
1 0 1:-0.960396 2:-1 3:-1 
1 0 1:-0.366337 2:-0.755102 3:-1 
1 0 1:-0.940594 2:-1 3:-1 
1 0 1:-0.782178 2:-0.265306 3:-0.967213 
1 0 1:-0.742574 2:-0.959184 3:-1 
1 0 1:-0.920792 2:-0.632653 3:-0.836066 
1 0 1:-0.940594 2:-1 3:-1 
1 0 1:-0.960396 2:-1 3:-1 
1 0 1:-0.920792 2:-0.959184 3:-1 
1 0 1:-0.782178 2:-1 3:-1 
1 0 1:-0.782178 2:-1 3:-0.868852 
1 0 1:-0.762376 2:-1 3:-1 
1 0 1:-0.861386 2:-1 3:-0.967213 
1 0 1:-0.940594 2:-1 3:-1 
1 0 1:-0.881188 2:-0.918367 3:-1 
1 0 1:-0.940594 2:-1 3:-1 
1 0 1:-0.920792 2:-1 3:-1 
1 0 1:-0.60396 2:-1 3:-1 
1 0 1:-0.821782 2:-1 3:-1 
1 0 1:-0.861386 2:-0.877551 3:-0.540984 
1 0 1:-0.722772 2:-1 3:-0.934426 
1 0 1:-0.980198 2:-1 3:-0.901639 
1 0 1:-0.940594 2:-1 3:-1 
1 0 1:-0.960396 2:-1 3:-0.967213 
1 0 1:-0.841584 2:-1 3:-0.934426 
1 0 1:-0.980198 2:-1 3:-1 
1 0 1:-0.80198 2:-0.755102 3:-0.868852 
1 0 1:-0.90099 2:-1 3:-0.967213 
1 0 1:-1 2:-1 3:-1 
1 0 1:-0.841584 2:-1 3:-1 
1 0 1:-0.663366 2:-1 3:-1 
1 0 1:-0.80198 2:-1 3:-0.934426 
1 0 1:-0.643564 2:-1 3:-1 
1 0 1:-0.960396 2:-1 3:-1 
1 0.9653931094236063 1:0.0693069 2:-0.387755 3:-1 
1 0.08428834180436966 1:-1 2:-0.836735 3:-0.868852 
1 0 1:-0.940594 2:-1 3:-1 
1 0 1:-0.821782 2:-1 3:-0.868852 
1 0 1:-0.920792 2:-1 3:-0.836066 
1 0 1:-0.742574 2:-1 3:-1 
1 1 1:-0.683168 2:-0.877551 3:-0.901639 
1 0 1:-0.940594 2:-1 3:-1 
1 0 1:-0.70297 2:-1 3:-1 
1 0 1:-0.742574 2:-1 3:-1 
1 0 1:-0.960396 2:-1 3:-1 
1 0 1:-0.940594 2:-1 3:-1 
1 0 1:-0.346535 2:-1 3:-1 
1 0 1:-0.960396 2:-1 3:-1 
1 0 1:-0.50495 2:-0.714286 3:-1 
1 0 1:-0.485149 2:-0.714286 3:-1 
1 0 1:-0.940594 2:-1 3:-1 
1 0 1:-0.762376 2:-0.714286 3:-1 
1 0 1:-0.90099 2:-1 3:-1 
1 0 1:-0.960396 2:-1 3:-1 
1 0 1:-0.940594 2:-1 3:-1 
1 0 1:-0.940594 2:-1 3:-1 
1 0 1:-0.960396 2:-1 3:-1 
1 0 1:-0.960396 2:-1 3:-1 
1 0 1:-0.722772 2:-0.918367 3:-0.836066 
1 0 1:-0.80198 2:-1 3:-0.934426 
1 0 1:-0.940594 2:-1 3:-1 
1 0 1:-0.881188 2:-1 3:-0.967213 
1 0 1:-0.90099 2:-1 3:-1 
1 0 1:-0.762376 2:-1 3:-1 
1 0 1:-0.663366 2:-1 3:-1 
1 0 1:-0.940594 2:-1 3:-1 
1 0 1:-0.683168 2:-0.591837 3:-0.934426 
1 0 1:-0.881188 2:-0.877551 3:-0.967213 
1 0 1:-0.960396 2:-1 3:-1 
1 0 1:-1 2:-1 3:-1 
1 0 1:-1 2:-1 3:-1 
1 0 1:-1 2:-1 3:-1 
1 0 1:-0.960396 2:-1 3:-1 
1 0 1:-0.841584 2:-0.795918 3:-0.836066 
1 0 1:-0.960396 2:-1 3:-1 
1 0 1:-0.881188 2:-1 3:-1 
1 0 1:-0.940594 2:-1 3:-1 
1 0 1:-0.722772 2:-0.877551 3:-0.868852 
1 0 1:-0.960396 2:-1 3:-1 
1 0 1:-0.722772 2:-1 3:-1 
1 0 1:-0.920792 2:-0.918367 3:-0.836066 
1 0 1:-0.782178 2:-1 3:-0.967213 
1 0 1:-0.920792 2:-1 3:-1 
1 0 1:-0.841584 2:-1 3:-0.934426 
1 0.09107775421386119 1:-0.70297 2:-0.959184 3:-0.868852 
1 0 1:-0.960396 2:-1 3:-1 
1 0 1:-0.90099 2:-1 3:-0.934426 
1 0 1:-0.564356 2:-1 3:-1 
1 0 1:-0.940594 2:-1 3:-1 
1 0 1:-0.960396 2:-1 3:-1 
1 0 1:-0.920792 2:-1 3:-1 
1 0 1:-0.544554 2:-0.591837 3:-0.836066 
1 0 1:-0.663366 2:-0.673469 3:-1 
1 0 1:-0.940594 2:-1 3:-0.967213 
1 0 1:-0.821782 2:-1 3:-1 
1 0 1:-0.960396 2:-1 3:-1 
1 0 1:-0.960396 2:-1 3:-1 
1 0 1:-0.940594 2:-1 3:-1 
1 0 1:-0.920792 2:-1 3:-1 
1 0 1:-0.940594 2:-1 3:-1 
1 0 1:-0.90099 2:-0.959184 3:-0.967213 
1 0 1:-0.940594 2:-1 3:-1 
1 0 1:-0.940594 2:-1 3:-1 
1 0 1:-0.940594 2:-1 3:-1 
1 0 1:-0.940594 2:-1 3:-1 
1 0 1:-0.960396 2:-1 3:-1 
1 0 1:-0.80198 2:-1 3:-1 
1 0 1:-1 2:-1 3:-1 
1 0 1:-0.861386 2:-1 3:-1 
1 0 1:-0.940594 2:-1 3:-1 
1 0 1:-0.90099 2:-1 3:-1 
1 0 1:-0.742574 2:-0.673469 3:-1 
1 0 1:-0.960396 2:-1 3:-0.934426 
1 0 1:-0.960396 2:-1 3:-1 
1 0 1:-0.960396 2:-1 3:-1 
1 0 1:-0.920792 2:-1 3:-1 
1 0 1:-0.960396 2:-1 3:-1 
1 0.01732540158817372 1:-0.722772 2:-0.959184 3:-0.934426 
1 0 1:-0.920792 2:-1 3:-1 
1 0 1:-0.762376 2:-1 3:-0.868852 
1 0 1:-0.80198 2:-1 3:-0.836066 
1 0 1:-0.762376 2:-1 3:-1 
1 0 1:-0.485149 2:-0.918367 3:-1 
1 0 1:-0.643564 2:-0.836735 3:-1 
1 0 1:-0.940594 2:-1 3:-1 
1 0 1:-0.940594 2:-1 3:-1 
1 0 1:-0.960396 2:-1 3:-1 
1 0 1:-0.564356 2:-0.918367 3:-0.868852 
1 0 1:-0.920792 2:-1 3:-1 
1 0 1:-0.940594 2:-1 3:-1 
1 0 1:-0.821782 2:-1 3:-1 
1 0 1:-0.940594 2:-1 3:-0.967213 
1 0 1:-0.920792 2:-0.755102 3:-0.901639 
1 0 1:-0.841584 2:-1 3:-1 
1 0 1:-0.920792 2:-1 3:-1 
1 0 1:-0.683168 2:-1 3:-0.934426 
1 0 1:-0.881188 2:-1 3:-1 
1 0 1:-0.90099 2:-1 3:-1 
1 0 1:-0.960396 2:-0.959184 3:-0.901639 
1 0 1:-0.881188 2:-0.918367 3:-1 
1 0 1:-0.920792 2:-0.918367 3:-1 
1 0 1:-0.960396 2:-1 3:-1 
1 0 1:-0.841584 2:-1 3:-1 
1 0 1:-0.90099 2:-0.918367 3:-0.868852 
1 0 1:-0.683168 2:-1 3:-0.967213 
1 0 1:-0.920792 2:-1 3:-1 
1 0 1:-0.90099 2:-1 3:-1 
1 0 1:-0.940594 2:-1 3:-1 
1 0 1:-0.920792 2:-1 3:-1 
1 0 1:-0.960396 2:-1 3:-1 
1 0 1:-0.960396 2:-1 3:-1 
1 0 1:-0.841584 2:-0.918367 3:-1 
1 0 1:-0.940594 2:-0.877551 3:-0.770492 
1 0 1:-0.960396 2:-1 3:-1 
1 0 1:-0.80198 2:-1 3:-0.901639 
1 0 1:-1 2:-1 3:-1 
1 0 1:-0.861386 2:-0.918367 3:-0.803279 
1 0 1:-0.90099 2:-1 3:-0.967213 
1 1 1:-0.80198 2:-0.755102 3:-0.770492 
1 0 1:-0.960396 2:-1 3:-1 
1 0 1:-0.940594 2:-1 3:-0.967213 
1 0 1:-0.861386 2:-1 3:-0.770492 
1 0 1:-0.940594 2:-1 3:-1 
1 0 1:-0.90099 2:-0.795918 3:-1 
1 0 1:-0.920792 2:-1 3:-1 
1 0 1:-0.960396 2:-1 3:-1 
1 0 1:-0.920792 2:-1 3:-1 
1 0 1:-0.940594 2:-1 3:-1 
1 0 1:-0.980198 2:-1 3:-1 
1 0 1:-0.90099 2:-1 3:-0.934426 
1 0 1:-0.663366 2:-1 3:-1 
1 0 1:-0.881188 2:-1 3:-1 
1 0 1:-0.881188 2:-1 3:-1 
1 0 1:-0.960396 2:-1 3:-1 
1 0 1:-0.940594 2:-1 3:-1 
1 0 1:-0.782178 2:-1 3:-0.967213 
1 0 1:-0.960396 2:-1 3:-1 
1 0 1:-0.960396 2:-1 3:-1 
1 0 1:-0.70297 2:-0.632653 3:-1 
1 0 1:-0.841584 2:-1 3:-1 
1 0 1:-0.940594 2:-0.918367 3:-1 
1 0 1:-0.960396 2:-1 3:-1 
1 0 1:-0.70297 2:-0.836735 3:-0.967213 
1 0 1:-0.940594 2:-1 3:-1 
1 0 1:-0.90099 2:-1 3:-1 
1 0 1:-0.920792 2:-1 3:-1 
1 0 1:-0.841584 2:-1 3:-1 
1 0 1:-0.960396 2:-0.714286 3:-0.934426 
1 0 1:-0.920792 2:-1 3:-0.901639 
1 0 1:-1 2:-1 3:-1 
1 0 1:-0.940594 2:-1 3:-0.967213 
1 0 1:-0.524752 2:-1 3:-0.967213 
1 0 1:-0.940594 2:-1 3:-1 
1 0 1:-0.960396 2:-1 3:-1 
1 0 1:-0.940594 2:-1 3:-1 
1 0 1:-0.940594 2:-0.918367 3:-1 
1 0 1:-0.940594 2:-1 3:-1 
1 0 1:-0.960396 2:-1 3:-1 
1 0 1:-0.465347 2:-0.918367 3:-1 
1 0.009402641305291143 1:-0.742574 2:-0.795918 3:-0.901639 
1 0 1:-0.821782 2:-1 3:-1 
1 0 1:-1 2:-1 3:-1 
1 0 1:-0.841584 2:-0.877551 3:-0.639344 
1 0 1:-0.90099 2:-0.918367 3:-0.967213 
1 0 1:-0.60396 2:-1 3:-1 
1 1 1:-0.366337 2:-0.755102 3:-0.934426 
1 0 1:-0.247525 2:-0.755102 3:-0.934426 
1 0 1:-0.90099 2:-1 3:-1 
1 0.0339447838102627 1:-0.861386 2:-0.959184 3:-0.803279 
1 0 1:-0.960396 2:-1 3:-1 
1 0 1:-0.306931 2:-1 3:-1 
1 1 1:-0.722772 2:-0.632653 3:-1 
1 0 1:-0.881188 2:-1 3:-1 
1 0 1:-0.881188 2:-0.918367 3:-1 
1 0 1:-0.683168 2:-0.755102 3:-1 
1 0 1:-0.762376 2:-0.918367 3:-1 
1 0 1:-0.940594 2:-0.918367 3:-1 
1 0 1:-0.960396 2:-1 3:-1 
1 0 1:-0.960396 2:-0.959184 3:-1 
1 0 1:-0.960396 2:-1 3:-1 
1 0 1:-0.782178 2:-0.755102 3:-0.836066 
1 0 1:-0.90099 2:-1 3:-1 
1 0 1:-0.643564 2:-1 3:-1 
1 0 1:-0.821782 2:-1 3:-0.868852 
1 0 1:-0.940594 2:-1 3:-1 
1 0 1:-1 2:-1 3:-1 
1 0 1:-0.940594 2:-1 3:-1 
1 0 1:-0.960396 2:-1 3:-1 
1 0 1:-0.960396 2:-1 3:-1 
1 0 1:-0.861386 2:-1 3:-0.967213 
1 0 1:-0.90099 2:-1 3:-1 
1 0 1:-0.782178 2:-0.591837 3:-0.540984 
1 0 1:-0.940594 2:-1 3:-1 
1 0 1:-0.60396 2:-0.591837 3:-0.967213 
1 0 1:-0.821782 2:-1 3:-0.868852 
1 0 1:-0.643564 2:-1 3:-1 
1 0 1:-0.940594 2:-1 3:-1 
1 0 1:-0.782178 2:-1 3:-0.934426 
1 0.06569702667607853 1:-0.60396 2:-0.346939 3:-1 
1 0 1:-0.881188 2:-1 3:-1 
1 0 1:-0.742574 2:-0.795918 3:-1 
1 0 1:-0.584158 2:-0.877551 3:-0.901639 
1 0 1:-0.881188 2:-0.918367 3:-1 
1 0 1:-0.485149 2:-1 3:-0.901639 
1 0 1:-0.940594 2:-1 3:-1 
1 0 1:-0.920792 2:-1 3:-1 
1 0 1:-0.881188 2:-1 3:-0.836066 
1 0 1:-0.960396 2:-1 3:-1 
1 0 1:-0.90099 2:-1 3:-1 
1 0 1:-0.920792 2:-0.959184 3:-0.704918 
1 0 1:-0.90099 2:-1 3:-1 
1 0 1:-0.920792 2:-1 3:-1 
1 0 1:-1 2:-1 3:-1 
1 0 1:-0.861386 2:-1 3:-1 
1 0 1:-0.920792 2:-0.714286 3:-1 
1 0 1:-0.940594 2:-1 3:-1 
1 0 1:-0.940594 2:-1 3:-0.868852 
1 0 1:-0.960396 2:-0.755102 3:-1 
1 0 1:-0.940594 2:-1 3:-1 
1 0 1:-0.841584 2:-0.877551 3:-0.868852 
1 0 1:-0.960396 2:-1 3:-1 
1 0 1:-0.762376 2:-1 3:-1 
1 0 1:-0.841584 2:-1 3:-0.868852 
1 0 1:-0.960396 2:-1 3:-0.934426 
1 0 1:-0.841584 2:-1 3:-1 
1 0 1:-0.465347 2:-0.918367 3:-1 
1 0 1:-0.940594 2:-1 3:-1 
1 0 1:-0.881188 2:-1 3:-1 
1 0 1:-0.782178 2:-1 3:-0.836066 
1 0 1:-0.742574 2:-1 3:-0.934426 
1 0 1:-0.940594 2:-1 3:-1 
1 0 1:-0.722772 2:-0.755102 3:-1 
1 0 1:-0.782178 2:-1 3:-1 
1 0 1:-0.920792 2:-0.918367 3:-0.901639 
1 0 1:-0.742574 2:-1 3:-1 
1 0 1:-0.623762 2:-0.755102 3:-1 
1 0 1:-0.940594 2:-1 3:-1 
1 0 1:-0.940594 2:-1 3:-1 
1 0 1:-0.90099 2:-1 3:-1 
1 0.01062200212831652 1:-0.683168 2:-1 3:-0.868852 
1 0 1:-0.821782 2:-1 3:-0.770492 
1 0 1:-0.782178 2:-0.959184 3:-1 
1 0 1:-0.980198 2:-1 3:-1 
1 0 1:-0.940594 2:-1 3:-1 
1 0.8453759240314109 1:-0.920792 2:-1 3:-0.409836 
1 0 1:-0.762376 2:-1 3:-1 
1 0 1:-0.346535 2:-1 3:-1 
1 0 1:-0.980198 2:-1 3:-1 
1 0 1:-0.920792 2:-1 3:-1 
1 0 1:-0.683168 2:-1 3:-1 
1 0 1:-0.881188 2:-1 3:-0.770492 
1 0 1:-0.940594 2:-1 3:-1 
1 0 1:-0.881188 2:-1 3:-0.704918 
1 0 1:-0.762376 2:-1 3:-0.967213 
1 0 1:-0.861386 2:-1 3:-1 
1 0 1:-0.861386 2:-1 3:-1 
1 0 1:-0.90099 2:-1 3:-1 
1 0 1:-0.821782 2:-1 3:-0.737705 
1 0 1:-0.920792 2:-1 3:-0.934426 
1 0 1:-0.920792 2:-1 3:-1 
1 0.08821977274614864 1:-0.881188 2:-1 3:-0.672131 
1 0 1:-0.920792 2:-1 3:-1 
1 0 1:-0.920792 2:-1 3:-1 
1 0.2460273603095676 1:0.108911 2:-0.673469 3:-0.967213 
1 0 1:-0.980198 2:-1 3:-1 
1 0 1:-0.742574 2:-1 3:-1 
1 0 1:-1 2:-1 3:-1 
1 0 1:-1 2:-1 3:-1 
1 0 1:-0.90099 2:-0.795918 3:-0.803279 
1 0.09647722165867664 1:-0.80198 2:-0.795918 3:-0.704918 
1 0 1:-0.821782 2:-1 3:-0.868852 
1 0 1:-0.643564 2:-1 3:-1 
1 0 1:-0.841584 2:-0.918367 3:-0.868852 
1 0 1:-0.920792 2:-1 3:-1 
1 0 1:-0.60396 2:-0.591837 3:-0.934426 
1 0 1:-0.584158 2:-0.918367 3:-1 
1 0 1:-0.80198 2:-1 3:-0.770492 
1 0 1:-0.881188 2:-1 3:-1 
1 0 1:-0.960396 2:-1 3:-1 
1 0 1:-0.940594 2:-0.918367 3:-1 
1 0 1:-0.861386 2:-0.918367 3:-1 
1 0 1:-0.940594 2:-1 3:-1 
1 0 1:-0.920792 2:-1 3:-1 
1 0 1:-0.940594 2:-1 3:-1 
1 0 1:-0.920792 2:-1 3:-1 
1 0 1:-0.960396 2:-1 3:-1 
1 0 1:-0.90099 2:-1 3:-1 
1 0 1:-0.90099 2:-1 3:-1 
1 0 1:-0.762376 2:-0.469388 3:-1 
1 0 1:-0.940594 2:-1 3:-1 
1 0 1:-0.782178 2:-0.795918 3:-0.836066 
1 0 1:-0.940594 2:-1 3:-1 
1 0 1:-0.623762 2:-1 3:-0.934426 
1 0 1:-0.920792 2:-1 3:-0.967213 
1 0 1:-0.920792 2:-1 3:-1 
1 0 1:-0.920792 2:-1 3:-1 
1 0 1:-0.940594 2:-1 3:-1 
1 0 1:-0.841584 2:-0.918367 3:-1 
1 0 1:-0.80198 2:-1 3:-1 
1 0 1:-0.623762 2:-1 3:-1 
1 1 1:-0.841584 2:-0.877551 3:-1 
1 0 1:-0.920792 2:-1 3:-1 
1 0 1:-0.940594 2:-1 3:-0.836066 
1 0 1:-0.940594 2:-1 3:-1 
1 0 1:-0.920792 2:-1 3:-1 
1 0 1:-0.960396 2:-1 3:-1 
1 0 1:-0.920792 2:-1 3:-1 
1 0 1:-0.90099 2:-1 3:-1 
1 0 1:-0.821782 2:-0.795918 3:-1 
1 0 1:-0.960396 2:-1 3:-1 
1 0 1:-0.782178 2:-1 3:-0.836066 
1 0 1:-0.544554 2:-1 3:-0.901639 
1 0 1:-0.940594 2:-1 3:-1 
1 0 1:-0.70297 2:-1 3:-0.934426 
1 0 1:-0.960396 2:-1 3:-1 
1 0 1:-0.960396 2:-1 3:-1 
1 0 1:-0.940594 2:-1 3:-0.967213 
1 0 1:-0.821782 2:-1 3:-0.868852 
1 0 1:-0.0891089 2:-1 3:-1 
1 0 1:-0.920792 2:-1 3:-1 
1 0 1:-0.762376 2:-1 3:-0.803279 
1 0 1:-0.960396 2:-1 3:-1 
1 0 1:-0.960396 2:-1 3:-1 
1 0 1:-0.90099 2:-1 3:-1 
1 0 1:-1 2:-1 3:-1 
1 0 1:-0.782178 2:-1 3:-1 
1 0 1:-0.861386 2:-1 3:-1 
1 0 1:-0.920792 2:-1 3:-1 
1 0 1:-0.90099 2:-1 3:-1 
1 1 1:-0.940594 2:-0.836735 3:-0.836066 
1 0 1:-1 2:-1 3:-1 
1 0 1:-0.940594 2:-1 3:-1 
1 0 1:-0.742574 2:-0.959184 3:-1 
1 0 1:-0.960396 2:-1 3:-1 
1 0 1:-0.90099 2:-1 3:-1 
1 0 1:-0.722772 2:-1 3:-0.901639 
1 0 1:-0.762376 2:-0.877551 3:-0.803279 
1 0 1:-0.920792 2:-1 3:-1 
1 0 1:-0.960396 2:-1 3:-1 
1 0.1415522055078288 1:-0.70297 2:-0.346939 3:-0.737705 
1 0 1:-1 2:-1 3:-1 
1 0 1:-0.564356 2:-1 3:-1 
1 0 1:-0.960396 2:-1 3:-1 
1 0 1:-1 2:-1 3:-1 
1 0 1:-1 2:-1 3:-1 
1 0 1:-1 2:-1 3:-1 
1 0 1:-1 2:-1 3:-1 
1 0 1:-1 2:-1 3:-1 
1 0.02589526331469203 1:-0.782178 2:-0.755102 3:-0.836066 
1 0 1:-0.782178 2:-0.959184 3:-1 
1 0 1:-0.940594 2:-1 3:-1 
1 0 1:-0.920792 2:-1 3:-1 
1 0 1:-0.960396 2:-1 3:-1 
1 0 1:-0.861386 2:-1 3:-1 
1 0 1:-0.623762 2:-1 3:-0.967213 
1 0 1:-0.821782 2:-1 3:-1 
1 0 1:-0.920792 2:-1 3:-1 
1 0 1:-0.881188 2:-0.918367 3:-0.770492 
1 0 1:-0.960396 2:-1 3:-1 
1 0 1:-0.920792 2:-1 3:-1 
1 0 1:-0.70297 2:-1 3:-1 
1 0 1:-0.881188 2:-1 3:-1 
1 0 1:-0.920792 2:-1 3:-1 
1 0 1:-0.960396 2:-1 3:-1 
1 0 1:-0.861386 2:-1 3:-1 
1 0 1:-0.722772 2:-1 3:-1 
1 0 1:-0.920792 2:-1 3:-1 
1 0 1:-0.940594 2:-1 3:-1 
1 0 1:-0.821782 2:-1 3:-1 
1 0 1:-0.821782 2:-1 3:-0.803279 
1 0 1:-0.70297 2:-0.877551 3:-0.836066 
1 0 1:-0.940594 2:-1 3:-1 
1 0 1:-0.960396 2:-0.959184 3:-1 
1 0 1:-0.940594 2:-1 3:-1 
1 0 1:-0.821782 2:-1 3:-1 
1 0 1:-0.940594 2:-0.755102 3:-0.344262 
1 0 1:-0.940594 2:-1 3:-1 
1 0 1:-0.920792 2:-1 3:-0.934426 
1 1 1:-0.623762 2:-0.795918 3:-1 
1 0 1:-0.445545 2:-0.918367 3:-0.836066 
1 0 1:-0.960396 2:-0.755102 3:-1 
1 0 1:-0.920792 2:-1 3:-1 
1 0 1:-0.940594 2:-1 3:-1 
1 0 1:-0.722772 2:-0.795918 3:-1 
1 0 1:-0.80198 2:-1 3:-1 
1 0 1:-0.960396 2:-1 3:-1 
1 0 1:-0.940594 2:-1 3:-1 
1 0 1:-0.940594 2:-1 3:-0.934426 
1 0 1:-0.920792 2:-1 3:-1 
1 0 1:-0.841584 2:-0.306122 3:-1 
1 0 1:-0.623762 2:-0.877551 3:-1 
1 1 1:-0.881188 2:-1 3:-0.803279 
1 0 1:-0.920792 2:-1 3:-1 
1 0.01116827106571965 1:-0.920792 2:-0.918367 3:-0.901639 
1 0 1:-0.960396 2:-1 3:-1 
1 0 1:-0.623762 2:-0.632653 3:-0.967213 
1 0 1:-0.90099 2:-1 3:-1 
1 0 1:-0.782178 2:-1 3:-0.770492 
1 0 1:-0.742574 2:-0.55102 3:-0.934426 
1 0 1:-0.50495 2:-1 3:-0.770492 
1 0 1:-0.940594 2:-1 3:-1 
1 0 1:-0.960396 2:-1 3:-1 
1 0 1:-0.643564 2:-0.918367 3:-0.868852 
1 0 1:-0.940594 2:-1 3:-1 
1 0 1:-0.861386 2:-1 3:-1 
1 0 1:-0.940594 2:-1 3:-1 
1 0.1662778720824795 1:-0.940594 2:-0.836735 3:-0.868852 
1 0 1:-0.881188 2:-1 3:-1 
1 1 1:-0.663366 2:-0.877551 3:-0.901639 
1 0 1:-0.742574 2:-0.877551 3:-1 
1 0 1:-0.881188 2:-1 3:-1 
1 0 1:-0.940594 2:-1 3:-1 
1 0 1:-0.861386 2:-1 3:-1 
1 0 1:-0.920792 2:-1 3:-0.934426 
1 0 1:-0.762376 2:-1 3:-0.672131 
1 0 1:-0.881188 2:-1 3:-1 
1 0 1:-0.940594 2:-1 3:-1 
1 0 1:-1 2:-1 3:-1 
1 0 1:-0.920792 2:-1 3:-1 
1 0 1:-0.940594 2:-1 3:-1 
1 0 1:-0.643564 2:-0.918367 3:-0.803279 
1 0 1:-0.920792 2:-1 3:-1 
1 0 1:-0.940594 2:-1 3:-1 
1 0 1:-0.940594 2:-1 3:-1 
1 0 1:-0.960396 2:-1 3:-1 
1 0 1:-0.762376 2:-0.918367 3:-0.803279 
1 0 1:-0.960396 2:-1 3:-1 
1 0 1:-0.683168 2:-1 3:-1 
1 0 1:-0.80198 2:-1 3:-0.967213 
1 0 1:-0.70297 2:-0.959184 3:-1 
1 0 1:-0.920792 2:-1 3:-0.967213 
1 0 1:-0.762376 2:-0.959184 3:-0.901639 
1 0 1:-0.90099 2:-1 3:-1 
1 0 1:-0.940594 2:-1 3:-1 
1 0 1:-0.861386 2:-1 3:-1 
1 0 1:-0.80198 2:-0.918367 3:-0.967213 
1 0 1:-0.940594 2:-1 3:-0.967213 
1 0 1:-0.960396 2:-1 3:-1 
1 0 1:-0.940594 2:-1 3:-1 
1 0 1:-0.821782 2:-1 3:-1 
1 0 1:-0.920792 2:-1 3:-0.934426 
1 0 1:-0.861386 2:-1 3:-0.901639 
1 0 1:-0.90099 2:-1 3:-1 
1 0 1:-0.960396 2:-1 3:-1 
1 0 1:-0.960396 2:-1 3:-0.868852 
1 0 1:-0.920792 2:-1 3:-1 
1 0 1:-0.940594 2:-1 3:-1 
1 0 1:-0.90099 2:-1 3:-1 
1 0 1:-0.960396 2:-1 3:-1 
1 0 1:-0.920792 2:-1 3:-1 
1 0 1:-0.960396 2:-1 3:-1 
1 0 1:-0.940594 2:-1 3:-1 
1 0 1:-0.960396 2:-1 3:-1 
1 0 1:-0.623762 2:-1 3:-1 
1 0 1:-0.940594 2:-0.918367 3:-0.901639 
1 0 1:-1 2:-1 3:-1 
1 0 1:-1 2:-1 3:-1 
1 0 1:-1 2:-1 3:-1 
1 0 1:-0.881188 2:-0.877551 3:-0.967213 
1 0 1:-0.960396 2:-1 3:-1 
1 0 1:-0.881188 2:-0.877551 3:-1 
1 0 1:-0.980198 2:-1 3:-1 
1 0 1:-0.960396 2:-1 3:-1 
1 0 1:-1 2:-1 3:-1 
1 0 1:-0.980198 2:-1 3:-1 
1 0 1:-0.920792 2:-1 3:-0.934426 
1 0 1:-0.80198 2:-1 3:-1 
1 0 1:-0.821782 2:-1 3:-0.934426 
1 0 1:-0.821782 2:-1 3:-0.868852 
1 0 1:-1 2:-1 3:-1 
1 0 1:-1 2:-1 3:-1 
1 0 1:-0.940594 2:-1 3:-1 
1 0 1:-0.980198 2:-1 3:-1 
1 0 1:-0.940594 2:-1 3:-1 
1 0 1:-0.683168 2:-0.959184 3:-0.868852 
1 0 1:-1 2:-1 3:-1 
1 0 1:-0.821782 2:-1 3:-1 
1 0 1:-0.60396 2:-0.673469 3:-1 
1 0 1:-0.940594 2:-1 3:-1 
1 0 1:-0.960396 2:-1 3:-0.934426 
1 0 1:-0.940594 2:-1 3:-1 
1 0 1:-1 2:-1 3:-1 
1 0 1:-0.960396 2:-1 3:-1 
1 0 1:-0.821782 2:-1 3:-0.934426 
1 0 1:-0.960396 2:-0.836735 3:-1 
1 0 1:-0.247525 2:-0.918367 3:-1 
1 0 1:-0.960396 2:-1 3:-1 
1 0 1:-0.841584 2:-1 3:-1 
1 0 1:-0.584158 2:-1 3:-0.934426 
1 0 1:-0.920792 2:-1 3:-1 
1 0 1:-0.80198 2:-0.755102 3:-0.901639 
1 0 1:-0.60396 2:-1 3:-1 
0.9496170413493393 0.07640262512455889 1:0.049505 2:-0.142857 3:-1 
1 0 1:-0.920792 2:-0.755102 3:-1 
1 0 1:-0.90099 2:-1 3:-1 
1 0 1:-0.920792 2:-1 3:-1 
1 1 1:-0.881188 2:-1 3:-0.901639 
1 0 1:-0.920792 2:-1 3:-1 
1 0 1:-0.821782 2:-1 3:-1 
1 0 1:-0.80198 2:-1 3:-0.967213 
1 0 1:-0.485149 2:-1 3:-0.737705 
1 0 1:-0.584158 2:-0.591837 3:-1 
1 0 1:-0.762376 2:-1 3:-1 
1 0 1:-1 2:-1 3:-1 
1 0 1:-0.940594 2:-0.918367 3:-0.934426 
1 0 1:-1 2:-1 3:-1 
1 0 1:-0.960396 2:-1 3:-1 
1 0 1:-0.722772 2:-1 3:-1 
1 0 1:-0.623762 2:-1 3:-1 
1 0 1:-0.782178 2:-1 3:-0.868852 
1 0 1:-0.920792 2:-1 3:-1 
1 0 1:-0.821782 2:-1 3:-1 
1 0 1:-0.960396 2:-1 3:-1 
1 0 1:-0.841584 2:-1 3:-1 
1 0 1:-0.70297 2:-1 3:-0.868852 
1 0 1:-1 2:-1 3:-1 
1 0 1:-0.663366 2:-0.959184 3:-0.836066 
1 0 1:-0.940594 2:-1 3:-1 
1 0 1:-0.940594 2:-1 3:-1 
1 0 1:-0.80198 2:-1 3:-1 
1 0 1:-0.70297 2:-1 3:-1 
1 0 1:-0.980198 2:-0.428571 3:-1 
1 0 1:-1 2:-1 3:-1 
1 0 1:-0.722772 2:-1 3:-0.934426 
1 0 1:-0.940594 2:-1 3:-1 
1 0 1:-0.861386 2:-1 3:-0.967213 
1 0 1:-0.960396 2:-1 3:-1 
1 0 1:-0.346535 2:-1 3:-1 
1 0 1:-0.940594 2:-1 3:-1 
1 0 1:-0.920792 2:-1 3:-1 
1 0 1:-0.940594 2:-1 3:-1 
1 0 1:-0.821782 2:-1 3:-1 
1 0 1:-0.821782 2:-0.877551 3:-0.967213 
1 0 1:-0.841584 2:-1 3:-1 
1 0 1:-0.90099 2:-1 3:-0.803279 
1 0 1:-0.782178 2:-0.959184 3:-0.967213 
1 0 1:-0.940594 2:-1 3:-1 
1 0 1:-0.940594 2:-1 3:-1 
1 0 1:-0.960396 2:-1 3:-1 
1 0 1:-0.960396 2:-1 3:-1 
1 0 1:-0.841584 2:-1 3:-1 
1 0 1:-0.584158 2:-0.918367 3:-0.934426 
1 0 1:-0.80198 2:-0.877551 3:-1 
1 0 1:-0.940594 2:-1 3:-1 
1 0 1:-0.742574 2:-1 3:-0.868852 
1 0 1:-0.960396 2:-1 3:-1 
1 0 1:-0.90099 2:-1 3:-1 
1 0 1:-0.960396 2:-1 3:-1 
1 0 1:-0.584158 2:-1 3:-0.967213 
1 0 1:-0.722772 2:-1 3:-0.803279 
1 0 1:-0.960396 2:-1 3:-1 
1 0 1:-0.861386 2:-1 3:-1 
1 0 1:-0.960396 2:-1 3:-1 
1 0 1:-0.821782 2:-0.877551 3:-0.836066 
1 0 1:-0.960396 2:-1 3:-1 
1 0 1:-0.940594 2:-1 3:-1 
1 0 1:-0.960396 2:-1 3:-1 
1 0 1:-0.405941 2:-0.591837 3:-1 
1 0 1:-0.841584 2:-1 3:-1 
1 0 1:-1 2:-1 3:-1 
1 0 1:-0.861386 2:-1 3:-1 
1 0 1:-0.920792 2:-1 3:-1 
1 0 1:-0.742574 2:-1 3:-1 
1 0 1:-0.881188 2:-1 3:-1 
1 0 1:-0.90099 2:-1 3:-1 
1 0 1:-1 2:-1 3:-1 
1 0 1:-0.821782 2:-1 3:-0.770492 
1 0 1:-0.821782 2:-1 3:-0.967213 
1 0 1:-0.960396 2:-1 3:-1 
1 0 1:-0.940594 2:-1 3:-1 
1 0 1:-0.960396 2:-1 3:-1 
1 0 1:-0.861386 2:-0.795918 3:-0.770492 
1 0 1:-0.80198 2:-1 3:-0.967213 
1 0 1:-0.782178 2:-0.959184 3:-1 
1 0 1:-0.841584 2:-1 3:-1 
1 0 1:-0.465347 2:-0.959184 3:-1 
1 0 1:-0.920792 2:-1 3:-1 
1 0 1:-0.663366 2:-1 3:-0.934426 
1 0 1:-0.861386 2:-1 3:-1 
1 0 1:-0.524752 2:-0.265306 3:-0.934426 
1 0 1:-0.920792 2:-1 3:-1 
1 0 1:-0.663366 2:-1 3:-0.803279 
1 0 1:-0.663366 2:-0.918367 3:-1 
1 0 1:-1 2:-1 3:-1 
1 0 1:-0.70297 2:-0.673469 3:-0.967213 
1 0 1:-0.960396 2:-1 3:-0.803279 
1 0 1:-0.940594 2:-1 3:-1 
1 0 1:-0.960396 2:-0.877551 3:-0.803279 
1 0 1:-0.881188 2:-0.918367 3:-0.836066 
1 0 1:-0.960396 2:-1 3:-1 
1 0 1:-0.940594 2:-1 3:-1 
1 0 1:-0.861386 2:-1 3:-1 
1 1 1:-0.762376 2:-0.714286 3:-0.901639 
1 0 1:-0.861386 2:-1 3:-1 
1 0 1:-0.940594 2:-1 3:-1 
1 0 1:-0.940594 2:-1 3:-1 
1 0 1:-1 2:-1 3:-1 
1 0 1:-0.722772 2:-1 3:-0.803279 
1 0 1:-0.762376 2:-1 3:-0.803279 
1 0 1:-0.584158 2:0.306122 3:-0.934426 
1 0 1:-0.742574 2:-1 3:-0.868852 
1 0 1:-0.782178 2:-0.673469 3:-0.934426 
1 0 1:-0.782178 2:-1 3:-0.803279 
1 0 1:-0.90099 2:-0.877551 3:-1 
1 0 1:-0.70297 2:-0.795918 3:-1 
1 0 1:-0.841584 2:-1 3:-1 
1 0 1:-0.960396 2:-1 3:-1 
1 0 1:-0.980198 2:-1 3:-1 
1 0 1:-0.70297 2:-1 3:-1 
1 0 1:-0.940594 2:-1 3:-1 
1 0 1:-0.960396 2:-1 3:-1 
1 0 1:-0.960396 2:-1 3:-1 
1 0 1:-0.663366 2:-0.591837 3:-0.868852 
1 0 1:-0.80198 2:-1 3:-1 
1 0 1:-0.841584 2:-0.836735 3:-0.442623 
1 0 1:-0.821782 2:-1 3:-1 
1 0 1:-0.80198 2:-1 3:-0.967213 
1 0 1:-0.90099 2:-1 3:-1 
1 0 1:-0.841584 2:-0.714286 3:-1 
1 0 1:-0.643564 2:-0.755102 3:-1 
1 0 1:-0.722772 2:-0.795918 3:-1 
1 0 1:-0.762376 2:-1 3:-1 
1 0 1:-0.920792 2:-1 3:-1 
1 0 1:-0.70297 2:-0.918367 3:-1 
1 0 1:-0.90099 2:-1 3:-1 
1 0 1:-0.940594 2:-1 3:-1 
1 0 1:-0.683168 2:-1 3:-1 
1 0 1:-0.980198 2:-0.918367 3:-0.672131 
1 0 1:-0.960396 2:-0.877551 3:-0.934426 
1 0 1:-0.960396 2:-1 3:-1 
1 0 1:-0.90099 2:-0.918367 3:-0.836066 
1 0 1:-0.960396 2:-1 3:-1 
1 0 1:-0.960396 2:-1 3:-1 
1 0 1:-0.940594 2:-1 3:-1 
1 0 1:-0.960396 2:-0.918367 3:-0.704918 
1 0 1:-0.584158 2:-1 3:-0.868852 
1 0 1:-0.960396 2:-1 3:-1 
1 0 1:-0.940594 2:-1 3:-1 
1 0 1:-0.940594 2:-0.959184 3:-1 
1 0 1:-0.940594 2:-1 3:-1 
1 0 1:-0.940594 2:-1 3:-1 
1 0 1:-0.960396 2:-1 3:-1 
1 0 1:-0.940594 2:-1 3:-1 
1 0 1:-0.762376 2:-1 3:-0.934426 
1 0 1:-0.940594 2:-1 3:-1 
1 0 1:-0.80198 2:-1 3:-0.770492 
1 0 1:-0.782178 2:-0.918367 3:-1 
1 0 1:-0.960396 2:-1 3:-1 
1 0 1:-0.940594 2:-1 3:-1 
1 0 1:-0.683168 2:-0.918367 3:-1 
1 0 1:-0.70297 2:-0.918367 3:-0.868852 
1 0 1:-0.881188 2:-1 3:-1 
1 0 1:-1 2:-1 3:-1 
1 0.468058690233597 1:0.00990099 2:-0.877551 3:-0.803279 
1 0 1:-0.881188 2:-1 3:-1 
1 0 1:-0.940594 2:-1 3:-1 
1 0 1:-0.643564 2:-0.877551 3:-0.803279 
1 0 1:-0.762376 2:-0.673469 3:-0.868852 
1 0 1:-0.346535 2:0.346939 3:-0.901639 
1 0 1:-0.960396 2:-1 3:-1 
1 0 1:-0.980198 2:-1 3:-1 
1 0 1:-0.940594 2:-1 3:-1 
1 0 1:-0.861386 2:-0.714286 3:-1 
1 0 1:-0.960396 2:-1 3:-1 
1 0 1:-0.980198 2:-1 3:-0.967213 
1 0 1:-0.940594 2:-1 3:-1 
1 0 1:-0.960396 2:-1 3:-1 
1 0 1:-0.960396 2:-1 3:-1 
1 0 1:-0.940594 2:-1 3:-1 
1 0 1:-0.920792 2:-0.836735 3:-1 
0.1867661817321798 0 1:-0.405941 2:-0.469388 3:-0.409836 
1 0 1:-0.960396 2:-1 3:-1 
1 0 1:-1 2:-1 3:-1 
1 0 1:-1 2:-1 3:-1 
1 0 1:-0.663366 2:-0.755102 3:-0.868852 
1 0 1:-0.980198 2:-1 3:-1 
1 0 1:-0.762376 2:-1 3:-1 
1 0 1:-0.920792 2:-1 3:-1 
1 0 1:-0.940594 2:-1 3:-1 
1 0 1:-0.90099 2:-1 3:-1 
1 0 1:-0.940594 2:-0.632653 3:-1 
1 0 1:-0.861386 2:-0.55102 3:-1 
1 0 1:-0.742574 2:-1 3:-1 
1 0 1:-1 2:-1 3:-1 
1 0 1:-0.70297 2:-1 3:-0.967213 
1 0 1:-1 2:-1 3:-1 
1 0 1:-1 2:-1 3:-1 
1 0 1:-1 2:-1 3:-1 
1 0 1:-0.920792 2:-1 3:-1 
1 0 1:-1 2:-1 3:-1 
1 0 1:-1 2:-1 3:-1 
1 0 1:-0.940594 2:-1 3:-1 
1 0 1:-0.920792 2:-1 3:-1 
1 0 1:-0.940594 2:-1 3:-1 
1 0 1:-0.940594 2:-1 3:-1 
1 0 1:-0.80198 2:-0.959184 3:-1 
1 0 1:-0.643564 2:-0.714286 3:-1 
1 0 1:-0.881188 2:-1 3:-1 
1 0 1:-0.881188 2:-1 3:-1 
1 0 1:-0.841584 2:-1 3:-1 
1 0 1:-0.821782 2:-0.469388 3:-0.934426 
1 0 1:-0.861386 2:-0.755102 3:-0.967213 
1 0 1:-0.940594 2:-1 3:-1 
1 0 1:-0.821782 2:-0.877551 3:-1 
1 0 1:-0.643564 2:-1 3:-1 
1 0 1:-0.90099 2:-1 3:-1 
1 0 1:-0.920792 2:-1 3:-1 
1 0 1:-0.940594 2:-0.918367 3:-1 
1 0 1:-0.346535 2:-0.387755 3:-1 
1 1 1:-0.683168 2:-1 3:-0.868852 
1 1 1:-0.524752 2:-0.510204 3:-1 
1 0 1:-1 2:-1 3:-1 
1 0 1:-0.80198 2:-1 3:-1 
1 0 1:-0.940594 2:-1 3:-1 
1 0 1:-0.861386 2:-1 3:-1 
1 0 1:-0.940594 2:-1 3:-1 
1 0 1:-0.920792 2:-1 3:-1 
1 0 1:-0.920792 2:-1 3:-1 
1 0 1:-0.742574 2:-0.877551 3:-0.967213 
1 0 1:-0.762376 2:-0.877551 3:-0.803279 
1 0 1:-0.881188 2:-1 3:-0.967213 
1 0 1:-0.920792 2:-1 3:-0.934426 
1 0 1:-0.762376 2:-0.55102 3:-1 
1 0 1:-1 2:-1 3:-1 
1 0 1:-0.881188 2:-0.918367 3:-1 
1 0 1:-0.881188 2:-1 3:-1 
1 0 1:-0.881188 2:-1 3:-1 
1 0 1:-0.980198 2:-1 3:-0.770492 
1 0 1:-0.821782 2:-1 3:-1 
1 0 1:-0.940594 2:-1 3:-0.934426 
1 0 1:-0.643564 2:-1 3:-1 
1 0 1:-0.920792 2:-1 3:-1 
1 0 1:-0.841584 2:-1 3:-1 
1 0 1:-0.940594 2:-1 3:-1 
1 0 1:-0.881188 2:-1 3:-1 
1 1 1:-0.90099 2:-0.877551 3:-0.540984 
1 0 1:-0.643564 2:-0.755102 3:-0.934426 
1 0 1:-0.267327 2:-0.510204 3:-1 
1 0 1:-0.524752 2:-0.55102 3:-1 
1 0 1:-0.623762 2:-1 3:-1 
1 0 1:-0.960396 2:-1 3:-1 
1 0 1:-0.920792 2:-1 3:-1 
1 0 1:-0.742574 2:-0.673469 3:-1 
1 0 1:-0.881188 2:-1 3:-1 
1 0.648496514187182 1:-0.584158 2:-0.428571 3:-0.770492 
1 1 1:-0.841584 2:-0.877551 3:-1 
1 0 1:-0.841584 2:-1 3:-0.967213 
1 0 1:-0.940594 2:-1 3:-0.836066 
1 0 1:-0.90099 2:-0.959184 3:-0.836066 
1 0 1:-0.980198 2:-1 3:-1 
1 0.01074109467844143 1:-0.881188 2:-0.714286 3:-0.868852 
1 0 1:-0.90099 2:-1 3:-0.934426 
1 0 1:-0.643564 2:-0.918367 3:-0.639344 
1 0 1:-0.940594 2:-1 3:-1 
1 0 1:-0.940594 2:-1 3:-1 
1 0 1:-0.90099 2:-1 3:-1 
1 0 1:-0.465347 2:-0.959184 3:-1 
1 0 1:-0.881188 2:-1 3:-1 
1 0 1:-0.940594 2:-1 3:-1 
1 0 1:-0.90099 2:-1 3:-1 
1 0 1:-0.960396 2:-0.918367 3:-1 
1 0 1:-0.940594 2:-1 3:-1 
1 0 1:-0.940594 2:-1 3:-1 
1 0 1:-0.960396 2:-1 3:-1 
1 0 1:-0.90099 2:-1 3:-1 
1 0 1:-0.861386 2:-0.795918 3:-1 
1 0 1:-0.70297 2:-0.673469 3:-0.868852 
1 0 1:-0.960396 2:-1 3:-1 
1 0 1:-0.861386 2:-1 3:-1 
1 0 1:-0.940594 2:-1 3:-1 
1 0 1:-0.920792 2:-1 3:-1 
1 0 1:-0.920792 2:-1 3:-1 
1 0 1:-0.920792 2:-1 3:-1 
1 0 1:-0.821782 2:-1 3:-1 
1 0 1:-0.940594 2:-1 3:-1 
1 0 1:-0.940594 2:-1 3:-1 
1 0 1:-1 2:-1 3:-1 
1 0 1:-0.782178 2:-1 3:-0.934426 
1 0 1:-0.940594 2:-1 3:-1 
1 0 1:-0.960396 2:-0.836735 3:-0.934426 
1 0 1:-0.742574 2:-1 3:-0.868852 
1 0 1:-0.960396 2:-1 3:-1 
1 0 1:-0.861386 2:-1 3:-1 
1 0 1:-0.722772 2:-0.918367 3:-0.836066 
1 0 1:-0.564356 2:-1 3:-0.967213 
1 0 1:-0.960396 2:-1 3:-1 
1 0 1:-0.722772 2:-1 3:-0.836066 
1 0 1:-0.544554 2:-0.836735 3:-0.967213 
1 0 1:-0.861386 2:-1 3:-0.836066 
1 0 1:-0.940594 2:-1 3:-1 
1 1 1:-0.881188 2:-1 3:-0.901639 
1 0 1:-0.920792 2:-1 3:-1 
1 0 1:-0.90099 2:-1 3:-0.868852 
1 0 1:-0.920792 2:-1 3:-0.967213 
1 0 1:-0.960396 2:-1 3:-1 
1 0 1:-0.920792 2:-1 3:-1 
1 0.9930590167340068 1:-0.920792 2:-0.265306 3:-1 
1 0 1:-0.940594 2:-1 3:-1 
1 0 1:-0.940594 2:-1 3:-1 
1 0 1:-0.960396 2:-1 3:-1 
1 0 1:-0.80198 2:-1 3:-1 
1 0 1:-0.940594 2:-1 3:-1 
1 0 1:-0.940594 2:-1 3:-1 
1 0 1:-0.841584 2:-0.387755 3:-1 
1 0 1:-0.960396 2:-1 3:-1 
1 0 1:-0.940594 2:-1 3:-1 
1 0 1:-0.80198 2:-0.510204 3:-0.868852 
1 0 1:-0.960396 2:-1 3:-1 
1 0 1:-0.960396 2:-0.836735 3:-1 
1 0 1:-0.940594 2:-0.959184 3:-1 
1 0 1:-0.940594 2:-1 3:-0.934426 
1 0 1:-0.742574 2:-0.918367 3:-0.934426 
1 0 1:-0.584158 2:-1 3:-1 
1 0 1:-0.940594 2:-1 3:-0.868852 
1 0 1:-0.920792 2:-1 3:-1 
1 0 1:-0.920792 2:-1 3:-1 
1 1 1:-0.683168 2:-0.877551 3:-0.803279 
1 0 1:-0.960396 2:-1 3:-1 
1 0 1:-0.80198 2:-0.673469 3:-1 
1 0 1:-0.841584 2:-1 3:-1 
1 0 1:-0.960396 2:-1 3:-1 
1 0 1:-0.940594 2:-1 3:-0.934426 
1 0 1:-1 2:-1 3:-1 
1 0 1:-1 2:-1 3:-1 
1 0 1:-0.940594 2:-1 3:-1 
1 0 1:-0.920792 2:-1 3:-1 
1 0 1:-0.960396 2:-1 3:-1 
1 0 1:-0.920792 2:-1 3:-1 
1 0 1:-0.980198 2:-1 3:-1 
1 0 1:-0.960396 2:-1 3:-1 
1 0 1:-0.920792 2:-0.795918 3:-0.868852 
1 0 1:-0.762376 2:-0.55102 3:-1 
1 0 1:-0.90099 2:-1 3:-1 
1 0 1:-1 2:-1 3:-1 
1 0 1:-1 2:-1 3:-1 
1 0 1:-0.960396 2:-1 3:-1 
1 0 1:-0.306931 2:-0.346939 3:-0.770492 
1 0 1:-0.881188 2:-1 3:-1 
1 0 1:-0.841584 2:-1 3:-1 
1 0 1:-0.960396 2:-1 3:-1 
1 0 1:-0.881188 2:-1 3:-0.737705 
1 0 1:-0.960396 2:-1 3:-1 
1 0 1:-1 2:-1 3:-1 
1 0 1:-0.861386 2:-1 3:-0.901639 
1 0 1:-0.920792 2:-1 3:-1 
1 0 1:-0.920792 2:-1 3:-1 
1 0 1:-0.940594 2:-1 3:-0.770492 
1 0 1:-0.920792 2:-1 3:-1 
1 0 1:-0.980198 2:-1 3:-1 
1 0 1:-0.90099 2:-1 3:-1 
1 0 1:-0.782178 2:-1 3:-1 
1 0 1:-0.881188 2:-0.591837 3:-0.803279 
1 0 1:-0.940594 2:-1 3:-1 
1 0 1:-0.762376 2:-0.959184 3:-0.967213 
1 0 1:-0.821782 2:-1 3:-0.967213 
1 0 1:-0.960396 2:-1 3:-1 
1 0 1:-0.920792 2:-0.755102 3:-0.868852 
1 0 1:-0.742574 2:-0.959184 3:-1 
1 0 1:-1 2:-1 3:-1 
1 0 1:-0.940594 2:-0.877551 3:-0.967213 
1 0 1:-0.940594 2:-1 3:-1 
1 0 1:-0.782178 2:-1 3:-1 
1 0 1:-0.940594 2:-1 3:-1 
1 0 1:-1 2:-1 3:-1 
1 0 1:-0.960396 2:-1 3:-1 
1 0 1:-0.940594 2:-1 3:-0.704918 
1 0 1:-0.940594 2:-1 3:-1 
1 0 1:-0.762376 2:-1 3:-1 
1 0 1:-0.643564 2:-1 3:-0.934426 
1 0 1:-0.960396 2:-1 3:-1 
1 0 1:-0.90099 2:-1 3:-0.934426 
1 0 1:-0.960396 2:-1 3:-0.967213 
1 0 1:-0.821782 2:-0.877551 3:-0.737705 
1 0 1:-0.881188 2:-1 3:-0.934426 
1 0 1:-0.762376 2:-1 3:-0.868852 
1 0 1:-0.524752 2:-0.265306 3:-1 
1 0 1:-0.782178 2:-0.795918 3:-0.934426 
1 0 1:-0.584158 2:-1 3:-1 
1 0 1:-0.643564 2:-1 3:-0.868852 
1 0 1:-0.485149 2:-1 3:-0.868852 
1 0 1:-0.940594 2:-1 3:-1 
1 0 1:-0.940594 2:-1 3:-1 
1 0 1:-0.960396 2:-1 3:-1 
1 0 1:-0.782178 2:-1 3:-0.803279 
1 0 1:-0.70297 2:-1 3:-0.967213 
1 1 1:-0.584158 2:-0.673469 3:-0.901639 
1 0 1:-1 2:-1 3:-1 
1 0 1:-1 2:-1 3:-1 
1 0 1:-0.90099 2:-1 3:-1 
1 0 1:-0.960396 2:-1 3:-1 
1 0 1:-0.960396 2:-1 3:-1 
1 0 1:-0.70297 2:-0.877551 3:-1 
1 0 1:-0.940594 2:-1 3:-0.967213 
1 0 1:-0.920792 2:-1 3:-1 
1 0 1:-0.821782 2:-0.877551 3:-0.868852 
1 0 1:-0.782178 2:-1 3:-0.901639 
1 0 1:-0.722772 2:-0.714286 3:-1 
1 0 1:-0.940594 2:-0.918367 3:-1 
1 0 1:-0.980198 2:-1 3:-1 
1 0 1:-0.782178 2:-1 3:-0.868852 
1 0 1:-0.920792 2:-1 3:-1 
1 0 1:-1 2:-1 3:-1 
1 0 1:-0.920792 2:-1 3:-1 
1 0 1:-0.861386 2:-1 3:-0.901639 
1 0 1:-0.90099 2:-1 3:-1 
1 0 1:-0.920792 2:-0.918367 3:-0.803279 
1 0 1:-0.524752 2:-0.918367 3:-1 
1 0 1:-0.960396 2:-1 3:-1 
1 0 1:-0.940594 2:-1 3:-1 
1 0 1:-0.940594 2:-1 3:-1 
1 0 1:-0.960396 2:-1 3:-1 
1 0 1:-0.960396 2:-1 3:-0.934426 
1 0 1:-0.960396 2:-1 3:-1 
1 0 1:-0.920792 2:-1 3:-1 
1 0 1:-0.722772 2:-1 3:-0.967213 
1 0 1:-1 2:-1 3:-1 
1 0 1:-0.643564 2:-1 3:-0.868852 
1 0 1:-0.0693069 2:-1 3:-1 
1 0 1:-0.90099 2:-1 3:-1 
1 1 1:-1 2:-0.959184 3:-0.672131 
1 0 1:-0.762376 2:-1 3:-0.868852 
0.469053136656388 0 1:-0.762376 2:-0.877551 3:-0.803279 
1 0 1:-0.960396 2:-1 3:-1 
1 0 1:-0.920792 2:-1 3:-0.606557 
1 0 1:-0.90099 2:-1 3:-1 
1 0 1:-0.861386 2:-0.714286 3:-1 
1 0 1:-0.821782 2:-1 3:-0.934426 
1 0 1:-0.940594 2:-1 3:-1 
1 0 1:-0.643564 2:-1 3:-0.934426 
1 1 1:-0.60396 2:-0.836735 3:-1 
1 0 1:-0.920792 2:-1 3:-1 
1 0 1:-0.821782 2:-0.755102 3:-1 
1 0 1:-0.920792 2:-1 3:-1 
1 0 1:-0.960396 2:-1 3:-1 
1 0 1:-0.782178 2:-1 3:-0.737705 
1 0 1:-0.920792 2:-1 3:-1 
1 0 1:-0.90099 2:-1 3:-1 
1 0 1:-0.623762 2:-0.918367 3:-0.868852 
1 0 1:-0.861386 2:-1 3:-1 
1 0 1:-0.960396 2:-1 3:-1 
1 0 1:-0.980198 2:-1 3:-1 
1 0 1:-0.940594 2:-1 3:-1 
1 0 1:-0.940594 2:-1 3:-1 
1 0 1:-0.960396 2:-1 3:-1 
1 0 1:-0.960396 2:-1 3:-1 
1 0 1:-0.940594 2:-1 3:-0.803279 
1 0 1:-0.782178 2:-1 3:-0.934426 
1 0 1:-0.960396 2:-1 3:-1 
1 0 1:-0.366337 2:-0.755102 3:-1 
1 0 1:-0.940594 2:-1 3:-1 
1 0 1:-0.841584 2:-1 3:-0.967213 
1 0 1:-0.841584 2:-0.755102 3:-1 
1 0 1:-0.742574 2:-0.755102 3:-0.967213 
1 0 1:-0.881188 2:-1 3:-1 
1 0 1:-0.782178 2:-1 3:-0.836066 
1 0.3338637133055482 1:-0.524752 2:0.142857 3:-1 
1 0 1:-0.960396 2:-1 3:-1 
1 0 1:-0.960396 2:-1 3:-1 
1 0 1:-0.940594 2:-1 3:-1 
1 0 1:-0.80198 2:-1 3:-0.836066 
1 0 1:-0.881188 2:-1 3:-1 
1 0 1:-0.90099 2:-1 3:-1 
1 0 1:-0.940594 2:-1 3:-1 
1 0 1:-0.782178 2:-1 3:-0.868852 
1 0 1:-0.940594 2:-1 3:-1 
1 0 1:-1 2:-0.836735 3:-0.934426 
1 0 1:-0.861386 2:-0.918367 3:-1 
1 0 1:-0.940594 2:-1 3:-1 
1 0 1:-0.722772 2:-1 3:-0.868852 
1 0 1:-0.920792 2:-1 3:-1 
1 0 1:-0.960396 2:-1 3:-1 
1 0 1:-0.722772 2:-1 3:-0.901639 
1 0 1:-0.960396 2:-1 3:-1 
1 0 1:-0.940594 2:-1 3:-1 
1 0 1:-0.90099 2:-1 3:-0.934426 
1 0 1:-0.940594 2:-1 3:-1 
1 0 1:-0.782178 2:-0.632653 3:-0.934426 
1 0 1:-0.90099 2:-1 3:-1 
1 0 1:-0.861386 2:-1 3:-1 
1 0 1:-0.881188 2:-1 3:-1 
1 0 1:-0.70297 2:-0.755102 3:-1 
1 0 1:-0.960396 2:-1 3:-1 
1 0 1:-0.920792 2:-1 3:-1 
1 0 1:-0.920792 2:-1 3:-1 
1 0 1:-0.881188 2:-1 3:-1 
1 0 1:-0.940594 2:-1 3:-1 
1 0 1:-0.940594 2:-1 3:-0.934426 
1 0 1:-1 2:-1 3:-1 
1 0 1:-0.940594 2:-1 3:-1 
1 0 1:-0.960396 2:-1 3:-1 
1 0 1:-0.940594 2:-1 3:-1 
1 0 1:-0.940594 2:-1 3:-1 
1 0 1:-0.960396 2:-1 3:-1 
1 0 1:-0.920792 2:-1 3:-1 
1 0 1:-0.960396 2:-1 3:-0.901639 
1 0 1:-0.940594 2:-1 3:-1 
1 0 1:-0.960396 2:-1 3:-1 
1 0 1:-0.881188 2:-1 3:-1 
1 0 1:-0.940594 2:-1 3:-1 
1 0 1:-0.485149 2:-0.714286 3:-1 
1 0 1:-0.940594 2:-1 3:-1 
1 0 1:-0.940594 2:-1 3:-1 
1 0 1:-0.821782 2:-0.836735 3:-0.934426 
1 0 1:-0.643564 2:-0.795918 3:-0.868852 
1 0 1:-0.960396 2:-1 3:-1 
1 0 1:-0.940594 2:-1 3:-1 
1 0 1:-0.960396 2:-0.877551 3:-1 
1 0 1:-0.821782 2:-1 3:-1 
1 0 1:-0.60396 2:-0.755102 3:-0.934426 
1 0 1:-0.920792 2:-1 3:-1 
1 0 1:-0.920792 2:-0.959184 3:-0.967213 
1 0 1:-0.920792 2:-1 3:-1 
1 0 1:-0.584158 2:-0.918367 3:-1 
1 0 1:-0.762376 2:-1 3:-0.967213 
1 0 1:-0.821782 2:-0.795918 3:-1 
1 0 1:-0.960396 2:-1 3:-1 
1 0 1:-0.940594 2:-0.959184 3:-0.967213 
1 0 1:-0.940594 2:-1 3:-1 
1 0 1:-0.782178 2:-1 3:-0.901639 
1 0 1:-0.841584 2:-1 3:-0.836066 
1 0 1:-0.960396 2:-1 3:-1 
1 0 1:-0.90099 2:-1 3:-1 
1 0 1:-0.920792 2:-1 3:-1 
1 0 1:-0.940594 2:-1 3:-1 
1 0 1:-0.920792 2:-1 3:-1 
1 0 1:-0.782178 2:-1 3:-1 
1 0 1:-0.940594 2:-1 3:-1 
1 0 1:-0.960396 2:-1 3:-1 
1 0 1:-0.940594 2:-1 3:-1 
1 0 1:-0.940594 2:-1 3:-1 
1 0 1:-0.940594 2:-1 3:-1 
1 0 1:-0.90099 2:-0.918367 3:-0.868852 
1 0 1:-0.940594 2:-1 3:-1 
1 0 1:-0.940594 2:-1 3:-1 
1 0 1:-0.90099 2:-1 3:-1 
1 0 1:-0.980198 2:-1 3:-1 
1 0 1:-0.920792 2:-1 3:-1 
1 0 1:-0.980198 2:-1 3:-1 
1 0 1:-0.762376 2:-1 3:-0.967213 
1 0 1:-0.90099 2:-1 3:-1 
1 0 1:-0.940594 2:-1 3:-1 
1 0 1:-0.90099 2:-1 3:-1 
1 0 1:-0.70297 2:-1 3:-0.377049 
1 0 1:-0.940594 2:-1 3:-1 
1 0 1:-0.782178 2:-1 3:-1 
1 0 1:-0.940594 2:-1 3:-1 
1 0 1:-0.940594 2:-1 3:-0.967213 
1 0 1:-0.960396 2:-1 3:-1 
1 0 1:-0.940594 2:-1 3:-0.934426 
1 0 1:-0.960396 2:-1 3:-1 
1 0 1:-0.940594 2:-0.918367 3:-1 
1 0 1:-0.960396 2:-1 3:-1 
1 0 1:-0.861386 2:-1 3:-1 
1 0 1:-0.940594 2:-1 3:-1 
1 0 1:-0.940594 2:-0.959184 3:-1 
1 0 1:-0.80198 2:-0.959184 3:-0.803279 
1 0 1:-0.80198 2:-1 3:-1 
1 0 1:-0.960396 2:-1 3:-1 
1 0 1:-0.960396 2:-1 3:-1 
1 0 1:-0.960396 2:-1 3:-1 
1 0 1:-0.940594 2:-1 3:-1 
1 0 1:-0.841584 2:-1 3:-0.967213 
1 0 1:-0.920792 2:-1 3:-1 
1 0 1:-0.841584 2:-1 3:-0.934426 
1 0 1:-0.722772 2:-0.714286 3:-0.967213 
1 0 1:-0.742574 2:-1 3:-0.934426 
1 0 1:-0.960396 2:-1 3:-1 
1 0 1:-1 2:-1 3:-1 
1 0 1:-0.940594 2:-1 3:-1 
1 0 1:-1 2:-1 3:-1 
1 0 1:-1 2:-1 3:-1 
1 0 1:-1 2:-1 3:-1 
1 0 1:-1 2:-1 3:-1 
1 0 1:-0.960396 2:-1 3:-1 
1 0 1:-0.940594 2:-1 3:-1 
1 0 1:-0.920792 2:-0.918367 3:-0.737705 
1 0 1:-1 2:-1 3:-1 
1 0 1:-0.960396 2:-1 3:-1 
1 0 1:-0.50495 2:-0.959184 3:-0.967213 
1 1 1:-0.841584 2:-1 3:-0.967213 
1 0 1:-0.80198 2:-1 3:-0.967213 
1 0 1:-0.564356 2:-1 3:-1 
1 0 1:-0.920792 2:-1 3:-1 
1 0 1:-0.980198 2:-1 3:-1 
1 0 1:-0.960396 2:-1 3:-1 
1 0 1:-0.940594 2:-1 3:-1 
1 0 1:-0.881188 2:-0.959184 3:-1 
1 0 1:-0.920792 2:-1 3:-1 
1 0 1:-0.940594 2:-1 3:-1 
1 0 1:-0.920792 2:-1 3:-1 
1 0 1:-0.960396 2:-1 3:-1 
1 0 1:-0.960396 2:-1 3:-1 
1 0 1:-0.821782 2:-1 3:-1 
1 0 1:-0.623762 2:-1 3:-1 
1 0 1:-0.940594 2:-1 3:-1 
1 0 1:-0.920792 2:-1 3:-1 
1 0 1:-0.049505 2:-1 3:-1 
1 0 1:-0.940594 2:-1 3:-1 
1 0 1:-0.623762 2:-0.755102 3:-0.967213 
1 0 1:-0.742574 2:-0.877551 3:-0.934426 
1 0 1:-0.980198 2:-1 3:-0.836066 
1 0 1:-0.960396 2:-1 3:-1 
1 0 1:-0.90099 2:-1 3:-0.737705 
1 0 1:-0.920792 2:-1 3:-1 
1 0 1:-0.584158 2:-1 3:-1 
1 0 1:-0.960396 2:-1 3:-1 
1 0 1:-0.70297 2:-0.877551 3:-0.934426 
1 0 1:-0.821782 2:-0.755102 3:-0.901639 
1 0 1:-0.80198 2:-0.795918 3:-1 
1 0.02911263713363941 1:-0.881188 2:-0.877551 3:-0.803279 
1 0 1:-0.920792 2:-1 3:-1 
1 0 1:-0.881188 2:-1 3:-1 
1 0 1:-0.920792 2:-0.918367 3:-0.803279 
1 0 1:-1 2:-1 3:-1 
1 0 1:-0.782178 2:-1 3:-0.967213 
1 0 1:-0.782178 2:-0.836735 3:-0.803279 
1 0 1:-0.247525 2:-1 3:-1 
1 0 1:-0.90099 2:-1 3:-1 
1 0 1:-0.940594 2:-1 3:-1 
1 0 1:-0.940594 2:-1 3:-1 
1 0 1:-0.940594 2:-0.918367 3:-1 
1 0 1:-0.70297 2:-0.469388 3:-0.770492 
1 0 1:-0.683168 2:-1 3:-1 
1 0 1:-0.762376 2:-1 3:-1 
1 0 1:-0.90099 2:-1 3:-0.836066 
1 0 1:-0.90099 2:-1 3:-1 
1 0 1:-0.920792 2:-1 3:-1 
1 0 1:-0.940594 2:-1 3:-1 
1 0 1:-0.940594 2:-1 3:-1 
1 0 1:-0.80198 2:-1 3:-0.967213 
1 0 1:-0.80198 2:-1 3:-1 
1 0 1:-0.980198 2:-1 3:-1 
1 0 1:-0.782178 2:-0.673469 3:-1 
1 0 1:-0.841584 2:-1 3:-0.934426 
1 0 1:-0.940594 2:-1 3:-1 
1 0 1:-0.90099 2:-1 3:-1 
1 0 1:-0.663366 2:-1 3:-0.836066 
1 0 1:-0.742574 2:-1 3:-0.934426 
1 0 1:-0.960396 2:-1 3:-1 
1 0 1:-0.940594 2:-1 3:-1 
1 0 1:-0.841584 2:-0.877551 3:-0.836066 
1 0 1:-0.920792 2:-1 3:-1 
1 0 1:-0.920792 2:-1 3:-1 
1 0 1:-0.920792 2:-1 3:-1 
1 0 1:-0.940594 2:-1 3:-1 
1 0 1:-0.920792 2:-1 3:-1 
1 0 1:-0.881188 2:-1 3:-0.868852 
1 0 1:-0.940594 2:-0.755102 3:-0.344262 
1 0 1:-0.80198 2:-1 3:-0.901639 
1 0 1:-0.821782 2:-0.877551 3:-1 
1 0 1:-1 2:-1 3:-1 
1 0 1:-0.90099 2:-1 3:-1 
1 0 1:-0.861386 2:-1 3:-0.737705 
1 0 1:-0.920792 2:-1 3:-0.803279 
1 0 1:-0.643564 2:-1 3:-0.934426 
1 0 1:-0.960396 2:-1 3:-1 
1 0 1:-0.960396 2:-1 3:-1 
1 0 1:-0.980198 2:-1 3:-0.868852 
1 0 1:-0.544554 2:-1 3:-1 
1 0 1:-0.841584 2:-0.877551 3:-0.836066 
1 0 1:-0.940594 2:-1 3:-1 
1 0 1:-0.861386 2:-0.632653 3:-0.803279 
1 0 1:-0.980198 2:-1 3:-1 
1 0 1:-0.881188 2:-0.795918 3:-1 
1 0 1:-0.663366 2:-1 3:-1 
1 0 1:-0.90099 2:-0.591837 3:-1 
1 0 1:-0.940594 2:-1 3:-1 
1 0 1:-0.524752 2:-0.346939 3:-0.967213 
1 0 1:-0.742574 2:-1 3:-1 
1 0 1:-0.940594 2:-0.591837 3:-1 
1 0 1:-0.920792 2:-1 3:-1 
1 0 1:-0.881188 2:-1 3:-0.868852 
1 0 1:-0.940594 2:-1 3:-1 
1 0 1:-0.821782 2:-1 3:-1 
1 0 1:-0.920792 2:-0.755102 3:-1 
1 0 1:-0.920792 2:-1 3:-1 
1 0 1:-0.70297 2:-1 3:-1 
1 0 1:-0.821782 2:-1 3:-0.967213 
1 0 1:-0.861386 2:-1 3:-1 
1 0 1:-0.841584 2:-0.795918 3:-0.868852 
1 0 1:-0.80198 2:-1 3:-1 
1 0 1:-0.940594 2:-1 3:-1 
1 0 1:-0.940594 2:-1 3:-0.934426 
1 0 1:-0.584158 2:-0.918367 3:-0.803279 
1 0 1:-0.861386 2:-1 3:-1 
1 0 1:-0.683168 2:-1 3:-1 
1 0 1:-0.683168 2:-0.795918 3:-0.934426 
1 0 1:-0.841584 2:-1 3:-0.868852 
1 0 1:-0.940594 2:-1 3:-1 
1 0 1:-0.920792 2:-1 3:-1 
1 0 1:-0.80198 2:-0.918367 3:-0.967213 
1 0 1:-0.524752 2:-0.918367 3:-0.934426 
1 0 1:-0.920792 2:-0.959184 3:-0.967213 
1 0 1:-0.940594 2:-1 3:-1 
1 0 1:-0.861386 2:-1 3:-1 
1 0 1:-0.940594 2:-1 3:-1 
1 0 1:-0.960396 2:-1 3:-1 
1 0 1:-0.960396 2:-1 3:-1 
1 0 1:-1 2:-1 3:-1 
1 0 1:-1 2:-1 3:-1 
1 0 1:-0.960396 2:-1 3:-1 
1 0 1:-1 2:-1 3:-1 
1 0 1:-1 2:-1 3:-1 
1 0 1:-1 2:-1 3:-1 
1 0 1:-1 2:-1 3:-1 
1 0 1:-1 2:-1 3:-1 
1 0 1:-1 2:-1 3:-1 
1 0 1:-1 2:-1 3:-1 
1 0 1:-1 2:-1 3:-1 
1 0 1:-1 2:-1 3:-1 
1 0 1:-1 2:-1 3:-1 
1 0 1:-0.960396 2:-1 3:-1 
1 0 1:-0.960396 2:-1 3:-1 
1 0 1:-0.90099 2:-1 3:-1 
1 0 1:-0.920792 2:-1 3:-1 
1 0 1:-0.940594 2:-1 3:-1 
1 0 1:-0.405941 2:-1 3:-0.967213 
1 0 1:-0.960396 2:-1 3:-1 
1 0 1:-0.940594 2:-1 3:-1 
1 0 1:-0.425743 2:-1 3:-1 
1 0 1:-0.881188 2:-1 3:-1 
1 0 1:-0.940594 2:-1 3:-1 
1 0 1:-0.405941 2:-0.877551 3:-1 
1 0 1:-0.80198 2:-0.673469 3:-0.967213 
1 0 1:-0.70297 2:-1 3:-1 
1 0 1:-0.940594 2:-0.877551 3:-0.704918 
1 0 1:-0.782178 2:-1 3:-0.901639 
1 0 1:-0.841584 2:-1 3:-0.868852 
1 0 1:-0.960396 2:-1 3:-1 
1 0 1:-0.980198 2:-1 3:-0.967213 
1 0 1:-0.90099 2:-1 3:-1 
1 0 1:-0.782178 2:-1 3:-0.868852 
1 0 1:-0.643564 2:-0.918367 3:-0.868852 
1 0 1:-0.60396 2:-1 3:-1 
1 0 1:-1 2:-1 3:-1 
1 0 1:-0.920792 2:-1 3:-1 
1 0 1:-0.920792 2:-1 3:-1 
1 0 1:-0.584158 2:-0.755102 3:-0.803279 
1 0 1:-0.960396 2:-0.959184 3:-1 
1 0 1:-0.960396 2:-1 3:-1 
1 0 1:-0.920792 2:-1 3:-1 
1 0 1:-0.643564 2:-0.755102 3:-0.967213 
1 0 1:-1 2:-1 3:-1 
1 0.01157263603629453 1:-0.821782 2:-0.755102 3:-0.803279 
1 0 1:-0.940594 2:-1 3:-1 
1 0 1:-0.940594 2:-1 3:-1 
1 0 1:-0.564356 2:-0.918367 3:-0.868852 
1 0 1:-0.940594 2:-1 3:-1 
1 0 1:-0.782178 2:-0.755102 3:-0.868852 
1 0 1:-0.742574 2:-1 3:-0.836066 
1 0 1:-0.881188 2:-1 3:-1 
1 0 1:-0.90099 2:-1 3:-1 
1 0 1:-1 2:-1 3:-1 
1 0 1:-0.80198 2:-1 3:-1 
1 0 1:-0.524752 2:-1 3:-1 
1 0 1:-0.90099 2:-1 3:-1 
1 0 1:-0.960396 2:-1 3:-1 
1 0 1:-0.960396 2:-1 3:-1 
1 0 1:-0.920792 2:-1 3:-1 
1 0 1:-1 2:-1 3:-1 
1 0 1:-1 2:-1 3:-1 
1 0 1:-0.861386 2:-1 3:-1 
1 0 1:-0.940594 2:-1 3:-1 
1 0 1:-0.960396 2:-1 3:-1 
1 0 1:-0.940594 2:-1 3:-1 
1 0 1:-0.960396 2:-1 3:-1 
1 0 1:-0.90099 2:-1 3:-1 
1 0 1:-0.742574 2:-0.918367 3:-0.934426 
1 0 1:-0.663366 2:-1 3:-1 
1 0 1:-0.762376 2:-1 3:-1 
1 0 1:-0.940594 2:-1 3:-1 
1 0 1:-0.920792 2:-1 3:-1 
1 0 1:-0.881188 2:-1 3:-0.934426 
1 0 1:-0.940594 2:-1 3:-1 
1 0 1:-0.960396 2:-1 3:-0.836066 
1 0 1:-0.940594 2:-1 3:-1 
1 0 1:-0.861386 2:-0.755102 3:-1 
1 0 1:-0.960396 2:-1 3:-1 
1 0 1:-0.940594 2:-1 3:-1 
1 0 1:-0.960396 2:-0.877551 3:-0.803279 
1 0 1:-0.920792 2:-1 3:-1 
1 0 1:-0.762376 2:-1 3:-1 
1 0 1:-0.920792 2:-1 3:-0.934426 
1 0 1:-0.920792 2:-0.836735 3:-0.836066 
1 0 1:-0.920792 2:-1 3:-0.901639 
1 0 1:-0.623762 2:-0.55102 3:-1 
1 0 1:-0.940594 2:-1 3:-1 
1 0 1:-0.683168 2:-1 3:-0.934426 
1 0 1:-0.940594 2:-1 3:-1 
1 0 1:-0.80198 2:-1 3:-1 
1 1 1:-0.722772 2:-0.714286 3:-0.967213 
1 0 1:-0.267327 2:-0.55102 3:-0.967213 
1 0 1:-0.960396 2:-1 3:-1 
1 0 1:-0.960396 2:-1 3:-1 
1 0 1:-0.920792 2:-1 3:-0.868852 
1 0 1:-0.821782 2:-1 3:-0.868852 
1 0 1:-0.960396 2:-1 3:-1 
1 0 1:-0.782178 2:-0.795918 3:-0.901639 
1 0 1:-0.940594 2:-0.918367 3:-0.901639 
1 0 1:-1 2:-1 3:-1 
1 0 1:-0.960396 2:-1 3:-1 
1 0 1:-0.960396 2:-1 3:-1 
1 0 1:-0.881188 2:-1 3:-1 
1 0 1:-1 2:-1 3:-1 
1 0 1:-0.841584 2:-1 3:-1 
1 0 1:-0.920792 2:-1 3:-1 
1 0 1:-0.821782 2:-1 3:-0.934426 
1 0 1:-0.821782 2:-1 3:-0.901639 
1 0 1:-0.742574 2:-1 3:-0.901639 
1 0 1:-0.881188 2:-1 3:-1 
1 0 1:-0.821782 2:-1 3:-0.934426 
1 0 1:-0.940594 2:-1 3:-1 
1 0 1:-1 2:-1 3:-1 
1 0 1:-0.920792 2:-1 3:-0.770492 
1 0 1:-0.940594 2:-1 3:-1 
1 0 1:-0.80198 2:-0.55102 3:-1 
1 0 1:-0.524752 2:-0.918367 3:-0.934426 
1 0 1:-1 2:-1 3:-1 
1 0 1:-0.841584 2:-1 3:-0.836066 
1 0 1:-0.80198 2:-1 3:-0.967213 
1 0 1:-0.643564 2:-1 3:-1 
1 0 1:-0.940594 2:-1 3:-1 
1 0 1:-0.940594 2:-1 3:-1 
1 0 1:-0.940594 2:-1 3:-1 
1 0 1:-1 2:-1 3:-1 
1 0 1:-0.940594 2:-1 3:-1 
1 0 1:-0.960396 2:-1 3:-1 
1 0 1:-0.881188 2:-1 3:-1 
1 0 1:-0.920792 2:-1 3:-1 
1 0 1:-0.920792 2:-1 3:-1 
1 0 1:-0.920792 2:-1 3:-1 
1 0 1:-0.940594 2:-1 3:-1 
1 0 1:-0.960396 2:-1 3:-1 
1 0 1:-1 2:-1 3:-1 
1 0 1:-0.762376 2:-1 3:-0.868852 
1 0 1:-0.90099 2:-1 3:-1 
1 0 1:-0.960396 2:-1 3:-1 
1 0 1:-0.782178 2:-0.836735 3:-1 
1 0 1:-0.960396 2:-1 3:-1 
1 0 1:-0.920792 2:-1 3:-1 
1 0 1:-0.584158 2:-1 3:-1 
1 0 1:-0.960396 2:-1 3:-1 
1 0 1:-0.881188 2:-1 3:-1 
1 0 1:-0.920792 2:-1 3:-1 
1 0 1:-0.920792 2:-1 3:-0.934426 
1 0 1:-0.960396 2:-0.918367 3:-1 
1 0 1:-0.980198 2:-1 3:-1 
1 0 1:-0.940594 2:-1 3:-1 
1 0 1:-0.623762 2:-0.795918 3:-0.934426 
1 0 1:-0.940594 2:-1 3:-1 
1 0 1:-0.920792 2:-1 3:-1 
1 0 1:-0.465347 2:-0.836735 3:-1 
1 0 1:-0.960396 2:-1 3:-1 
1 0 1:-1 2:-1 3:-1 
1 0 1:-1 2:-1 3:-1 
1 0 1:-0.920792 2:-1 3:-1 
1 0.0540956183307812 1:-0.90099 2:-0.959184 3:-0.868852 
1 0 1:-0.861386 2:-0.918367 3:-1 
1 0 1:-0.722772 2:-1 3:-1 
1 0 1:-0.940594 2:-1 3:-1 
1 0 1:-0.762376 2:-1 3:-1 
1 0 1:-0.821782 2:-1 3:-0.868852 
1 0 1:-0.940594 2:-1 3:-1 
1 0 1:-0.841584 2:-1 3:-1 
1 0 1:-0.841584 2:-1 3:-1 
1 0 1:-0.70297 2:-0.836735 3:-1 
1 0 1:-0.920792 2:-0.877551 3:-1 
1 0 1:-0.980198 2:-1 3:-0.934426 
1 0 1:-0.861386 2:-1 3:-1 
1 0 1:-0.861386 2:-1 3:-1 
1 0 1:-0.485149 2:-0.673469 3:-0.836066 
1 0 1:-0.940594 2:-1 3:-0.868852 
1 0 1:-1 2:-1 3:-1 
1 0 1:-0.920792 2:-1 3:-0.934426 
1 0 1:-0.940594 2:-1 3:-1 
1 0 1:-0.108911 2:-1 3:-1 
1 0 1:-0.920792 2:-0.714286 3:-0.770492 
1 0 1:-0.960396 2:-1 3:-0.934426 
1 0 1:-0.940594 2:-1 3:-1 
1 0 1:-0.920792 2:-0.918367 3:-0.934426 
1 0 1:-0.940594 2:-0.959184 3:-0.967213 
1 0 1:-0.920792 2:-1 3:-1 
1 0 1:-0.90099 2:-1 3:-1 
1 0 1:-0.960396 2:-1 3:-1 
1 0 1:-0.881188 2:-0.714286 3:-0.836066 
1 0 1:-0.90099 2:-1 3:-1 
1 0 1:-1 2:-1 3:-1 
1 0 1:-0.861386 2:-0.877551 3:-1 
1 0 1:-0.90099 2:-1 3:-1 
0 1 1:-0.861386 2:-0.959184 3:-1 
1 0 1:-0.70297 2:-1 3:-1 
1 0 1:-0.940594 2:-1 3:-1 
1 0 1:-0.70297 2:-0.755102 3:-0.901639 
1 0 1:-0.920792 2:-1 3:-1 
1 0 1:-0.782178 2:-1 3:-0.901639 
1 0 1:-0.663366 2:-0.918367 3:-0.901639 
1 0 1:-0.940594 2:-1 3:-1 
1 0 1:-0.366337 2:-0.836735 3:-1 
1 0 1:-0.960396 2:-1 3:-1 
1 0.1206162550180067 1:-0.821782 2:-0.346939 3:-1 
1 0 1:-0.940594 2:-1 3:-1 
1 0 1:-0.940594 2:-1 3:-1 
1 0 1:-0.90099 2:-1 3:-1 
1 0 1:-0.90099 2:-1 3:-1 
1 0 1:-0.940594 2:-1 3:-1 
1 0 1:-0.861386 2:-0.918367 3:-0.868852 
1 0 1:-1 2:-1 3:-1 
1 0 1:-0.90099 2:-1 3:-0.934426 
1 0 1:-1 2:-1 3:-1 
1 0 1:-1 2:-1 3:-1 
1 0.06278846980840579 1:-0.70297 2:-0.755102 3:-0.901639 
1 0 1:-0.90099 2:-1 3:-1 
1 0 1:-0.722772 2:-0.877551 3:-0.868852 
1 0 1:-0.980198 2:-1 3:-1 
1 0 1:-0.920792 2:-1 3:-1 
1 0 1:-0.960396 2:-1 3:-0.934426 
1 0 1:-0.980198 2:-1 3:-1 
1 0 1:-0.980198 2:-1 3:-1 
1 0 1:-0.544554 2:-0.591837 3:-1 
1 0 1:-0.920792 2:-1 3:-0.901639 
1 0 1:-0.960396 2:-1 3:-1 
1 0 1:-0.960396 2:-1 3:-1 
1 0 1:-0.742574 2:-0.918367 3:-0.836066 
1 0 1:-0.940594 2:-1 3:-1 
1 0 1:-0.940594 2:-1 3:-1 
1 0 1:-0.920792 2:-0.877551 3:-0.540984 
1 0 1:-0.960396 2:-1 3:-1 
1 0 1:-0.762376 2:-1 3:-1 
1 0 1:-0.762376 2:-1 3:-0.901639 
1 0 1:-0.80198 2:-1 3:-1 
1 0 1:-0.960396 2:-1 3:-1 
1 0 1:-0.960396 2:-1 3:-1 
1 0 1:-0.960396 2:-1 3:-1 
1 0 1:-0.663366 2:-0.836735 3:-0.901639 
1 0 1:-0.366337 2:-1 3:-1 
1 0 1:-0.90099 2:-1 3:-0.967213 
1 0 1:-0.940594 2:-1 3:-1 
1 0 1:-0.80198 2:-1 3:-1 
1 0 1:-0.643564 2:-0.714286 3:-0.934426 
1 0 1:-0.881188 2:-1 3:-1 
1 0 1:-0.940594 2:-1 3:-1 
1 0 1:-0.940594 2:-1 3:-1 
1 0 1:-0.920792 2:-0.918367 3:-0.737705 
1 0 1:-0.722772 2:-1 3:-0.803279 
1 0 1:-0.762376 2:-0.795918 3:-1 
1 0 1:-0.722772 2:-1 3:-0.868852 
1 0 1:-0.465347 2:-1 3:-1 
1 0 1:-0.425743 2:-0.959184 3:-1 
1 0 1:-0.940594 2:-1 3:-1 
1 0 1:-0.920792 2:-1 3:-1 
1 0 1:-0.940594 2:-1 3:-1 
1 0 1:-0.70297 2:-1 3:-0.901639 
1 0 1:-0.960396 2:-1 3:-1 
1 0 1:-0.960396 2:-1 3:-1 
1 0 1:-0.80198 2:-1 3:-0.934426 
1 0 1:-0.663366 2:-1 3:-1 
1 0 1:-0.960396 2:-1 3:-1 
1 0 1:-0.841584 2:-0.673469 3:-0.967213 
1 0 1:-0.960396 2:-1 3:-1 
1 0 1:-0.821782 2:-1 3:-1 
1 0 1:-0.940594 2:-1 3:-1 
1 0 1:-0.940594 2:-1 3:-0.934426 
1 0 1:-0.663366 2:-1 3:-1 
1 0 1:-0.742574 2:-0.346939 3:-0.901639 
1 0 1:-0.940594 2:-1 3:-1 
1 0 1:-0.841584 2:-1 3:-1 
1 0 1:-0.960396 2:-0.836735 3:-1 
1 0 1:-1 2:-1 3:-1 
1 0 1:-0.465347 2:0.469388 3:-0.967213 
1 0 1:-0.920792 2:-1 3:-1 
1 0 1:-1 2:-1 3:-1 
1 0 1:-0.90099 2:-1 3:-0.770492 
1 0 1:-0.762376 2:-1 3:-1 
1 0 1:-0.940594 2:-1 3:-1 
1 0 1:-0.821782 2:-1 3:-1 
1 0 1:-0.841584 2:-1 3:-0.934426 
1 0 1:-0.742574 2:-0.55102 3:-1 
1 0 1:-0.881188 2:-1 3:-1 
1 0 1:-0.960396 2:-1 3:-1 
1 0 1:-0.940594 2:-0.959184 3:-1 
1 0 1:-0.80198 2:-0.836735 3:-1 
1 0 1:-0.861386 2:-1 3:-0.737705 
1 0 1:-0.841584 2:-1 3:-0.672131 
1 0 1:-0.861386 2:-0.673469 3:-0.868852 
1 0 1:-0.920792 2:-1 3:-1 
1 0 1:-0.643564 2:-1 3:-0.803279 
1 0 1:-0.485149 2:-1 3:-1 
1 0 1:-0.722772 2:-1 3:-1 
1 0 1:-0.920792 2:-1 3:-1 
1 0 1:-0.90099 2:-1 3:-1 
1 0 1:-1 2:-1 3:-1 
1 0 1:-0.920792 2:-1 3:-0.901639 
1 0 1:-0.821782 2:-1 3:-1 
1 0 1:-0.920792 2:-1 3:-1 
1 0 1:-0.940594 2:-1 3:-1 
1 0 1:-0.940594 2:-1 3:-1 
1 0 1:-0.920792 2:-1 3:-1 
1 0 1:-0.861386 2:-1 3:-1 
1 0 1:-0.940594 2:-1 3:-0.803279 
1 0 1:-0.029703 2:-1 3:-1 
1 0 1:-0.960396 2:-1 3:-1 
1 0 1:-0.960396 2:-1 3:-1 
1 0 1:-0.80198 2:-1 3:-0.934426 
1 0 1:-0.861386 2:-1 3:-1 
1 0 1:-0.960396 2:-1 3:-1 
1 0 1:-0.920792 2:-1 3:-1 
1 0 1:-0.960396 2:-1 3:-1 
1 0 1:-0.940594 2:-1 3:-1 
1 0 1:-0.861386 2:-1 3:-1 
1 0 1:-0.940594 2:-1 3:-1 
1 0 1:-0.960396 2:-1 3:-1 
1 0 1:-0.80198 2:-0.795918 3:-1 
1 0 1:-0.940594 2:-1 3:-1 
1 1 1:-0.920792 2:-0.959184 3:-0.934426 
1 0 1:-0.920792 2:-1 3:-0.934426 
1 0 1:-0.960396 2:-1 3:-1 
1 0 1:-0.90099 2:-0.877551 3:-0.803279 
1 0 1:-0.980198 2:-1 3:-1 
1 0 1:-0.782178 2:-1 3:-0.803279 
1 0 1:-0.960396 2:-1 3:-1 
1 0 1:-0.861386 2:-1 3:-1 
1 0 1:-0.940594 2:-1 3:-1 
1 0 1:-0.762376 2:-1 3:-0.901639 
1 0 1:-1 2:-1 3:-1 
1 0 1:-0.742574 2:-1 3:-1 
1 1 1:0.108911 2:-0.673469 3:-0.967213 
1 0 1:-0.643564 2:-0.795918 3:-0.868852 
1 0 1:-0.564356 2:-1 3:-1 
1 0 1:-0.821782 2:-1 3:-1 
0 0.03377867562933021 1:-0.742574 2:-0.918367 3:-0.639344 
1 0 1:-0.920792 2:-1 3:-1 
1 0 1:-0.940594 2:-1 3:-1 
1 0 1:-0.920792 2:-1 3:-1 
1 0 1:-0.722772 2:-1 3:-1 
1 0 1:-0.960396 2:-1 3:-1 
1 0 1:-0.762376 2:-1 3:-1 
1 0 1:-0.960396 2:-1 3:-1 
1 0 1:-0.920792 2:-0.714286 3:-1 
1 0 1:-0.960396 2:-1 3:-1 
1 0 1:-0.861386 2:-1 3:-1 
1 0 1:-0.683168 2:-0.755102 3:-1 
1 0 1:-0.960396 2:-1 3:-1 
1 0 1:-0.940594 2:-1 3:-1 
1 0 1:-0.960396 2:-1 3:-1 
1 0 1:-1 2:-1 3:-1 
1 0 1:-0.960396 2:-1 3:-1 
1 0 1:-0.742574 2:-1 3:-1 
1 0 1:-0.742574 2:-1 3:-1 
1 0 1:-0.980198 2:-1 3:-1 
1 0 1:-0.940594 2:-1 3:-1 
1 0 1:-0.960396 2:-1 3:-1 
1 0 1:-0.742574 2:-0.55102 3:-0.934426 
0 0.02023308709072751 1:-0.742574 2:-0.877551 3:-0.704918 
1 0 1:-0.366337 2:-0.714286 3:-1 
1 0 1:-0.782178 2:-0.836735 3:-0.803279 
1 0 1:-0.544554 2:-0.918367 3:-1 
1 0 1:-1 2:-1 3:-1 
1 0 1:-0.90099 2:-1 3:-1 
1 0 1:-0.960396 2:-1 3:-1 
1 0 1:-1 2:-1 3:-1 
1 0 1:-0.50495 2:-0.714286 3:-1 
1 0 1:-0.960396 2:-1 3:-1 
1 0 1:-0.920792 2:-1 3:-1 
1 0 1:-0.960396 2:-1 3:-1 
1 0 1:-0.623762 2:-1 3:-0.901639 
1 0 1:-0.90099 2:-1 3:-1 
1 0 1:-0.940594 2:-1 3:-1 
1 0 1:-0.960396 2:-1 3:-1 
1 0 1:-0.940594 2:-1 3:-1 
1 0 1:-0.940594 2:-0.959184 3:-0.934426 
1 0 1:-0.920792 2:-1 3:-1 
1 0 1:-0.960396 2:-1 3:-1 
1 0 1:-0.881188 2:-1 3:-0.770492 
1 0 1:-0.980198 2:-1 3:-1 
1 0 1:-0.940594 2:-1 3:-0.934426 
1 0 1:-0.663366 2:-1 3:-0.868852 
1 0 1:-0.960396 2:-1 3:-1 
1 0 1:-0.940594 2:-1 3:-1 
1 0 1:-0.70297 2:-1 3:-0.704918 
1 0 1:-0.920792 2:-1 3:-1 
1 0 1:-0.881188 2:-1 3:-1 
1 0 1:-0.960396 2:-1 3:-1 
1 0 1:-0.940594 2:-1 3:-1 
1 0 1:-0.722772 2:-0.918367 3:-0.770492 
1 0 1:-0.960396 2:-1 3:-1 
1 0 1:-0.920792 2:-1 3:-1 
1 0 1:-0.90099 2:-1 3:-1 
1 0 1:-0.960396 2:-1 3:-1 
1 0 1:-0.782178 2:-1 3:-0.934426 
1 0 1:-0.663366 2:-1 3:-1 
1 0 1:-0.80198 2:-1 3:-1 
1 0 1:-0.920792 2:-1 3:-1 
1 0 1:-0.683168 2:-1 3:-1 
1 0 1:-0.960396 2:-1 3:-1 
1 0 1:-0.940594 2:-1 3:-1 
1 1 1:-0.90099 2:-0.836735 3:-0.967213 
1 0 1:-0.940594 2:-1 3:-0.868852 
1 0 1:-1 2:-1 3:-1 
1 0 1:-0.485149 2:-1 3:-1 
1 0 1:-0.920792 2:-1 3:-1 
1 0 1:-0.742574 2:-0.836735 3:-1 
1 0 1:-0.960396 2:-1 3:-1 
1 0 1:-0.940594 2:-1 3:-1 
1 0 1:-0.683168 2:-0.795918 3:-1 
1 0 1:-0.960396 2:-1 3:-0.868852 
1 0 1:-1 2:-1 3:-1 
1 0 1:-0.564356 2:-0.428571 3:-0.377049 
1 0 1:-0.960396 2:-0.918367 3:-1 
1 0 1:-0.90099 2:-1 3:-1 
1 0 1:-0.70297 2:-1 3:-1 
1 0 1:-0.70297 2:-1 3:-0.934426 
1 0 1:-0.940594 2:-1 3:-1 
1 0 1:-0.960396 2:-1 3:-1 
1 0 1:-0.881188 2:-1 3:-1 
1 0 1:-0.960396 2:-1 3:-1 
1 0 1:-0.861386 2:-1 3:-1 
1 0 1:-0.920792 2:-1 3:-1 
1 0 1:-0.940594 2:-1 3:-1 
1 0 1:-0.940594 2:-1 3:-1 
1 0 1:-0.485149 2:-0.918367 3:-1 
1 0 1:-0.960396 2:-1 3:-1 
1 0 1:-0.960396 2:-1 3:-1 
1 0 1:-0.940594 2:-1 3:-1 
1 0 1:-0.960396 2:-1 3:-1 
1 0 1:-0.960396 2:-1 3:-1 
1 0 1:-0.940594 2:-0.959184 3:-1 
1 0 1:-0.960396 2:-1 3:-1 
1 0 1:-0.960396 2:-1 3:-1 
1 0 1:-0.881188 2:-1 3:-1 
1 0 1:-0.960396 2:-1 3:-1 
1 0 1:-0.861386 2:-1 3:-0.770492 
1 0 1:-0.80198 2:-0.959184 3:-0.803279 
1 0 1:-0.960396 2:-1 3:-1 
1 0 1:-0.940594 2:-1 3:-1 
1 0 1:-0.722772 2:-1 3:-0.803279 
1 0 1:-0.821782 2:-0.877551 3:-1 
1 0 1:-0.980198 2:-1 3:-1 
1 0 1:-1 2:-1 3:-1 
1 0.03292544626983064 1:-0.70297 2:-0.346939 3:-1 
1 0 1:-0.821782 2:-1 3:-1 
1 0 1:-0.940594 2:-1 3:-1 
1 0 1:-0.70297 2:-0.428571 3:-0.967213 
1 0 1:-0.762376 2:-1 3:-1 
1 0 1:-1 2:-1 3:-1 
1 0 1:-0.960396 2:-1 3:-1 
1 0 1:-0.90099 2:-1 3:-1 
1 0 1:-1 2:-1 3:-1 
1 0 1:-0.960396 2:-1 3:-1 
1 0 1:-0.782178 2:-1 3:-1 
1 0 1:-1 2:-1 3:-1 
1 0 1:-0.90099 2:-1 3:-1 
1 0 1:-0.940594 2:-1 3:-1 
1 0 1:-0.90099 2:-1 3:-0.967213 
1 0 1:-0.940594 2:-1 3:-1 
1 0 1:-0.960396 2:-1 3:-1 
1 0 1:-0.920792 2:-1 3:-0.704918 
1 0 1:-0.663366 2:-0.632653 3:-0.967213 
1 0 1:-0.940594 2:-1 3:-1 
1 0 1:-0.940594 2:-1 3:-1 
1 0 1:-0.960396 2:-1 3:-1 
1 0 1:-0.90099 2:-1 3:-1 
1 0 1:-0.80198 2:-1 3:-1 
1 0 1:-0.980198 2:-1 3:-1 
1 0 1:-0.861386 2:-0.877551 3:-0.704918 
1 0 1:-0.881188 2:-0.755102 3:-0.803279 
1 0 1:-0.940594 2:-1 3:-1 
1 0 1:-0.960396 2:-1 3:-1 
1 0 1:-0.920792 2:-1 3:-1 
1 0 1:-0.782178 2:-1 3:-1 
1 0 1:-0.920792 2:-1 3:-1 
1 0 1:-0.821782 2:-1 3:-1 
1 0 1:-0.742574 2:-1 3:-0.901639 
1 0 1:-0.762376 2:-1 3:-0.934426 
1 0 1:-0.782178 2:-1 3:-1 
1 0 1:-0.960396 2:-1 3:-1 
1 0 1:-0.960396 2:-1 3:-1 
1 1 1:-0.683168 2:-1 3:-0.901639 
1 0 1:-0.861386 2:-0.795918 3:-0.967213 
0.5033713943915443 0 1:-0.881188 2:-0.959184 3:-1 
1 0 1:-0.960396 2:-1 3:-1 
1 0 1:-0.881188 2:-1 3:-1 
1 0 1:-0.861386 2:-0.877551 3:-1 
1 0 1:-0.980198 2:-1 3:-1 
1 0 1:-0.960396 2:-1 3:-1 
1 0 1:-0.881188 2:-1 3:-1 
1 0 1:-0.920792 2:-1 3:-1 
1 0 1:-0.841584 2:-0.918367 3:-1 
1 0 1:-0.762376 2:-0.714286 3:-0.934426 
1 0 1:-0.643564 2:-1 3:-1 
1 0 1:-0.861386 2:-0.918367 3:-0.967213 
1 0 1:-0.881188 2:-1 3:-1 
1 0 1:-0.80198 2:-1 3:-1 
1 0 1:-0.683168 2:-0.918367 3:-0.901639 
1 0 1:-0.782178 2:-1 3:-0.934426 
1 0 1:-0.940594 2:-1 3:-1 
1 0 1:-0.841584 2:-1 3:-0.901639 
1 0 1:-0.920792 2:-0.755102 3:-1 
1 0 1:-0.80198 2:-1 3:-0.836066 
1 0 1:-0.841584 2:-1 3:-0.868852 
1 0 1:-1 2:-1 3:-1 
1 0 1:-1 2:-1 3:-1 
1 0 1:-1 2:-1 3:-1 
1 0 1:-0.821782 2:-1 3:-1 
1 0 1:-0.920792 2:-1 3:-0.934426 
1 0 1:-0.742574 2:-1 3:-1 
1 0 1:-0.207921 2:0.142857 3:-1 
1 0 1:-0.960396 2:-1 3:-1 
1 0 1:-0.940594 2:-1 3:-1 
1 0 1:-0.960396 2:-1 3:-1 
1 0 1:-0.960396 2:-1 3:-1 
1 0 1:-0.940594 2:-0.959184 3:-1 
1 0 1:-0.940594 2:-1 3:-0.901639 
1 0 1:-0.584158 2:-1 3:-0.934426 
1 0 1:-0.940594 2:-1 3:-1 
1 0 1:-1 2:-1 3:-1 
1 0 1:-1 2:-1 3:-1 
1 0 1:-0.940594 2:-1 3:-1 
1 0 1:-0.564356 2:-1 3:-0.901639 
1 0 1:-0.940594 2:-1 3:-1 
1 0 1:-0.940594 2:-1 3:-1 
1 0 1:-1 2:-1 3:-1 
1 0 1:-0.861386 2:-1 3:-0.901639 
1 0 1:-0.960396 2:-1 3:-1 
1 0 1:-0.960396 2:-1 3:-1 
1 0 1:-0.920792 2:-0.755102 3:-0.836066 
1 0 1:-0.861386 2:-1 3:-1 
1 0 1:-0.80198 2:-0.918367 3:-1 
1 0 1:-0.920792 2:-1 3:-1 
1 0 1:-0.821782 2:-1 3:-1 
1 0 1:-0.841584 2:-1 3:-0.770492 
1 0.06571253658846843 1:-0.782178 2:-0.795918 3:-0.836066 
1 0 1:-0.782178 2:-0.836735 3:-1 
1 0 1:-0.881188 2:-0.918367 3:-0.803279 
1 0 1:-0.544554 2:-0.877551 3:-0.967213 
1 0 1:-0.663366 2:-1 3:-0.901639 
1 0 1:-0.80198 2:-1 3:-0.803279 
1 0 1:-0.90099 2:-0.836735 3:-0.868852 
1 0 1:-0.841584 2:-1 3:-1 
1 0 1:-0.960396 2:-0.959184 3:-1 
1 0 1:-0.920792 2:-1 3:-1 
1 0 1:-0.980198 2:-1 3:-1 
1 0.7503932108265857 1:-0.247525 2:-0.55102 3:-1 
1 0 1:-0.841584 2:-0.632653 3:-0.836066 
1 0 1:-0.940594 2:-1 3:-1 
1 0 1:-0.940594 2:-1 3:-1 
1 0 1:-0.544554 2:-0.877551 3:-0.803279 
1 0 1:-0.920792 2:-1 3:-0.836066 
1 0 1:-0.70297 2:-0.55102 3:-1 
1 0 1:-0.920792 2:-1 3:-1 
1 0 1:-0.940594 2:-1 3:-1 
1 0 1:-0.821782 2:-1 3:-0.803279 
1 0 1:-0.861386 2:-1 3:-0.836066 
1 0 1:-0.920792 2:-1 3:-1 
1 0 1:-0.940594 2:-1 3:-0.967213 
1 0 1:-0.920792 2:-1 3:-1 
1 0 1:-0.762376 2:-0.959184 3:-0.868852 
1 0 1:-0.940594 2:-0.836735 3:-1 
1 0 1:-0.861386 2:-1 3:-1 
1 0 1:-0.881188 2:-0.795918 3:-0.868852 
1 0 1:-0.960396 2:-1 3:-1 
1 1 1:-0.841584 2:-1 3:-0.967213 
1 0 1:-0.940594 2:-1 3:-1 
1 0 1:-0.960396 2:-1 3:-1 
1 0 1:-0.980198 2:-1 3:-1 
1 0 1:-0.881188 2:-0.918367 3:-0.836066 
1 0 1:-0.782178 2:-1 3:-0.967213 
1 0 1:-0.940594 2:-1 3:-1 
1 0 1:-0.70297 2:-1 3:-1 
1 0 1:-0.623762 2:-1 3:-0.967213 
1 0 1:-0.881188 2:-1 3:-1 
1 0 1:-0.881188 2:-1 3:-1 
1 0 1:-0.881188 2:-1 3:-0.868852 
1 0 1:-0.960396 2:-1 3:-1 
1 0 1:-0.742574 2:-0.918367 3:-0.836066 
1 0 1:-0.940594 2:-1 3:-1 
1 0 1:-0.584158 2:0.306122 3:-0.934426 
1 0 1:-0.80198 2:-1 3:-1 
1 0 1:-0.485149 2:-1 3:-1 
1 0 1:-0.960396 2:-1 3:-1 
1 0 1:-0.920792 2:-1 3:-1 
1 0 1:-0.960396 2:-1 3:-1 
1 0 1:-0.564356 2:-1 3:-1 
1 0 1:-0.861386 2:-0.510204 3:-0.770492 
1 0 1:-0.782178 2:-1 3:-1 
1 0 1:-0.861386 2:-1 3:-1 
1 0 1:-0.960396 2:-1 3:-1 
1 0 1:-0.821782 2:-0.755102 3:-1 
1 0 1:-0.940594 2:-1 3:-1 
1 1 1:-0.683168 2:-1 3:-0.803279 
1 0 1:-0.940594 2:-1 3:-1 
1 0 1:-0.940594 2:-1 3:-1 
1 0 1:-0.584158 2:-1 3:-1 
1 0 1:-0.90099 2:-1 3:-1 
1 0 1:-0.940594 2:-1 3:-1 
1 0 1:-0.861386 2:-1 3:-1 
1 0 1:-0.940594 2:-1 3:-1 
1 0 1:-0.940594 2:-1 3:-1 
1 0 1:-0.960396 2:-1 3:-1 
1 0 1:-0.940594 2:-1 3:-1 
1 0 1:-0.960396 2:-1 3:-1 
1 0 1:-0.920792 2:-1 3:-1 
1 0 1:-0.960396 2:-1 3:-1 
1 0 1:-0.940594 2:-1 3:-1 
1 0 1:-0.960396 2:-0.918367 3:-0.934426 
1 0 1:-0.881188 2:-1 3:-0.868852 
1 0 1:-0.90099 2:-0.959184 3:-1 
1 0 1:-0.940594 2:-1 3:-1 
1 0 1:-0.90099 2:-1 3:-1 
1 0 1:-0.90099 2:-1 3:-0.934426 
1 0 1:-0.940594 2:-1 3:-1 
1 0 1:-0.861386 2:-0.877551 3:-0.737705 
1 0 1:-0.841584 2:-1 3:-1 
1 0 1:-0.80198 2:-1 3:-0.737705 
1 0 1:-0.80198 2:-1 3:-1 
1 0 1:-0.920792 2:-1 3:-0.967213 
1 0 1:-0.940594 2:-1 3:-0.967213 
1 0 1:-0.960396 2:-1 3:-1 
1 0 1:-0.940594 2:-1 3:-1 
1 0 1:-0.841584 2:-1 3:-0.737705 
1 0 1:0.0891089 2:-1 3:-1 
1 0 1:-0.821782 2:-0.469388 3:-1 
1 0 1:-0.940594 2:-1 3:-1 
1 0 1:-0.920792 2:-0.918367 3:-1 
1 0 1:-0.683168 2:-1 3:-1 
1 0 1:-0.762376 2:-1 3:-1 
1 0 1:-0.722772 2:-0.795918 3:-1 
1 0 1:-0.960396 2:-1 3:-1 
1 0 1:-0.782178 2:-1 3:-0.901639 
1 0 1:-0.960396 2:-1 3:-1 
1 0 1:-0.940594 2:-1 3:-1 
1 0 1:-0.643564 2:-1 3:-0.606557 
1 0 1:-0.841584 2:-1 3:-1 
1 0 1:-0.920792 2:-0.836735 3:-1 
1 0 1:-0.80198 2:-1 3:-0.836066 
1 0 1:-0.920792 2:-1 3:-1 
1 0 1:-0.920792 2:-1 3:-1 
1 0 1:-1 2:-1 3:-1 
1 0 1:-0.980198 2:-1 3:-1 
1 0 1:-0.960396 2:-1 3:-1 
1 0 1:-0.960396 2:-1 3:-1 
1 0 1:-0.960396 2:-1 3:-1 
1 0 1:-0.960396 2:-1 3:-1 
1 0 1:-0.960396 2:-1 3:-1 
1 0 1:-0.940594 2:-1 3:-1 
1 0 1:-0.920792 2:-1 3:-0.901639 
1 0 1:-0.841584 2:-1 3:-1 
1 0 1:-0.821782 2:-1 3:-0.934426 
1 0 1:-0.80198 2:-1 3:-1 
1 0 1:-0.90099 2:-1 3:-1 
1 0 1:-0.722772 2:-0.755102 3:-1 
1 0 1:-0.70297 2:-1 3:-1 
1 0 1:-0.920792 2:-1 3:-1 
1 0 1:-0.70297 2:-1 3:-0.770492 
1 0 1:-0.623762 2:-1 3:-1 
1 0 1:-0.861386 2:-1 3:-0.967213 
1 1 1:-0.683168 2:-1 3:-0.770492 
1 0 1:-0.960396 2:-1 3:-1 
1 0 1:-0.782178 2:-1 3:-0.901639 
1 0 1:-1 2:-1 3:-1 
1 0 1:-0.980198 2:-1 3:-1 
1 0 1:-1 2:-1 3:-1 
1 0 1:-1 2:-1 3:-1 
1 0 1:-1 2:-1 3:-1 
1 0 1:-1 2:-1 3:-1 
1 0 1:-0.960396 2:-1 3:-1 
1 0 1:-0.762376 2:-1 3:-1 
1 0 1:-0.940594 2:-0.918367 3:-0.868852 
1 0 1:-0.782178 2:-1 3:-0.967213 
1 0 1:-0.90099 2:-1 3:-1 
1 0 1:-0.722772 2:-0.673469 3:-1 
1 0 1:-0.920792 2:-0.877551 3:-1 
1 0 1:-0.960396 2:-0.714286 3:-0.967213 
1 0 1:-0.722772 2:-1 3:-0.737705 
1 0 1:-0.940594 2:-1 3:-0.934426 
1 0 1:-0.80198 2:-1 3:-0.836066 
1 0 1:-0.940594 2:-1 3:-1 
1 0 1:-0.920792 2:-1 3:-1 
1 0 1:-0.70297 2:-1 3:-0.836066 
1 0 1:-0.940594 2:-1 3:-1 
1 0 1:-0.881188 2:-0.836735 3:-0.967213 
1 1 1:-0.643564 2:-0.959184 3:-1 
1 0 1:-0.346535 2:-1 3:-0.868852 
1 0 1:-0.940594 2:-1 3:-0.967213 
1 0 1:-0.940594 2:-1 3:-1 
1 0 1:-0.881188 2:-1 3:-1 
1 0 1:-1 2:-1 3:-1 
1 0 1:-0.940594 2:-1 3:-1 
1 0 1:-0.940594 2:-1 3:-1 
1 0 1:-0.643564 2:-1 3:-0.934426 
1 0 1:-0.960396 2:-1 3:-1 
1 0 1:-0.920792 2:-1 3:-1 
1 0 1:-0.940594 2:-1 3:-1 
1 0 1:-0.742574 2:-1 3:-0.803279 
1 0 1:-0.920792 2:-1 3:-1 
1 0 1:-0.940594 2:-0.714286 3:-1 
1 0 1:-0.425743 2:-0.387755 3:-0.836066 
1 0 1:-0.960396 2:-1 3:-1 
1 0 1:-0.920792 2:-1 3:-1 
1 0 1:-0.920792 2:-1 3:-1 
1 0 1:-0.940594 2:-1 3:-1 
1 0 1:-0.940594 2:-1 3:-1 
1 0 1:-0.920792 2:-1 3:-1 
1 0 1:-0.841584 2:-1 3:-0.803279 
1 0 1:-0.70297 2:-1 3:-0.967213 
1 0 1:-0.762376 2:-0.918367 3:-0.967213 
1 0 1:-0.841584 2:-1 3:-1 
1 0 1:-0.841584 2:-1 3:-0.901639 
1 0 1:-0.861386 2:-0.918367 3:-0.606557 
1 0 1:-0.80198 2:-0.673469 3:-1 
1 0 1:-0.960396 2:-1 3:-1 
1 0 1:-0.60396 2:-1 3:-0.967213 
1 0 1:-0.247525 2:-0.918367 3:-1 
1 0 1:-0.861386 2:-1 3:-0.836066 
1 0 1:-0.920792 2:-1 3:-1 
1 0 1:-0.920792 2:-1 3:-1 
1 0 1:-0.960396 2:-1 3:-1 
1 0 1:-0.821782 2:-1 3:-1 
1 0 1:-0.80198 2:-1 3:-0.836066 
1 0 1:-0.80198 2:-1 3:-1 
1 0 1:-0.940594 2:-1 3:-1 
1 0 1:-0.544554 2:-0.959184 3:-0.967213 
1 0 1:-0.346535 2:-0.714286 3:-0.934426 
1 0 1:-0.782178 2:-0.142857 3:-1 
1 0 1:-0.821782 2:-1 3:-1 
1 0 1:-0.742574 2:-1 3:-1 
1 0 1:-0.643564 2:-0.918367 3:-0.868852 
1 0 1:-0.940594 2:-1 3:-1 
1 0 1:-0.920792 2:-0.918367 3:-0.868852 
1 0 1:-0.940594 2:-1 3:-1 
1 0 1:-0.821782 2:-1 3:-0.967213 
1 0 1:-0.821782 2:-1 3:-0.967213 
1 0 1:-0.821782 2:-1 3:-0.967213 
1 0 1:-0.821782 2:-1 3:-0.967213 
1 0 1:-0.742574 2:-1 3:-1 
1 0 1:-0.940594 2:-1 3:-1 
1 0 1:-0.80198 2:-1 3:-0.803279 
1 0 1:-0.90099 2:-1 3:-1 
1 0 1:-0.90099 2:-1 3:-1 
1 0 1:-0.920792 2:-1 3:-1 
1 0 1:-0.920792 2:-1 3:-1 
1 0 1:-0.940594 2:-1 3:-1 
1 0 1:-0.821782 2:-0.877551 3:-0.803279 
1 0 1:-0.940594 2:-1 3:-1 
1 0 1:-0.940594 2:-1 3:-1 
1 0 1:-0.920792 2:-1 3:-1 
1 0 1:-0.940594 2:-1 3:-1 
1 0 1:-0.267327 2:-0.55102 3:-0.967213 
1 0 1:-0.841584 2:-1 3:-1 
1 0 1:-0.80198 2:-1 3:-0.934426 
1 0 1:-0.584158 2:-1 3:-1 
1 0 1:-1 2:-1 3:-1 
1 0 1:-0.920792 2:-1 3:-1 
1 0 1:-0.90099 2:-1 3:-1 
1 0 1:-0.90099 2:-1 3:-1 
1 0 1:-0.881188 2:-1 3:-1 
1 0 1:-0.90099 2:-0.673469 3:-1 
1 0 1:-0.940594 2:-1 3:-1 
1 0 1:-0.940594 2:-1 3:-1 
1 0 1:-0.940594 2:-1 3:-1 
1 0 1:-0.663366 2:-1 3:-0.967213 
1 1 1:-0.663366 2:-0.306122 3:-1 
1 1 1:-0.70297 2:0.102041 3:-0.868852 
1 0 1:-0.940594 2:-1 3:-1 
1 0 1:-0.960396 2:-1 3:-1 
1 0 1:-0.90099 2:-1 3:-0.737705 
1 0 1:-0.762376 2:-0.918367 3:-0.868852 
1 0 1:-0.940594 2:-1 3:-1 
1 0 1:-0.881188 2:-1 3:-1 
1 0 1:-0.940594 2:-1 3:-1 
1 0 1:-0.940594 2:-1 3:-0.967213 
1 0 1:-0.960396 2:-1 3:-1 
1 0 1:-0.841584 2:-0.959184 3:-1 
1 0 1:-0.80198 2:-1 3:-0.934426 
1 0 1:-0.326733 2:-0.632653 3:-1 
1 0 1:-0.960396 2:-1 3:-0.967213 
1 0 1:-0.782178 2:-0.959184 3:-1 
1 0 1:-0.960396 2:-1 3:-1 
1 0 1:-0.960396 2:-1 3:-1 
1 0 1:-0.960396 2:-1 3:-1 
1 0 1:-0.960396 2:-1 3:-1 
1 0 1:-0.861386 2:-1 3:-1 
1 0 1:0.029703 2:-0.265306 3:-1 
1 0 1:-0.940594 2:-1 3:-1 
1 0 1:-0.960396 2:-1 3:-1 
1 0 1:-0.920792 2:-1 3:-1 
1 0 1:-0.90099 2:-1 3:-0.836066 
1 0.01974008572249297 1:-0.742574 2:-0.918367 3:-0.901639 
1 0 1:-0.960396 2:-1 3:-1 
1 0 1:-0.722772 2:-0.918367 3:-0.868852 
1 0 1:-0.940594 2:-1 3:-1 
1 0 1:-0.881188 2:-1 3:-1 
1 0 1:-0.782178 2:-0.632653 3:-1 
1 0 1:-0.683168 2:-0.918367 3:-1 
1 0 1:-0.683168 2:-0.510204 3:-1 
1 0 1:-0.90099 2:-0.755102 3:-1 
1 0 1:-0.960396 2:-1 3:-1 
1 0 1:-0.980198 2:-1 3:-1 
1 0 1:-0.940594 2:-1 3:-0.967213 
1 0 1:-0.90099 2:-1 3:-1 
1 0 1:-0.861386 2:-1 3:-1 
1 0 1:-0.881188 2:-0.795918 3:-1 
1 0 1:-0.70297 2:-1 3:-0.868852 
1 0 1:-0.821782 2:-1 3:-1 
1 0 1:-0.742574 2:-0.795918 3:-1 
1 0 1:-0.940594 2:-1 3:-1 
1 0 1:-0.940594 2:-1 3:-1 
1 0 1:-0.940594 2:-1 3:-1 
1 0 1:-0.881188 2:-0.673469 3:-0.836066 
1 0 1:-0.940594 2:-1 3:-1 
1 0 1:-0.90099 2:-1 3:-1 
1 0 1:-0.841584 2:-0.673469 3:-0.967213 
1 0 1:-0.821782 2:-1 3:-1 
1 0 1:-0.940594 2:-1 3:-1 
1 0 1:-0.50495 2:0.142857 3:-0.868852 
1 0 1:-0.920792 2:-1 3:-1 
1 0 1:-0.940594 2:-1 3:-1 
1 0 1:-0.564356 2:-0.959184 3:-0.934426 
1 0 1:-1 2:-1 3:-1 
1 0 1:-0.782178 2:-0.959184 3:-0.934426 
1 0 1:-0.722772 2:-1 3:-0.770492 
1 0 1:-0.168317 2:-0.428571 3:-1 
1 0 1:-0.207921 2:-0.428571 3:-1 
1 0 1:-0.90099 2:-0.755102 3:-1 
1 0 1:-0.80198 2:-1 3:-0.836066 
1 0 1:-0.90099 2:-0.877551 3:-1 
1 0 1:-0.960396 2:-1 3:-1 
1 0 1:-0.960396 2:-1 3:-1 
1 0 1:-0.683168 2:-1 3:-1 
1 0 1:-0.960396 2:-1 3:-1 
1 0 1:-0.920792 2:-0.959184 3:-0.803279 
1 0 1:-0.247525 2:-0.755102 3:-0.967213 
1 0 1:-0.960396 2:-1 3:-1 
1 0 1:-0.960396 2:-1 3:-1 
1 0 1:-0.940594 2:-0.836735 3:-1 
1 0 1:-0.782178 2:-0.918367 3:-0.967213 
1 0 1:-1 2:-1 3:-1 
1 0 1:-0.782178 2:-0.918367 3:-0.901639 
1 0 1:-0.782178 2:-1 3:-0.868852 
1 0 1:-0.940594 2:-1 3:-1 
1 0 1:-0.940594 2:-1 3:-1 
1 0 1:-0.960396 2:-1 3:-1 
1 0 1:-0.821782 2:-0.714286 3:-1 
1 0 1:-0.742574 2:-1 3:-0.868852 
1 0 1:-0.940594 2:-1 3:-1 
1 0 1:-0.663366 2:-1 3:-0.934426 
1 0.9880224829478043 1:-0.564356 2:-0.102041 3:-1 
1 0 1:-0.861386 2:-1 3:-0.967213 
1 0 1:-0.940594 2:-1 3:-1 
1 0 1:-0.960396 2:-1 3:-1 
1 0 1:-0.940594 2:-1 3:-1 
1 0 1:-1 2:-1 3:-1 
1 0 1:-1 2:-1 3:-1 
1 0 1:-0.940594 2:-1 3:-1 
1 0 1:-0.782178 2:-1 3:-1 
1 0 1:-0.762376 2:-1 3:-1 
1 0 1:-0.841584 2:-1 3:-1 
1 0 1:-0.841584 2:-0.632653 3:-1 
1 0 1:-0.960396 2:-1 3:-1 
1 0 1:-0.881188 2:-1 3:-0.934426 
1 0 1:-0.960396 2:-1 3:-1 
1 0 1:-0.881188 2:-1 3:-1 
1 0 1:-0.940594 2:-1 3:-0.672131 
1 0 1:-0.524752 2:-1 3:-1 
1 0 1:-0.70297 2:-1 3:-0.770492 
1 0 1:-0.920792 2:-1 3:-1 
1 0 1:-0.960396 2:-1 3:-1 
1 0 1:-0.960396 2:-0.755102 3:-1 
1 0 1:-0.623762 2:-0.673469 3:-1 
1 0 1:-0.940594 2:-1 3:-1 
1 0 1:-1 2:-1 3:-1 
1 0 1:-1 2:-1 3:-1 
1 0 1:-1 2:-1 3:-1 
1 0 1:-0.960396 2:-1 3:-1 
1 0 1:-1 2:-1 3:-1 
1 0 1:-1 2:-1 3:-1 
1 0 1:-0.920792 2:-1 3:-1 
1 0 1:-1 2:-1 3:-1 
1 0 1:-0.960396 2:-1 3:-1 
1 0 1:-1 2:-1 3:-1 
1 0 1:-1 2:-1 3:-1 
1 0 1:-1 2:-1 3:-1 
1 0 1:-0.940594 2:-1 3:-1 
1 0 1:-0.683168 2:-0.755102 3:-0.639344 
1 0 1:-0.920792 2:-1 3:-0.803279 
1 0 1:-0.960396 2:-1 3:-1 
1 0 1:-0.90099 2:-1 3:-1 
1 0 1:-0.782178 2:-1 3:-0.868852 
1 0 1:-0.980198 2:-1 3:-1 
1 0 1:-0.940594 2:-1 3:-1 
1 0 1:-0.90099 2:-0.918367 3:-0.901639 
1 1 1:-0.841584 2:-1 3:-0.967213 
1 0 1:-1 2:-1 3:-1 
1 0 1:-0.881188 2:-1 3:-1 
1 0 1:-0.940594 2:-1 3:-1 
1 0 1:-0.90099 2:-1 3:-1 
1 0 1:-0.940594 2:-1 3:-1 
1 0 1:-0.50495 2:-0.877551 3:-0.967213 
1 0 1:-0.940594 2:-1 3:-1 
1 0 1:-0.90099 2:-1 3:-1 
1 0 1:-1 2:-1 3:-1 
1 0 1:-0.90099 2:-0.836735 3:-0.901639 
1 0 1:-0.920792 2:-1 3:-1 
1 0 1:-0.940594 2:-0.591837 3:-1 
1 0 1:-0.821782 2:-1 3:-0.803279 
1 0 1:-0.920792 2:-1 3:-1 
1 0 1:-0.683168 2:-1 3:-0.967213 
1 0 1:-1 2:-1 3:-1 
1 0 1:-0.940594 2:-1 3:-1 
1 0 1:-0.188119 2:-1 3:-1 
1 0 1:-0.940594 2:-1 3:-1 
1 0 1:-0.980198 2:-0.959184 3:-1 
1 0 1:-0.346535 2:-0.836735 3:-1 
1 0 1:-0.960396 2:-1 3:-1 
1 0 1:-0.881188 2:-1 3:-0.967213 
1 0 1:-0.940594 2:-1 3:-1 
1 0 1:-0.782178 2:-1 3:-0.934426 
1 0 1:-0.80198 2:-1 3:-1 
1 0 1:-0.80198 2:-1 3:-0.704918 
1 0 1:-0.782178 2:-1 3:-0.868852 
1 0 1:-0.861386 2:-1 3:-1 
1 0 1:-0.841584 2:-1 3:-1 
1 0 1:-0.821782 2:-0.959184 3:-0.934426 
1 0 1:-0.881188 2:-1 3:-1 
1 1 1:-0.762376 2:-1 3:-0.704918 
1 0 1:-0.920792 2:-0.959184 3:-0.672131 
1 0 1:-0.960396 2:-0.918367 3:-0.934426 
1 0 1:-0.940594 2:-1 3:-1 
1 0 1:-0.940594 2:-1 3:-1 
1 0 1:-0.940594 2:-1 3:-0.934426 
1 0 1:-0.920792 2:-1 3:-1 
1 0 1:-0.60396 2:-1 3:-0.868852 
1 0 1:-0.80198 2:-1 3:-0.737705 
1 0 1:-0.940594 2:-1 3:-1 
1 0 1:-0.841584 2:-1 3:-1 
1 0 1:-0.940594 2:-1 3:-1 
1 0 1:-0.861386 2:-1 3:-1 
1 0 1:-0.960396 2:-1 3:-1 
1 0 1:-1 2:-1 3:-1 
1 0 1:-1 2:-1 3:-1 
1 0 1:-0.90099 2:-1 3:-1 
1 0 1:-1 2:-1 3:-1 
1 0 1:-1 2:-1 3:-1 
1 0 1:-0.861386 2:-1 3:-1 
1 0 1:-0.960396 2:-1 3:-1 
1 0 1:-0.960396 2:-0.102041 3:-1 
1 0 1:-0.960396 2:-1 3:-0.967213 
1 0 1:-0.940594 2:-1 3:-1 
1 0 1:-0.960396 2:-1 3:-1 
1 0 1:-0.90099 2:-1 3:-1 
1 0 1:-0.960396 2:-1 3:-1 
1 0 1:-0.782178 2:-1 3:-0.803279 
1 0 1:-0.90099 2:-1 3:-1 
1 0 1:-0.920792 2:-1 3:-1 
1 0 1:-0.920792 2:-0.959184 3:-1 
1 0 1:-0.940594 2:-1 3:-1 
1 0 1:-0.90099 2:-1 3:-1 
1 0 1:-0.940594 2:-1 3:-1 
1 0 1:-0.940594 2:-1 3:-1 
1 0 1:-0.584158 2:-1 3:-1 
1 0 1:-0.584158 2:-1 3:-0.967213 
1 0 1:-0.346535 2:-0.714286 3:-1 
1 0 1:-0.841584 2:-1 3:-1 
1 0 1:-0.920792 2:-1 3:-1 
1 0 1:-0.960396 2:-1 3:-1 
1 0 1:-1 2:-1 3:-1 
1 0 1:-0.980198 2:-1 3:-1 
1 0 1:-0.90099 2:-1 3:-0.934426 
1 0 1:-0.960396 2:-1 3:-1 
1 0 1:-0.980198 2:-1 3:-0.967213 
1 0 1:-0.663366 2:-1 3:-0.934426 
1 0 1:-0.940594 2:-1 3:-1 
1 0 1:-0.960396 2:-1 3:-1 
1 0 1:-0.920792 2:-1 3:-1 
1 0 1:-0.940594 2:-1 3:-1 
1 0 1:-0.881188 2:-0.714286 3:-0.967213 
1 0 1:-0.782178 2:-1 3:-0.868852 
1 0 1:-0.920792 2:-1 3:-1 
1 0 1:-0.90099 2:-1 3:-1 
1 0 1:-1 2:-1 3:-1 
1 0 1:-1 2:-1 3:-1 
1 0 1:-0.643564 2:-0.510204 3:-1 
1 0 1:-0.940594 2:-1 3:-1 
1 0 1:-0.841584 2:-1 3:-0.606557 
1 0 1:-0.940594 2:-1 3:-1 
1 0 1:-0.960396 2:-1 3:-1 
1 0 1:-0.80198 2:-1 3:-1 
1 0 1:-1 2:-1 3:-1 
1 0 1:-0.940594 2:-1 3:-1 
1 0 1:-0.287129 2:-0.55102 3:-1 
1 0 1:-0.960396 2:-1 3:-1 
1 0 1:-0.980198 2:-1 3:-1 
1 0 1:-0.623762 2:-1 3:-0.934426 
1 0 1:-0.861386 2:-1 3:-1 
1 0 1:-0.960396 2:-1 3:-0.803279 
1 0 1:-0.940594 2:-1 3:-1 
1 0 1:-0.782178 2:-0.918367 3:-0.868852 
1 0 1:-0.326733 2:-0.632653 3:-1 
1 0 1:-1 2:-1 3:-1 
1 0 1:-0.861386 2:-0.877551 3:-0.606557 
1 0 1:-1 2:-1 3:-1 
1 0 1:-0.861386 2:-1 3:-0.737705 
1 0 1:-0.821782 2:-1 3:-0.901639 
1 0 1:-0.366337 2:-0.673469 3:-0.704918 
1 0 1:-1 2:-1 3:-1 
1 0 1:-0.980198 2:-1 3:-1 
1 0 1:-0.762376 2:-0.959184 3:-0.934426 
1 0 1:-0.821782 2:-1 3:-0.934426 
1 0 1:-0.960396 2:-1 3:-1 
1 0 1:-0.465347 2:-1 3:-1 
1 0 1:-0.960396 2:-1 3:-1 
1 0 1:-0.940594 2:-1 3:-1 
1 0 1:-0.60396 2:-1 3:-1 
1 0 1:-0.940594 2:-1 3:-0.967213 
1 0 1:-0.940594 2:-1 3:-1 
1 0 1:-0.80198 2:-1 3:-0.737705 
1 0 1:-1 2:-1 3:-1 
1 0 1:-0.940594 2:-1 3:-1 
1 0 1:-0.960396 2:-1 3:-1 
1 0 1:-0.861386 2:-1 3:-1 
1 0 1:-0.425743 2:-0.755102 3:-1 
1 0 1:-0.90099 2:-1 3:-1 
1 0 1:-0.940594 2:-1 3:-1 
1 0 1:-0.940594 2:-1 3:-0.934426 
1 0 1:-0.821782 2:-0.795918 3:-1 
1 0 1:-0.940594 2:-1 3:-1 
1 0 1:-0.940594 2:-1 3:-1 
1 0 1:-0.782178 2:-0.306122 3:-0.901639 
1 0 1:-0.980198 2:-1 3:-1 
1 0 1:-0.782178 2:-1 3:-0.803279 
1 0 1:-0.940594 2:-1 3:-1 
1 0 1:-0.940594 2:-0.918367 3:-0.868852 
1 0 1:-0.722772 2:-1 3:-1 
1 0 1:-0.940594 2:-1 3:-1 
1 0 1:-0.663366 2:-1 3:-1 
1 0 1:-0.485149 2:-1 3:-0.934426 
1 0 1:-0.861386 2:-1 3:-0.836066 
1 0 1:-0.841584 2:-1 3:-1 
1 0 1:-0.841584 2:-1 3:-0.737705 
1 0 1:-0.524752 2:-1 3:-0.967213 
1 0 1:-0.861386 2:-0.510204 3:-0.967213 
1 0 1:-0.742574 2:-0.469388 3:-1 
1 1 1:-0.742574 2:-0.918367 3:-0.836066 
1 0 1:-0.920792 2:-1 3:-1 
1 0 1:-0.940594 2:-1 3:-1 
1 1 1:-0.762376 2:-1 3:-0.672131 
1 0 1:-0.920792 2:-0.918367 3:-0.770492 
1 0 1:-0.722772 2:-0.918367 3:-0.868852 
1 0 1:-0.881188 2:-1 3:-1 
1 0 1:-0.920792 2:-0.755102 3:-1 
1 0 1:-0.762376 2:-1 3:-0.868852 
1 0 1:-0.920792 2:-1 3:-1 
1 0 1:-0.90099 2:-1 3:-1 
1 0 1:-0.920792 2:-1 3:-1 
1 0 1:-0.861386 2:-1 3:-1 
1 0 1:-0.762376 2:-1 3:-0.901639 
1 0 1:-0.940594 2:-1 3:-0.934426 
1 0 1:-0.90099 2:-1 3:-1 
1 0 1:-0.920792 2:-1 3:-1 
1 0 1:-0.80198 2:-1 3:-1 
1 0 1:-0.960396 2:-1 3:-1 
1 0 1:-0.920792 2:-1 3:-1 
1 0 1:-0.940594 2:-1 3:-1 
1 0 1:-0.920792 2:-1 3:-1 
1 0 1:-0.524752 2:-1 3:-1 
1 0 1:-0.881188 2:-1 3:-1 
1 0 1:-0.683168 2:-1 3:-1 
1 0 1:-0.70297 2:-1 3:-1 
1 0 1:-0.920792 2:-1 3:-1 
1 0 1:-0.90099 2:-1 3:-1 
1 0 1:-0.920792 2:-1 3:-1 
1 0 1:-0.960396 2:-1 3:-1 
1 0 1:-0.623762 2:-1 3:-0.803279 
1 0 1:-0.683168 2:-1 3:-1 
1 0 1:-0.90099 2:-1 3:-1 
1 0 1:-0.940594 2:0.183673 3:-1 
1 0 1:-0.742574 2:-1 3:-1 
1 0 1:-1 2:-1 3:-1 
1 0 1:-0.960396 2:-1 3:-1 
1 0 1:-0.980198 2:-1 3:-1 
1 0.02474447302354718 1:-0.722772 2:-0.877551 3:-0.901639 
1 0 1:-0.881188 2:-1 3:-0.967213 
1 0 1:-0.881188 2:-1 3:-1 
1 0 1:-0.940594 2:-1 3:-1 
1 0 1:-0.960396 2:-0.795918 3:-1 
1 0 1:-0.722772 2:-0.959184 3:-0.803279 
1 0 1:-0.841584 2:-1 3:-1 
1 0 1:-0.960396 2:-1 3:-1 
1 0 1:-0.960396 2:-1 3:-1 
1 0 1:-0.881188 2:-1 3:-1 
1 0 1:-0.881188 2:-1 3:-1 
1 0 1:-0.940594 2:-1 3:-1 
1 0 1:-0.980198 2:-1 3:-1 
1 0 1:-0.960396 2:-1 3:-1 
1 0 1:-0.920792 2:-1 3:-0.967213 
1 0 1:-0.762376 2:-1 3:-0.868852 
1 0 1:-0.90099 2:-1 3:-1 
1 0 1:-0.940594 2:-1 3:-1 
1 0 1:-0.762376 2:-0.959184 3:-1 
1 0 1:-0.881188 2:-0.591837 3:-1 
1 0 1:-0.366337 2:-0.836735 3:-0.967213 
1 0 1:-0.80198 2:-0.918367 3:-0.967213 
1 0 1:-0.960396 2:-1 3:-0.967213 
1 0 1:-0.861386 2:-0.591837 3:-1 
1 0 1:-0.841584 2:-1 3:-1 
1 0 1:-0.960396 2:-1 3:-1 
1 0 1:-0.722772 2:-1 3:-0.836066 
1 0 1:-0.90099 2:-0.469388 3:-1 
1 0 1:-0.960396 2:-1 3:-1 
1 0 1:-0.940594 2:-1 3:-1 
1 0 1:-0.940594 2:-0.959184 3:-0.868852 
1 0 1:-0.821782 2:-1 3:-0.934426 
1 0 1:-0.940594 2:-1 3:-1 
1 0 1:-0.90099 2:-1 3:-0.868852 
1 0 1:-0.940594 2:-1 3:-1 
1 0 1:-0.742574 2:-0.469388 3:-0.901639 
1 0 1:-0.80198 2:-0.959184 3:-1 
1 0 1:-0.940594 2:-1 3:-1 
1 0 1:-0.90099 2:-1 3:-1 
1 0 1:-0.960396 2:-1 3:-0.967213 
1 1 1:-0.80198 2:-0.755102 3:-0.967213 
1 0 1:-0.663366 2:-0.877551 3:-1 
1 0 1:-0.841584 2:-0.918367 3:-0.836066 
1 0 1:-0.524752 2:-1 3:-1 
1 0 1:-0.326733 2:-1 3:-1 
1 0 1:-0.960396 2:-1 3:-1 
1 0 1:-0.960396 2:-1 3:-1 
1 0 1:-0.881188 2:-1 3:-1 
1 0 1:-0.485149 2:-1 3:-1 
1 0 1:-0.623762 2:-1 3:-1 
1 0 1:-0.70297 2:-1 3:-1 
1 0 1:-1 2:-1 3:-1 
1 0 1:-1 2:-1 3:-1 
1 0 1:-1 2:-1 3:-1 
1 0 1:-0.960396 2:-1 3:-1 
1 0 1:-0.90099 2:-1 3:-1 
1 0 1:-0.643564 2:-1 3:-0.836066 
1 0 1:-0.940594 2:-1 3:-1 
1 0 1:-0.881188 2:-1 3:-1 
1 0 1:-0.841584 2:-1 3:-1 
1 0 1:-0.881188 2:-1 3:-1 
1 0 1:-0.762376 2:-1 3:-1 
1 0 1:-0.960396 2:-1 3:-1 
1 0 1:-1 2:-1 3:-1 
1 0 1:-1 2:-1 3:-1 
1 0 1:-1 2:-1 3:-1 
1 0 1:-1 2:-1 3:-1 
1 0 1:-1 2:-1 3:-1 
1 0 1:-1 2:-1 3:-1 
1 0 1:-1 2:-1 3:-1 
1 0 1:-1 2:-1 3:-1 
1 0 1:-1 2:-1 3:-1 
1 0 1:-1 2:-1 3:-1 
1 0 1:-0.980198 2:-1 3:-1 
1 0 1:-1 2:-1 3:-1 
1 0 1:-1 2:-1 3:-1 
1 0 1:-0.960396 2:-1 3:-1 
1 0 1:-1 2:-1 3:-1 
1 0 1:-1 2:-1 3:-1 
1 0 1:-1 2:-1 3:-1 
1 0 1:-1 2:-1 3:-1 
1 0 1:-1 2:-1 3:-1 
1 0 1:-0.920792 2:-1 3:-1 
1 0 1:-0.881188 2:-1 3:-0.770492 
1 0 1:-0.920792 2:-1 3:-1 
1 0 1:-0.960396 2:-1 3:-1 
1 0 1:-0.80198 2:-0.959184 3:-0.901639 
1 0 1:-0.940594 2:-1 3:-0.934426 
1 0 1:-0.960396 2:-1 3:-1 
1 0 1:-0.920792 2:-1 3:-1 
1 0 1:-0.70297 2:-1 3:-0.803279 
1 0 1:-0.90099 2:-1 3:-1 
1 0 1:-0.960396 2:-1 3:-1 
1 0 1:-0.60396 2:-1 3:-0.967213 
1 0 1:-0.90099 2:-0.918367 3:-1 
1 0 1:-0.70297 2:-0.755102 3:-0.737705 
1 0 1:-0.960396 2:-1 3:-1 
1 0 1:-0.821782 2:-1 3:-1 
1 0.07965335984010294 1:-0.881188 2:-0.714286 3:-0.836066 
1 0 1:-0.940594 2:-1 3:-0.934426 
1 0 1:-0.90099 2:-1 3:-1 
1 0 1:-0.920792 2:-1 3:-1 
1 0 1:-0.940594 2:-1 3:-1 
1 0 1:-0.940594 2:-1 3:-1 
1 0 1:-0.663366 2:-1 3:-0.868852 
1 1 1:-0.861386 2:-0.795918 3:-0.967213 
1 0 1:-0.940594 2:-1 3:-1 
1 0 1:-0.425743 2:-0.918367 3:-0.901639 
1 0 1:-0.980198 2:-1 3:-0.934426 
1 0 1:-0.841584 2:-1 3:-1 
1 0 1:-0.861386 2:-1 3:-1 
1 0 1:-0.207921 2:-1 3:-0.868852 
1 0 1:-1 2:-1 3:-1 
1 0 1:-0.940594 2:-1 3:-1 
1 0 1:-0.663366 2:-0.632653 3:-1 
1 0 1:-0.960396 2:-1 3:-0.967213 
1 0 1:-0.940594 2:-1 3:-1 
1 0 1:-1 2:-1 3:-1 
1 0 1:-0.960396 2:-1 3:-1 
1 0 1:-0.960396 2:-1 3:-1 
1 0 1:-0.940594 2:-1 3:-1 
1 0 1:-0.742574 2:-1 3:-0.868852 
1 0 1:-1 2:-1 3:-1 
1 0 1:-0.544554 2:-1 3:-0.901639 
1 0.008775175113692094 1:-0.584158 2:-1 3:-0.934426 
1 0 1:-0.762376 2:-0.510204 3:-1 
1 0 1:-0.940594 2:-1 3:-1 
1 0 1:-0.70297 2:-1 3:-0.770492 
1 0 1:-0.841584 2:-0.102041 3:-1 
1 1 1:-0.960396 2:-1 3:-0.901639 
1 0 1:-0.80198 2:-1 3:-1 
1 0 1:-1 2:-1 3:-1 
1 0 1:-1 2:-1 3:-1 
1 0 1:-0.960396 2:-1 3:-1 
1 0 1:-0.920792 2:-1 3:-1 
1 0 1:-1 2:-1 3:-1 
1 0.03317322289107368 1:-0.742574 2:-0.755102 3:-0.868852 
1 0 1:-0.940594 2:-1 3:-1 
1 0 1:-0.821782 2:-1 3:-1 
1 0 1:-0.90099 2:-0.836735 3:-1 
1 0 1:-0.742574 2:-1 3:-1 
1 0 1:-0.841584 2:-1 3:-1 
1 0 1:-1 2:-1 3:-1 
1 0 1:-0.90099 2:-0.877551 3:-0.967213 
1 0 1:-0.940594 2:-0.918367 3:-1 
1 0 1:-0.920792 2:-1 3:-0.934426 
1 0 1:-0.861386 2:-1 3:-1 
1 0 1:-0.90099 2:-1 3:-0.836066 
1 0 1:-0.920792 2:-1 3:-1 
1 0 1:-0.960396 2:-1 3:-1 
1 0 1:-0.821782 2:-1 3:-1 
1 0 1:-0.782178 2:-0.795918 3:-1 
1 0 1:-0.861386 2:-1 3:-1 
1 0 1:-0.663366 2:-0.755102 3:-1 
1 0 1:-0.920792 2:-1 3:-1 
1 0 1:-0.940594 2:-1 3:-1 
1 0 1:-0.70297 2:-1 3:-1 
1 0 1:-0.940594 2:-1 3:-1 
1 0 1:-0.940594 2:-1 3:-1 
1 0 1:-0.960396 2:-1 3:-1 
1 0 1:-0.920792 2:-0.918367 3:-1 
1 0 1:-0.70297 2:-1 3:-0.803279 
1 0 1:-0.821782 2:-0.673469 3:-0.934426 
1 0 1:-0.940594 2:-1 3:-1 
1 0 1:-0.960396 2:-1 3:-1 
1 0 1:-0.841584 2:-1 3:-0.803279 
1 0 1:-0.960396 2:-1 3:-1 
1 0 1:-0.920792 2:-1 3:-1 
1 0 1:-0.940594 2:-1 3:-1 
1 0 1:-0.920792 2:-1 3:-1 
1 0 1:-0.940594 2:-1 3:-1 
1 0 1:-0.841584 2:-1 3:-0.934426 
1 0 1:-0.960396 2:-1 3:-1 
1 0 1:-0.960396 2:-1 3:-1 
1 0 1:-1 2:-1 3:-1 
1 0 1:-1 2:-1 3:-1 
1 0 1:-1 2:-1 3:-1 
1 0 1:-0.960396 2:-1 3:-1 
1 0 1:-1 2:-1 3:-1 
1 0 1:-1 2:-1 3:-1 
1 0 1:-0.782178 2:-1 3:-0.737705 
1 0 1:-0.861386 2:-0.102041 3:-1 
1 0 1:-0.267327 2:-0.959184 3:-0.934426 
1 0 1:-0.821782 2:-0.836735 3:-1 
1 0 1:-0.80198 2:-0.795918 3:-1 
1 0 1:-0.940594 2:-1 3:-1 
1 0 1:-0.960396 2:-1 3:-1 
1 0 1:-0.623762 2:-1 3:-1 
1 0 1:-0.920792 2:-1 3:-1 
1 0 1:-0.960396 2:-1 3:-1 
1 0 1:-0.960396 2:-1 3:-1 
1 0 1:-0.920792 2:-1 3:-1 
1 0 1:-0.980198 2:-1 3:-1 
1 0.01633716073274767 1:-0.80198 2:-0.877551 3:-0.901639 
1 0 1:-0.960396 2:-1 3:-1 
1 0 1:-0.940594 2:-0.918367 3:-1 
1 0 1:-0.960396 2:-1 3:-1 
1 0 1:-0.80198 2:-1 3:-1 
1 0 1:-0.960396 2:-1 3:-1 
1 0 1:-0.346535 2:-0.0204082 3:-1 
1 0 1:-0.90099 2:-1 3:-1 
1 0 1:-0.445545 2:-1 3:-0.934426 
1 0 1:-0.920792 2:-1 3:-0.934426 
1 0 1:-0.782178 2:-1 3:-0.803279 
1 0 1:-0.861386 2:-1 3:-0.803279 
1 0 1:-0.90099 2:-0.918367 3:-1 
1 0 1:-0.90099 2:-1 3:-1 
1 0 1:-0.841584 2:-1 3:-1 
1 0 1:-0.80198 2:-0.877551 3:-0.803279 
1 0 1:-0.683168 2:-0.673469 3:-1 
1 0 1:-0.940594 2:-1 3:-0.704918 
1 0 1:-0.841584 2:-1 3:-1 
1 0 1:-0.80198 2:-0.755102 3:-1 
1 0 1:-1 2:-1 3:-1 
1 0 1:-0.940594 2:-1 3:-1 
1 0 1:-0.60396 2:-0.755102 3:-1 
1 0 1:-0.821782 2:-0.836735 3:-1 
1 0 1:-0.782178 2:-1 3:-1 
1 0 1:-0.90099 2:-1 3:-1 
1 0 1:-0.623762 2:-0.836735 3:-0.967213 
1 0 1:-0.861386 2:-1 3:-0.737705 
1 0 1:-0.80198 2:-1 3:-0.901639 
1 0 1:-0.960396 2:-1 3:-1 
1 0 1:-0.940594 2:-1 3:-1 
1 0 1:-0.940594 2:-1 3:-1 
1 0 1:-0.70297 2:-0.795918 3:-1 
1 0 1:-0.782178 2:-1 3:-0.803279 
1 0 1:-0.861386 2:-0.836735 3:-0.934426 
1 0 1:-0.960396 2:-1 3:-0.967213 
1 0 1:-0.940594 2:-0.918367 3:-1 
1 0 1:-0.920792 2:-1 3:-0.934426 
1 0 1:-0.782178 2:-1 3:-0.967213 
1 0 1:-0.841584 2:-0.918367 3:-0.901639 
1 0 1:-0.90099 2:-1 3:-1 
1 0 1:-0.940594 2:-1 3:-0.901639 
1 0 1:-0.940594 2:-1 3:-1 
1 1 1:-0.188119 2:-0.591837 3:-0.868852 
1 0 1:-0.643564 2:-1 3:-0.836066 
1 0 1:-0.960396 2:-1 3:-1 
1 0 1:-0.960396 2:-1 3:-1 
1 0 1:-0.821782 2:-1 3:-1 
1 0 1:-0.881188 2:-1 3:-1 
1 0 1:-0.564356 2:-1 3:-1 
1 0 1:-0.841584 2:-1 3:-1 
1 0 1:-0.940594 2:-1 3:-1 
1 0 1:-0.920792 2:-1 3:-1 
1 0 1:-0.80198 2:-1 3:-0.737705 
1 0 1:-0.841584 2:-1 3:-1 
1 0 1:-0.80198 2:-1 3:-1 
1 0 1:-0.940594 2:-1 3:-1 
1 0 1:-0.920792 2:-1 3:-1 
1 0 1:-0.940594 2:-1 3:-1 
1 0 1:-0.821782 2:-1 3:-1 
1 0 1:-0.683168 2:-1 3:-1 
1 0 1:-0.722772 2:-1 3:-0.901639 
1 0 1:-0.920792 2:-1 3:-1 
1 0 1:-0.960396 2:-1 3:-1 
1 0 1:-0.326733 2:-1 3:-0.934426 
1 0 1:-0.960396 2:-1 3:-1 
1 0 1:-0.940594 2:-1 3:-1 
1 0 1:-0.940594 2:-1 3:-1 
1 0 1:-0.960396 2:-1 3:-0.934426 
1 0 1:-0.980198 2:-1 3:-1 
1 0 1:-0.50495 2:0.142857 3:-0.868852 
1 0 1:-0.940594 2:-1 3:-1 
1 0 1:-0.920792 2:-1 3:-1 
1 0 1:-0.584158 2:-0.755102 3:-1 
1 0 1:-0.841584 2:-1 3:-1 
1 0 1:-0.841584 2:-1 3:-1 
1 0 1:-0.960396 2:-1 3:-1 
1 0 1:-0.841584 2:-1 3:-0.803279 
1 0 1:-0.960396 2:-1 3:-1 
1 0 1:-0.940594 2:-1 3:-1 
1 0 1:-0.960396 2:-1 3:-1 
1 0 1:-0.940594 2:-0.918367 3:-0.967213 
1 0 1:-0.60396 2:-0.673469 3:-1 
1 0 1:-0.782178 2:-1 3:-0.672131 
1 0 1:-0.940594 2:-1 3:-1 
1 0 1:-0.683168 2:-1 3:-1 
1 0 1:-0.920792 2:-1 3:-1 
1 0 1:-0.881188 2:-1 3:-1 
1 0 1:-0.90099 2:-1 3:-1 
1 0 1:-0.821782 2:-1 3:-1 
1 0 1:-0.465347 2:-0.836735 3:-1 
1 0 1:-0.722772 2:-1 3:-1 
1 0 1:-0.861386 2:-1 3:-0.803279 
1 0 1:-0.960396 2:-1 3:-1 
1 0 1:-0.940594 2:-1 3:-1 
1 0 1:-0.782178 2:-1 3:-0.770492 
1 0 1:-0.80198 2:-0.673469 3:-1 
1 0 1:-0.762376 2:-0.877551 3:-1 
1 0 1:-0.960396 2:-1 3:-0.967213 
1 0 1:-0.564356 2:-0.959184 3:-0.606557 
1 0 1:-0.920792 2:-1 3:-1 
1 0 1:-0.841584 2:-0.959184 3:-0.934426 
1 0 1:-1 2:-1 3:-1 
1 0 1:-1 2:-1 3:-1 
1 0 1:-0.940594 2:-1 3:-1 
1 0 1:-0.960396 2:-1 3:-1 
1 0 1:-0.940594 2:-1 3:-1 
1 0 1:-0.861386 2:-1 3:-0.934426 
1 0 1:-0.722772 2:-1 3:-1 
1 0 1:-0.920792 2:-1 3:-1 
1 0 1:-0.940594 2:-1 3:-1 
1 0 1:-0.80198 2:-1 3:-1 
1 0 1:-0.584158 2:-0.755102 3:-0.934426 
1 0 1:-0.980198 2:-1 3:-1 
1 0 1:-0.80198 2:-0.959184 3:-0.967213 
1 0 1:-0.861386 2:-1 3:-1 
1 0 1:-0.920792 2:-1 3:-1 
1 0 1:-0.762376 2:-0.714286 3:-1 
1 0 1:-0.940594 2:-1 3:-1 
1 0 1:-0.960396 2:-1 3:-1 
1 0 1:-0.762376 2:-0.469388 3:-0.803279 
1 0 1:-0.60396 2:-0.22449 3:-0.967213 
1 0 1:-0.960396 2:-1 3:-1 
1 0 1:-0.940594 2:-1 3:-1 
1 0 1:-0.90099 2:-1 3:-0.934426 
1 0 1:-0.940594 2:-1 3:-1 
1 0 1:-0.50495 2:-0.591837 3:-1 
1 0 1:-0.940594 2:-1 3:-1 
1 0 1:-0.940594 2:-1 3:-1 
1 0 1:-0.90099 2:-1 3:-1 
1 0 1:-0.782178 2:-1 3:-1 
1 0 1:-0.960396 2:-1 3:-1 
1 0 1:-0.722772 2:-1 3:-0.868852 
1 0 1:-0.90099 2:-1 3:-1 
1 0 1:-0.881188 2:-0.836735 3:-1 
1 0 1:-0.940594 2:-1 3:-1 
1 0 1:-0.782178 2:-1 3:-1 
1 0 1:-0.00990099 2:-1 3:-0.770492 
1 0 1:-0.940594 2:-1 3:-1 
1 0 1:-0.960396 2:-1 3:-1 
1 0 1:-0.960396 2:-1 3:-1 
1 0 1:-1 2:-1 3:-1 
1 0 1:-0.762376 2:-0.959184 3:-1 
1 0 1:-1 2:-1 3:-1 
1 0 1:-0.643564 2:-1 3:-1 
1 0 1:-0.722772 2:-1 3:-1 
1 0 1:-0.940594 2:-1 3:-1 
1 0 1:-0.980198 2:-1 3:-0.803279 
1 0 1:-0.623762 2:-1 3:-1 
1 0 1:-0.861386 2:-0.918367 3:-1 
1 0 1:-0.920792 2:-1 3:-1 
1 1 1:-0.742574 2:-0.959184 3:-1 
1 0 1:-0.940594 2:-1 3:-0.803279 
1 0 1:-0.940594 2:-1 3:-1 
1 0 1:-0.960396 2:-1 3:-1 
1 0 1:-0.960396 2:-1 3:-1 
1 0 1:-0.940594 2:-1 3:-1 
1 0 1:-0.90099 2:-1 3:-1 
1 0 1:-0.881188 2:-1 3:-0.868852 
1 0 1:-0.960396 2:-1 3:-1 
1 0 1:-0.960396 2:-1 3:-1 
1 0 1:-0.920792 2:-0.836735 3:-0.868852 
1 0 1:-0.623762 2:-1 3:-0.967213 
1 0 1:-0.821782 2:-1 3:-0.868852 
1 0 1:-0.960396 2:-1 3:-1 
1 0 1:-0.960396 2:-1 3:-1 
1 0 1:-0.584158 2:-0.959184 3:-1 
1 0 1:-0.782178 2:-0.877551 3:-1 
1 0 1:-0.861386 2:-1 3:-1 
1 0 1:-0.940594 2:-1 3:-1 
1 0 1:-0.722772 2:-1 3:-1 
1 0 1:-0.90099 2:-1 3:-1 
1 0 1:-0.90099 2:-1 3:-1 
1 0 1:-0.70297 2:-1 3:-0.606557 
1 0 1:-0.60396 2:-0.714286 3:-1 
1 0 1:-0.742574 2:-1 3:-0.836066 
1 0 1:-0.722772 2:-1 3:-1 
1 0.00892604734712772 1:-0.643564 2:-0.918367 3:-0.901639 
1 0 1:-0.762376 2:-0.673469 3:-1 
1 0.0142107387908248 1:-0.782178 2:-0.755102 3:-0.868852 
1 0 1:-0.821782 2:-0.877551 3:-0.868852 
1 0 1:-0.920792 2:-0.959184 3:-1 
1 0 1:-0.762376 2:-0.959184 3:-0.967213 
1 0 1:-0.960396 2:-1 3:-1 
1 0 1:-0.960396 2:-1 3:-1 
1 0 1:-0.920792 2:-0.918367 3:-1 
1 0 1:-0.881188 2:-1 3:-1 
1 0 1:-0.841584 2:-1 3:-1 
1 0 1:-0.920792 2:-1 3:-1 
1 0 1:-0.960396 2:-1 3:-1 
1 0 1:-0.960396 2:-1 3:-1 
1 0 1:-1 2:-1 3:-1 
1 0 1:-0.960396 2:-1 3:-1 
1 0 1:-0.841584 2:-1 3:-0.737705 
1 0 1:-0.940594 2:-1 3:-1 
1 0 1:-0.90099 2:-1 3:-1 
1 0 1:-0.920792 2:-1 3:-0.606557 
1 0 1:-0.960396 2:-1 3:-1 
1 0 1:-1 2:-1 3:-1 
1 0 1:-0.722772 2:-0.877551 3:-0.868852 
1 0 1:-0.940594 2:-1 3:-1 
1 0 1:-0.70297 2:-1 3:-0.901639 
1 0 1:-0.940594 2:-0.755102 3:-1 
1 0 1:-0.960396 2:-1 3:-1 
1 0 1:-0.762376 2:-1 3:-0.770492 
1 0 1:-0.960396 2:-1 3:-1 
1 0 1:-0.940594 2:-0.959184 3:-1 
1 0 1:-0.90099 2:-0.877551 3:-1 
1 0 1:-0.841584 2:-0.918367 3:-0.737705 
1 0 1:-0.940594 2:-1 3:-0.803279 
1 0 1:-0.940594 2:-1 3:-1 
1 0 1:-0.940594 2:-0.755102 3:-1 
1 0 1:-0.544554 2:-1 3:-1 
1 0 1:-0.663366 2:-0.918367 3:-0.901639 
1 0 1:-0.940594 2:-1 3:-1 
1 0 1:-0.940594 2:-1 3:-1 
1 0 1:-0.960396 2:-1 3:-1 
1 0 1:-0.60396 2:-1 3:-1 
1 0 1:-0.940594 2:-1 3:-1 
1 0 1:-0.960396 2:-1 3:-1 
1 1 1:-0.841584 2:-1 3:-0.967213 
1 0 1:-0.940594 2:-1 3:-1 
1 0 1:-0.940594 2:-1 3:-1 
1 0 1:-0.960396 2:-1 3:-1 
1 0 1:-0.960396 2:-1 3:-1 
1 0 1:-0.960396 2:-1 3:-1 
1 0 1:-0.920792 2:-0.55102 3:-0.934426 
1 0 1:-0.960396 2:-1 3:-1 
1 0 1:-0.742574 2:-1 3:-1 
1 0 1:-0.841584 2:-0.673469 3:-0.967213 
1 0 1:-0.782178 2:-1 3:-0.737705 
1 0 1:-0.960396 2:-1 3:-1 
1 0 1:-0.940594 2:-1 3:-1 
1 0 1:-0.940594 2:-1 3:-1 
1 0 1:-0.90099 2:-1 3:-1 
1 0 1:-0.940594 2:-1 3:-1 
1 0 1:-0.960396 2:-1 3:-1 
1 0 1:-0.940594 2:-1 3:-1 
1 0 1:-0.960396 2:-1 3:-1 
1 0 1:-0.960396 2:-1 3:-1 
1 0 1:-0.940594 2:-1 3:-1 
1 0 1:-0.940594 2:-1 3:-1 
1 0 1:-0.940594 2:-1 3:-1 
1 0 1:-0.960396 2:-1 3:-1 
1 0 1:-0.861386 2:-1 3:-1 
1 0 1:-0.960396 2:-1 3:-1 
1 0 1:-0.960396 2:-1 3:-1 
1 0 1:-0.841584 2:-1 3:-1 
1 0 1:-0.940594 2:-1 3:-1 
1 0 1:-0.960396 2:-1 3:-1 
1 0 1:-0.920792 2:-1 3:-0.770492 
1 0 1:-0.643564 2:-0.142857 3:-0.901639 
1 0 1:-0.821782 2:-0.836735 3:-0.934426 
1 0 1:-0.940594 2:-1 3:-1 
1 0 1:-0.960396 2:-1 3:-1 
1 0 1:-1 2:-1 3:-1 
1 0 1:-0.861386 2:-0.918367 3:-1 
1 0 1:-0.940594 2:-1 3:-1 
1 0 1:-0.663366 2:-1 3:-1 
1 0 1:-0.920792 2:-1 3:-1 
1 0 1:-0.960396 2:-1 3:-1 
1 0 1:-0.960396 2:-1 3:-1 
1 0 1:-0.920792 2:-1 3:-0.770492 
1 0 1:-0.920792 2:-1 3:-0.967213 
1 0.03718632233149469 1:-0.90099 2:-0.877551 3:-0.836066 
1 0 1:-0.940594 2:-0.918367 3:-1 
1 0 1:-0.940594 2:-1 3:-1 
1 0 1:-0.940594 2:-1 3:-1 
1 0 1:-0.920792 2:-1 3:-0.934426 
1 0 1:-0.70297 2:-1 3:-0.803279 
1 0 1:-0.782178 2:-0.877551 3:-1 
1 0 1:-0.782178 2:-1 3:-1 
1 0.08295891243304769 1:-0.940594 2:-0.918367 3:-0.770492 
1 0 1:-0.821782 2:-1 3:-1 
1 0 1:-0.881188 2:-0.795918 3:-1 
1 0 1:-0.940594 2:-1 3:-1 
1 0 1:-0.940594 2:-0.428571 3:-0.540984 
1 0 1:-0.920792 2:-1 3:-1 
1 0 1:-0.940594 2:-1 3:-1 
1 0 1:-0.960396 2:-1 3:-1 
1 0 1:-0.762376 2:-1 3:-1 
1 0 1:-0.841584 2:-0.591837 3:-1 
1 0 1:-0.940594 2:-1 3:-1 
1 0 1:-0.663366 2:-0.755102 3:-1 
1 0 1:-0.861386 2:-1 3:-0.803279 
1 0 1:-0.920792 2:-1 3:-1 
1 0 1:-0.940594 2:-1 3:-1 
1 0 1:-0.841584 2:-0.836735 3:-1 
1 0 1:-0.940594 2:-1 3:-1 
1 0 1:-0.940594 2:-1 3:-1 
1 0 1:-1 2:-1 3:-1 
1 0 1:-0.80198 2:-1 3:-0.770492 
1 0 1:-0.881188 2:-1 3:-1 
1 0 1:-0.920792 2:-1 3:-1 
1 0 1:-0.90099 2:-1 3:-1 
1 0 1:-0.683168 2:-1 3:-1 
1 0 1:-0.940594 2:-1 3:-1 
1 0 1:-0.980198 2:-1 3:-1 
1 0 1:-0.90099 2:-1 3:-1 
1 0 1:-0.960396 2:-1 3:-1 
1 0 1:-0.623762 2:-1 3:-0.704918 
1 0 1:-0.70297 2:-0.918367 3:-0.868852 
1 0 1:-0.960396 2:-1 3:-1 
1 0 1:-0.861386 2:-0.836735 3:-0.672131 
1 0 1:-0.742574 2:-1 3:-0.934426 
1 0 1:-0.80198 2:-1 3:-0.868852 
1 0 1:-0.524752 2:-1 3:-1 
1 0 1:-0.524752 2:-1 3:-1 
1 0 1:-0.722772 2:-0.755102 3:-1 
1 0 1:-0.960396 2:-1 3:-1 
1 0 1:-0.683168 2:-0.755102 3:-0.639344 
1 0 1:-0.70297 2:-1 3:-0.704918 
1 0 1:-0.920792 2:-1 3:-1 
1 0 1:-0.90099 2:-1 3:-1 
1 0 1:-0.881188 2:-1 3:-0.737705 
1 0 1:-0.584158 2:-0.306122 3:-0.868852 
1 0 1:-0.584158 2:-1 3:-0.901639 
1 0 1:-0.881188 2:-1 3:-1 
1 1 1:-0.821782 2:-0.877551 3:-0.934426 
1 0 1:-0.940594 2:-1 3:-1 
1 0 1:-0.663366 2:-1 3:-1 
1 0 1:-0.960396 2:-1 3:-1 
1 0 1:-0.920792 2:-1 3:-1 
1 0 1:-0.722772 2:-1 3:-0.967213 
1 0 1:-0.960396 2:-1 3:-1 
1 0 1:-0.841584 2:-1 3:-1 
1 0 1:-0.841584 2:-1 3:-1 
1 0 1:-0.782178 2:-1 3:-1 
1 0 1:-0.920792 2:-0.673469 3:-1 
1 0 1:-0.881188 2:-0.795918 3:-1 
1 0 1:-0.841584 2:-1 3:-0.737705 
1 0 1:-0.980198 2:-1 3:-1 
1 0 1:-0.861386 2:-1 3:-1 
1 0 1:-0.960396 2:-1 3:-1 
1 0 1:-0.940594 2:-1 3:-1 
1 0 1:-0.960396 2:-1 3:-1 
1 0 1:-0.960396 2:-1 3:-1 
1 0 1:-0.742574 2:-1 3:-0.901639 
1 0 1:-0.881188 2:-1 3:-0.967213 
1 0 1:-0.80198 2:-1 3:-1 
1 0 1:-0.960396 2:-1 3:-1 
1 0 1:-0.920792 2:-1 3:-1 
1 0 1:-0.821782 2:-1 3:-0.737705 
1 0 1:-0.940594 2:-1 3:-1 
1 0 1:-0.960396 2:-1 3:-1 
1 0 1:-0.940594 2:-1 3:-1 
1 0 1:-0.940594 2:-1 3:-1 
1 0 1:-0.524752 2:-0.959184 3:-1 
1 0 1:-0.722772 2:-1 3:-0.737705 
1 0 1:-0.782178 2:-0.673469 3:-0.836066 
1 0 1:-0.940594 2:-1 3:-1 
1 0 1:-1 2:-1 3:-1 
1 0 1:-0.960396 2:-0.918367 3:-1 
1 0 1:-0.940594 2:-1 3:-1 
1 1 1:-0.861386 2:-0.55102 3:-0.934426 
1 0 1:-0.920792 2:-0.591837 3:-0.967213 
1 0 1:-0.960396 2:-1 3:-1 
1 0 1:-0.90099 2:-1 3:-1 
1 0 1:-0.940594 2:-1 3:-1 
1 0 1:-0.821782 2:-1 3:-0.934426 
1 0 1:-0.980198 2:-1 3:-0.901639 
1 0 1:-0.722772 2:-1 3:-1 
1 0 1:-0.821782 2:-1 3:-0.934426 
1 0 1:-0.80198 2:-1 3:-1 
1 0 1:-0.980198 2:-1 3:-1 
1 0 1:-0.940594 2:-0.673469 3:-1 
1 0 1:-0.485149 2:-0.877551 3:-0.836066 
1 0 1:-0.90099 2:-1 3:-1 
1 0 1:-0.821782 2:-0.673469 3:-0.868852 
1 1 1:-0.821782 2:-1 3:-0.508197 
1 0 1:-0.841584 2:-1 3:-0.868852 
1 0 1:-0.920792 2:-1 3:-1 
1 0 1:-0.881188 2:-1 3:-0.967213 
1 0 1:-0.821782 2:-1 3:-1 
1 0 1:-0.881188 2:-0.918367 3:-1 
1 0 1:-0.920792 2:-1 3:-0.901639 
1 0 1:-0.861386 2:-0.714286 3:-0.967213 
1 0 1:-0.920792 2:-1 3:-1 
1 0 1:-0.90099 2:-1 3:-0.836066 
1 0 1:-0.90099 2:-1 3:-1 
1 0 1:-0.940594 2:-1 3:-1 
1 0 1:-0.564356 2:-1 3:-1 
1 0 1:-1 2:-1 3:-1 
1 0 1:-1 2:-1 3:-1 
1 0 1:-0.90099 2:-0.918367 3:-0.868852 
1 0 1:-0.762376 2:-0.836735 3:-0.770492 
1 0 1:-0.960396 2:-1 3:-1 
1 0 1:-0.960396 2:-1 3:-1 
1 0 1:-0.920792 2:-0.836735 3:-0.901639 
1 0 1:-0.821782 2:-1 3:-1 
1 0 1:-0.920792 2:-1 3:-0.967213 
1 0 1:-0.940594 2:-1 3:-1 
1 0 1:-0.920792 2:-1 3:-1 
1 0 1:-0.920792 2:-1 3:-1 
1 0 1:-0.168317 2:-0.795918 3:-0.967213 
1 0 1:-0.920792 2:-0.836735 3:-0.704918 
1 0 1:-0.960396 2:-1 3:-1 
1 0 1:-0.940594 2:-1 3:-1 
1 0 1:-0.742574 2:-1 3:-0.934426 
1 0 1:-0.940594 2:-1 3:-1 
1 0 1:-0.841584 2:-0.836735 3:-0.770492 
1 0 1:-0.346535 2:-0.836735 3:-1 
1 0 1:-0.861386 2:-1 3:-1 
1 0 1:-0.762376 2:-1 3:-1 
1 0 1:-0.940594 2:-1 3:-1 
1 0 1:-0.940594 2:-1 3:-1 
1 0 1:-0.960396 2:-0.918367 3:-1 
1 0.01087722708320165 1:-0.821782 2:-0.632653 3:-1 
1 0 1:-0.960396 2:-1 3:-1 
1 0 1:-0.762376 2:-1 3:-1 
1 0 1:-0.940594 2:-1 3:-1 
1 0 1:-0.762376 2:-1 3:-1 
1 0 1:0.029703 2:-1 3:-0.967213 
1 0 1:-0.80198 2:-0.959184 3:-1 
1 0 1:-0.623762 2:-1 3:-0.868852 
1 0 1:-0.940594 2:-1 3:-1 
1 0 1:-0.90099 2:-1 3:-1 
1 0.04211685340748976 1:-0.920792 2:-0.510204 3:-0.934426 
1 0 1:-0.960396 2:-1 3:-1 
1 0 1:-0.881188 2:-0.877551 3:-1 
1 0 1:-0.940594 2:-1 3:-1 
1 0 1:-0.881188 2:-1 3:-1 
1 0 1:-0.861386 2:-1 3:-0.967213 
1 0 1:-0.960396 2:-1 3:-1 
1 0 1:-0.960396 2:-1 3:-1 
1 0 1:-0.940594 2:-1 3:-1 
1 0 1:-0.90099 2:-1 3:-1 
1 0 1:-1 2:-1 3:-1 
1 1 1:-0.782178 2:-0.714286 3:-1 
1 0 1:-0.980198 2:-1 3:-1 
1 0 1:-0.861386 2:-1 3:-1 
1 0 1:-0.940594 2:-1 3:-1 
1 0 1:-0.90099 2:-0.918367 3:-1 
1 0 1:-0.960396 2:-1 3:-1 
1 0 1:-0.940594 2:-1 3:-1 
1 0 1:-0.762376 2:-1 3:-0.868852 
1 0 1:-1 2:-1 3:-1 
1 0 1:-0.465347 2:-0.918367 3:-1 
1 0 1:-0.841584 2:-1 3:-0.836066 
1 0 1:-0.742574 2:-1 3:-0.803279 
1 0 1:-0.920792 2:-1 3:-1 
1 0 1:-0.623762 2:-0.836735 3:-0.934426 
