svm_type c_svc
kernel_type rbf
gamma 0.5
nr_class 3
total_sv 20653
rho -0.699166 -1.01158 -1.01261
label 1 -1 0
nr_sv 9875 9844 934
SV
1 0 
1 0 0:0.0990099 1:0.0612245 2:0.0491803 
1 0 
1 0 0:0.19802 
1 0 0:0.039604 2:0.0491803 
1 0 0:0.0693069 2:0.0327869 
1 0 0:0.0792079 1:0.326531 2:0.0327869 
1 0 0:0.0792079 1:0.0408163 
1 0 0:0.029703 2:0.0327869 
1 0 0:0.0594059 
1 0 
1 0 0:0.029703 2:0.0655738 
1 0 0:0.049505 
1 0 0:0.118812 
1 1 0:0.0792079 1:0.142857 2:0.0163934 
1 0 0:0.237624 1:0.0408163 2:0.0819672 
1 0 0:0.0693069 2:0.114754 
1 0 0:0.049505 
1 0 0:0.0990099 2:0.114754 
1 0 0:0.049505 
1 0 0:0.039604 2:0.0327869 
1 0 0:0.049505 
1 0 0:0.0693069 
1 0 0:0.039604 2:0.0163934 
1 0 0:0.138614 1:0.0816327 2:0.0819672 
1 0 0:0.0693069 
1 0 0:0.138614 
1 0 0:0.039604 1:0.142857 2:0.0163934 
1 0 0:0.217822 2:0.0163934 
1 0 0:0.118812 
0.5872980418660458 0 0:0.019802 
1 0 0:0.0792079 2:0.0327869 
1 0 0:0.148515 1:0.0612245 2:0.131148 
1 0 0:0.0990099 1:0.163265 
1 0 0:0.019802 
1 0 0:0.039604 1:0.0408163 
1 0 0:0.0693069 
1 0 0:0.168317 
1 0 0:0.0594059 
1 0 0:0.0594059 
1 0 0:0.148515 1:0.0408163 2:0.0655738 
1 0 0:0.00990099 2:0.0327869 
1 0 0:0.0693069 2:0.0163934 
1 0 0:0.0891089 2:0.213115 
1 0 0:0.0792079 1:0.326531 2:0.0327869 
1 0 0:0.019802 
1 0 0:0.029703 1:0.22449 
1 0 0:0.019802 
1 0 0:0.455446 2:0.0327869 
1 0 0:0.00990099 
1 0 0:0.0990099 1:0.244898 
1 0 0:0.257426 
1 0 0:0.148515 2:0.0655738 
1 0 0:0.019802 
1 0 0:0.19802 2:0.163934 
1 0 0:0.128713 1:0.0408163 2:0.0655738 
1 0 0:0.049505 
1 0 0:0.138614 1:0.0408163 2:0.0819672 
1 0 0:0.425743 1:0.0204082 
1 0 0:0.029703 1:0.0204082 2:0.0983607 
1 0 0:0.0792079 2:0.0819672 
1 0 0:0.0990099 2:0.0655738 
1 0 0:0.0693069 
1 0 0:0.029703 1:0.122449 
1 0 0:0.0990099 2:0.0163934 
1 0 0:0.0594059 
1 0 0:0.0792079 2:0.0163934 
1 0 0:0.039604 
1 0.04299858993562777 0:0.039604 2:0.180328 
1 0 0:0.0891089 1:0.0408163 2:0.0491803 
1 0 0:0.0693069 1:0.142857 
1 0 0:0.039604 2:0.0655738 
1 0 0:0.0693069 
1 0 0:0.108911 
1 0 0:0.158416 1:0.0816327 2:0.0491803 
1 0.03374370455466597 0:0.0594059 1:0.469388 
1 0 0:0.019802 
1 0 0:0.039604 2:0.0327869 
1 0 0:0.148515 
1 0 0:0.108911 2:0.0655738 
1 0 0:0.029703 1:0.0612245 
1 0 0:0.148515 
1 0 0:0.108911 2:0.0491803 
1 0 0:0.049505 
1 0 0:0.039604 
1 0 0:0.178218 1:0.0408163 2:0.114754 
1 0 0:0.019802 
1 0 
1 0 0:0.039604 1:0.0408163 2:0.0327869 
1 0 0:0.039604 
1 0 2:0.0163934 
1 0 0:0.039604 
1 0 0:0.128713 1:0.0204082 2:0.114754 
1 0 0:0.0594059 1:0.0408163 2:0.0655738 
1 0 0:0.148515 2:0.180328 
1 0 0:0.158416 
1 0 0:0.0693069 
1 0 0:0.0693069 
1 0 0:0.118812 1:0.244898 2:0.114754 
1 0 0:0.0594059 1:0.142857 2:0.0327869 
1 0 0:0.00990099 
1 0 0:0.168317 
1 0 0:0.0693069 1:0.0408163 2:0.0327869 
1 0 0:0.0594059 
1 0 0:0.128713 1:0.285714 
1 0 0:0.0792079 
1 0 
1 0 
1 0 
1 0 
1 0 0:0.019802 
1 0 0:0.0990099 1:0.183673 
1 0 0:0.138614 
1 0 0:0.019802 1:0.0816327 2:0.0983607 
1 0 0:0.0891089 
1 0 0:0.019802 
1 0 0:0.019802 
1 0 0:0.019802 
1 0 0:0.128713 1:0.0204082 2:0.0163934 
1 0 0:0.108911 
1 0 0:0.118812 1:0.0204082 2:0.0819672 
1 0 0:0.0792079 1:0.0408163 2:0.131148 
1 0 0:0.00990099 
1 0 0:0.138614 2:0.0491803 
1 0 0:0.108911 1:0.102041 2:0.0327869 
1 0 0:0.0693069 1:0.0816327 2:0.0491803 
1 0 
1 0 
1 0 
1 0 
1 0 
1 0 0:0.039604 
1 0 0:0.0693069 1:0.0408163 
1 0 0:0.019802 
1 0 0:0.049505 
1 0 0:0.0990099 
1 0 0:0.0594059 2:0.0327869 
1 0 0:0.019802 
1 0 0:0.019802 
1 0 0:0.019802 
1 0 0:0.029703 2:0.0163934 
1 0.01853781197992963 0:0.217822 1:0.244898 2:0.0819672 
1 0 0:0.019802 
1 0 0:0.138614 1:0.102041 2:0.0655738 
1 0 0:0.019802 
1 0 0:0.0792079 1:0.0408163 2:0.0819672 
1 0 0:0.277228 1:0.265306 
1 0 0:0.118812 1:0.0204082 
1 0 0:0.19802 
1 0 0:0.039604 2:0.0327869 
1 0 0:0.019802 
1 0 0:0.287129 
1 0 0:0.019802 
1 0 
1 0 
1 0 0:0.029703 2:0.0327869 
1 0 
1 0 0:0.019802 
1 0 
1 0 0:0.0891089 1:0.0612245 
1 0 0:0.049505 
1 0 0:0.019802 1:0.0408163 
1 0 0:0.029703 2:0.0327869 
1 0 0:0.108911 1:0.0612245 2:0.0819672 
1 0 0:0.0693069 2:0.0163934 
1 0 0:0.0990099 1:0.244898 2:0.0983607 
1 0 0:0.039604 
1 0 0:0.049505 
1 0 0:0.019802 
1 0 0:0.039604 
1 0 0:0.0693069 2:0.0163934 
1 0 0:0.039604 1:0.0408163 2:0.0983607 
1 0 0:0.019802 
1 0 0:0.019802 
1 0 0:0.019802 
1 0 0:0.049505 
1 0 0:0.019802 
1 0 0:0.0594059 
1 0 0:0.039604 
1 0 0:0.0990099 
1 0 0:0.0693069 1:0.0408163 
1 0 0:0.0594059 1:0.0204082 2:0.0327869 
1 0 0:0.049505 
1 0 0:0.039604 
1 0 0:0.039604 
1 0 0:0.118812 
1 0 0:0.118812 
1 0 0:0.00990099 2:0.0491803 
1 0 0:0.128713 2:0.0491803 
1 0 0:0.0594059 1:0.0408163 
1 0 0:0.049505 
1 0 0:0.049505 
1 0 0:0.00990099 
1 0 0:0.0594059 1:0.0816327 
1 0 0:0.049505 
1 0 0:0.039604 
1 0 0:0.019802 
1 0 0:0.138614 1:0.183673 
1 0 0:0.049505 1:0.0408163 2:0.0163934 
1 0 0:0.188119 2:0.0327869 
1 0 0:0.178218 2:0.0163934 
1 0 0:0.623762 
1 0.04524840350146739 0:0.0693069 1:0.102041 2:0.0983607 
1 0 0:0.108911 1:0.0816327 
1 0 0:0.039604 1:0.0204082 
1 0 0:0.168317 1:0.0204082 
1 0 0:0.019802 
1 0 0:0.148515 
1 0 0:0.0891089 2:0.131148 
1 0 0:0.019802 
1 0 0:0.039604 
1 0 0:0.039604 
1 0 0:0.019802 
1 0 0:0.188119 2:0.114754 
1 0 0:0.118812 2:0.0983607 
1 0 0:0.257426 1:0.306122 2:0.0491803 
1 0 0:0.019802 
1 0 0:0.0594059 1:0.102041 2:0.0163934 
1 0 0:0.039604 2:0.0327869 
1 0 0:0.0990099 
1 0 0:0.217822 2:0.0327869 
1 0 0:0.128713 
1 0 0:0.0990099 1:0.122449 2:0.0163934 
1 0 0:0.019802 
1 0 0:0.039604 2:0.0655738 
1 0 0:0.00990099 
1 0 0:0.039604 2:0.0163934 
1 0 0:0.029703 
1 0 0:0.0792079 1:0.0408163 
1 0 
1 0 0:0.019802 
1 0 0:0.29703 1:0.0612245 
1 0 0:0.019802 
1 0 0:0.19802 2:0.0655738 
1 0 0:0.0891089 
1 0 0:0.019802 
1 0 0:0.118812 1:0.0612245 2:0.0655738 
1 0 
1 0 0:0.0594059 2:0.0491803 
1 0 0:0.128713 1:0.0612245 2:0.0983607 
1 0 0:0.039604 
1 0 0:0.039604 
1 0 0:0.0693069 
1 0 0:0.227723 1:0.0612245 2:0.0327869 
1 0 0:0.049505 
1 0 0:0.029703 
1 0 0:0.049505 
1 0 0:0.039604 
1 0 0:0.19802 
1 0 0:0.0891089 2:0.147541 
1 0 
1 0 0:0.019802 
1 0 0:0.049505 
1 0 0:0.128713 2:0.0491803 
1 0 
1 0 0:0.376238 1:0.346939 
1 0 0:0.019802 
1 0 0:0.039604 
1 0 
1 0 0:0.039604 
1 0 0:0.0594059 1:0.0204082 
1 0 0:0.336634 1:0.0204082 2:0.0655738 
1 0 0:0.039604 
1 0 0:0.029703 
1 0 0:0.0693069 
1 0 0:0.158416 2:0.0491803 
1 0 
1 0 0:0.039604 1:0.0204082 
1 0 0:0.207921 
1 0 0:0.019802 
1 0 0:0.049505 
1 0 0:0.138614 2:0.0327869 
1 0 0:0.118812 
1 0 0:0.049505 
1 0 0:0.039604 
0.9443660596556054 0 0:0.366337 1:0.285714 
1 0 0:0.029703 
1 0 0:0.029703 
1 0 0:0.158416 1:0.0204082 
1 0 0:0.0990099 1:0.122449 2:0.131148 
1 0 0:0.039604 
1 0 0:0.386139 2:0.0655738 
1 0 0:0.029703 
1 0 0:0.039604 
1 0 0:0.019802 
1 0 0:0.0594059 
1 0 0:0.00990099 
1 0 0:0.019802 
1 0 0:0.019802 
1 0 0:0.118812 2:0.0163934 
1 0 0:0.029703 
1 0 
1 0 0:0.178218 1:0.22449 
1 0 0:0.019802 
1 0 0:0.029703 
1 0 0:0.0990099 1:0.0204082 2:0.0327869 
1 0 0:0.039604 
1 0 0:0.019802 
1 0 0:0.316832 1:0.122449 
1 0 0:0.029703 
1 0.01762478244212461 0:0.108911 1:0.367347 2:0.0163934 
1 0 0:0.128713 1:0.0204082 
1 0.02790789731088901 0:0.039604 1:0.183673 2:0.0819672 
1 0 0:0.029703 
1 0 0:0.019802 
1 0 0:0.039604 1:0.0204082 
1 0 0:0.108911 
1 0 0:0.108911 2:0.0655738 
1 0 0:0.118812 
1 0 0:0.0693069 2:0.0163934 
1 0 0:0.029703 
1 0 0:0.0594059 1:0.0408163 
1 0 0:0.029703 
1 0 0:0.039604 
1 0 0:0.19802 
1 0 0:0.0891089 
1 0 0:0.0693069 1:0.0612245 2:0.229508 
1 0 0:0.138614 2:0.0327869 
1 0 0:0.00990099 2:0.0491803 
1 0 0:0.029703 
1 0 0:0.019802 2:0.0163934 
1 0 0:0.0792079 2:0.0327869 
1 0 0:0.00990099 
1 1 0:0.0990099 1:0.122449 2:0.0655738 
1 0 0:0.049505 2:0.0163934 
1 0 
1 0 0:0.0792079 
1 0 0:0.168317 
1 0 0:0.0990099 2:0.0327869 
1 0 0:0.178218 
1 0 0:0.019802 
1 0 0:0.534653 1:0.306122 
1 0.02753498913736163 1:0.0816327 2:0.0655738 
1 0 0:0.029703 
1 0 0:0.0891089 2:0.0655738 
1 0 0:0.039604 2:0.0819672 
1 0 0:0.128713 
1 0 0:0.158416 1:0.0612245 2:0.0491803 
1 0 0:0.029703 
1 0 0:0.148515 
1 0 0:0.128713 
1 0 0:0.019802 
1 0 0:0.029703 
1 0 0:0.326733 
1 0 0:0.019802 
1 0 0:0.247525 1:0.142857 
1 0 0:0.257426 1:0.142857 
1 0 0:0.029703 
1 0 0:0.118812 1:0.142857 
1 0 0:0.049505 
1 0 0:0.019802 
1 0 0:0.029703 
1 0 0:0.029703 
1 0 0:0.019802 
1 0 0:0.019802 
1 0 0:0.138614 1:0.0408163 2:0.0819672 
1 0 0:0.0990099 2:0.0327869 
1 0 0:0.029703 
1 0 0:0.0594059 2:0.0163934 
1 0 0:0.049505 
1 0 0:0.118812 
1 0 0:0.168317 
1 0 0:0.029703 
1 0 0:0.158416 1:0.204082 2:0.0327869 
1 0 0:0.0594059 1:0.0612245 2:0.0163934 
1 0 0:0.019802 
1 0 
1 0 
1 0 
1 0 0:0.019802 
1 0 0:0.0792079 1:0.102041 2:0.0819672 
1 0 0:0.019802 
1 0 0:0.0594059 
1 0 0:0.029703 
1 0 0:0.019802 
1 0 0:0.138614 
1 0 0:0.039604 1:0.0408163 2:0.0819672 
1 0 0:0.108911 2:0.0163934 
1 0 0:0.039604 
1 0 0:0.0792079 2:0.0327869 
1 0 0:0.148515 1:0.0204082 2:0.0655738 
1 0 0:0.019802 
1 0 0:0.049505 2:0.0327869 
1 0 0:0.217822 
1 0 0:0.029703 
1 0 0:0.019802 
1 0 0:0.039604 
1 0 0:0.227723 1:0.204082 2:0.0819672 
1 0 0:0.168317 1:0.163265 
1 0 0:0.029703 2:0.0163934 
1 0 0:0.0891089 
1 0 0:0.019802 
1 0 0:0.019802 
1 0 0:0.029703 
1 0 0:0.039604 
1 0 0:0.029703 
1 0 0:0.049505 1:0.0204082 2:0.0163934 
1 0 0:0.029703 
1 0 0:0.029703 
1 0 0:0.029703 
1 0 0:0.029703 
1 0 0:0.019802 
1 0 0:0.0990099 
1 0 
1 0 0:0.0693069 
1 0 0:0.029703 
1 0 0:0.049505 
1 0 0:0.128713 1:0.163265 
1 0 0:0.019802 2:0.0327869 
1 0 0:0.019802 
1 0 0:0.019802 
1 0 0:0.039604 
1 0 0:0.019802 
1 0 0:0.138614 1:0.0204082 2:0.0327869 
1 0 0:0.039604 
1 0 0:0.118812 2:0.0655738 
1 0 0:0.0990099 2:0.0819672 
1 0 0:0.118812 
1 0 0:0.257426 1:0.0408163 
1 0 0:0.178218 1:0.0816327 
1 0 0:0.029703 
1 0 0:0.029703 
1 0 0:0.019802 
1 0 0:0.217822 1:0.0408163 2:0.0655738 
1 0 0:0.039604 
1 0 0:0.029703 
1 0 0:0.0891089 
1 0 0:0.029703 2:0.0163934 
1 0 0:0.039604 1:0.122449 2:0.0491803 
1 0 0:0.0792079 
1 0 0:0.039604 
1 0 0:0.158416 2:0.0327869 
1 0 0:0.0594059 
1 0 0:0.049505 
1 0 0:0.019802 1:0.0204082 2:0.0491803 
1 0 0:0.0594059 1:0.0408163 
1 0 0:0.039604 1:0.0408163 
1 0 0:0.019802 
1 0 0:0.0792079 
1 0 0:0.049505 1:0.0408163 2:0.0655738 
1 0 0:0.158416 2:0.0163934 
1 0 0:0.039604 
1 0 0:0.049505 
1 0 0:0.029703 
1 0 0:0.0693069 1:0.0204082 
1 0 0:0.039604 
1 0 0:0.019802 
1 0 0:0.019802 
1 0 0:0.0792079 1:0.0408163 
1 0 0:0.029703 1:0.0612245 2:0.114754 
1 0 0:0.019802 
1 0 0:0.0990099 2:0.0491803 
1 0 
1 0 0:0.0693069 1:0.0408163 2:0.0983607 
1 0 0:0.049505 2:0.0163934 
1 0.028105917184683 0:0.0990099 1:0.122449 2:0.114754 
1 0 0:0.019802 
1 0 0:0.029703 2:0.0163934 
1 0 0:0.0693069 2:0.114754 
1 0 0:0.029703 
1 1 0:0.049505 1:0.102041 
1 0 0:0.039604 
1 0 0:0.019802 
1 0 0:0.039604 
1 0 0:0.029703 
1 0 0:0.00990099 
1 0 0:0.049505 2:0.0327869 
1 0 0:0.168317 
1 0 0:0.0594059 
1 0 0:0.0594059 
1 0 0:0.019802 
1 0 0:0.029703 
1 0 0:0.108911 2:0.0163934 
1 0 0:0.019802 
1 0 0:0.019802 
1 0 0:0.148515 1:0.183673 
1 0 0:0.0792079 
1 0 0:0.029703 1:0.0408163 
1 0 0:0.019802 
1 0 0:0.148515 1:0.0816327 2:0.0163934 
1 0 0:0.029703 
1 0 0:0.049505 
1 0 0:0.039604 
1 0 0:0.0792079 
1 0 0:0.019802 1:0.142857 2:0.0327869 
1 0 0:0.039604 2:0.0491803 
1 0 
1 0 0:0.029703 2:0.0163934 
1 0 0:0.237624 2:0.0163934 
1 0 0:0.029703 
1 0 0:0.019802 
1 0 0:0.029703 
1 0 0:0.029703 1:0.0408163 
1 0 0:0.029703 
1 0 0:0.019802 
1 0 0:0.267327 1:0.0408163 
1 0 0:0.128713 1:0.102041 2:0.0491803 
1 0 0:0.0891089 
1 0 
1 0 0:0.0792079 1:0.0612245 2:0.180328 
1 0 0:0.049505 1:0.0408163 2:0.0163934 
1 0 0:0.19802 
1 1 0:0.316832 1:0.122449 2:0.0327869 
1 0 0:0.376238 1:0.122449 2:0.0327869 
1 0 0:0.049505 
1 0 0:0.019802 
1 0 0:0.346535 
1 1 0:0.138614 1:0.183673 
1 0 0:0.0594059 
1 0 0:0.0594059 1:0.0408163 
1 0 0:0.158416 1:0.122449 
0.01436901983492317 0 0:0.0990099 1:0.0408163 2:0.0819672 
1 0 0:0.118812 1:0.0408163 
1 0 0:0.029703 1:0.0408163 
1 0 0:0.019802 
1 0 0:0.019802 1:0.0204082 
1 0 0:0.019802 
1 0 0:0.108911 1:0.122449 2:0.0819672 
1 0 0:0.049505 
1 0 0:0.178218 
1 0 0:0.0891089 2:0.0655738 
1 0 0:0.029703 
1 0 
1 0 0:0.029703 
1 0 0:0.019802 
1 0 0:0.019802 
1 0 0:0.0693069 2:0.0163934 
1 0 0:0.049505 
1 0 0:0.108911 1:0.204082 2:0.229508 
1 0 0:0.029703 
1 0 0:0.108911 1:0.0408163 2:0.0819672 
1 0 0:0.19802 1:0.204082 2:0.0163934 
1 0 0:0.0891089 2:0.0655738 
1 0 0:0.178218 
1 0 0:0.029703 
1 0 0:0.108911 2:0.0327869 
1 0 0:0.19802 1:0.326531 
1 0 0:0.0594059 
1 0 0:0.128713 1:0.102041 
1 0 0:0.207921 1:0.0612245 2:0.0491803 
1 0 0:0.0594059 1:0.0408163 
1 0 0:0.257426 2:0.0491803 
1 0 0:0.029703 
1 0 0:0.039604 
1 0 0:0.0594059 2:0.0819672 
1 0 0:0.019802 
1 0 0:0.049505 
1 1 0:0.039604 1:0.0204082 2:0.147541 
1 0 0:0.049505 
1 0 0:0.039604 
1 0 
1 0 0:0.0693069 
1 0 0:0.039604 1:0.142857 
1 0 0:0.029703 
1 0 0:0.029703 2:0.0655738 
1 0 0:0.019802 1:0.122449 
1 0 0:0.029703 
1 0 0:0.0792079 1:0.0612245 2:0.0655738 
1 0 0:0.019802 
1 0 0:0.118812 
1 0 0:0.0792079 2:0.0655738 
1 0 0:0.019802 2:0.0327869 
1 0 0:0.0792079 
1 0 0:0.267327 1:0.0408163 
1 0 0:0.029703 
1 0 0:0.0594059 
1 0 0:0.108911 2:0.0819672 
1 0 0:0.128713 2:0.0327869 
1 0 0:0.029703 
1 0 0:0.138614 1:0.122449 
1 0 0:0.108911 
1 0 0:0.039604 1:0.0408163 2:0.0491803 
1 0 0:0.128713 
1 0 0:0.188119 1:0.122449 
1 0 0:0.029703 
1 0 0:0.029703 
1 0 0:0.049505 
1 0 0:0.158416 2:0.0655738 
1 0 0:0.0891089 2:0.114754 
1 0 0:0.108911 1:0.0204082 
1 0 0:0.00990099 
1 0 0:0.029703 
1 0.79266619334461 0:0.039604 2:0.295082 
1 0 0:0.118812 
1 0 0:0.326733 
1 0 0:0.00990099 
1 0 0:0.039604 
1 0 0:0.158416 
1 0 0:0.0594059 2:0.114754 
1 0 0:0.029703 
1 0 0:0.0594059 2:0.147541 
1 0 0:0.118812 2:0.0163934 
1 0 0:0.0693069 
1 0 0:0.0693069 
1 0 0:0.049505 
1 0 0:0.0891089 2:0.131148 
1 0 0:0.039604 2:0.0327869 
1 0 0:0.039604 
1 1 0:0.0594059 2:0.163934 
1 0 0:0.039604 
1 0 0:0.039604 
1 0.4925456198886979 0:0.554455 1:0.163265 2:0.0163934 
1 0 0:0.00990099 
1 0 0:0.128713 
1 0 
1 0 
1 1 0:0.049505 1:0.102041 2:0.0983607 
1 0 0:0.0990099 1:0.102041 2:0.147541 
1 0 0:0.0891089 2:0.0655738 
1 0 0:0.178218 
1 0 0:0.0792079 1:0.0408163 2:0.0655738 
1 0 0:0.039604 
1 0 0:0.19802 1:0.204082 2:0.0327869 
1 0 0:0.207921 1:0.0408163 
1 0 0:0.0990099 2:0.114754 
1 0 0:0.0594059 
1 0 0:0.019802 
1 0 0:0.029703 1:0.0408163 
1 0 0:0.0693069 1:0.0408163 
1 0 0:0.029703 
1 0 0:0.039604 
1 0 0:0.029703 
1 0 0:0.039604 
1 0 0:0.019802 
1 0 0:0.049505 
1 0 0:0.049505 
1 0 0:0.118812 1:0.265306 
1 0 0:0.029703 
1 0 0:0.108911 1:0.102041 2:0.0819672 
1 0 0:0.029703 
1 0 0:0.188119 2:0.0327869 
1 0 0:0.039604 2:0.0163934 
1 0 0:0.039604 
1 0 0:0.039604 
1 0 0:0.029703 
1 0 0:0.0792079 1:0.0408163 
1 0 0:0.0990099 
1 0 0:0.188119 
1 0 0:0.0792079 1:0.0612245 
1 0 0:0.039604 
1 0 0:0.029703 2:0.0819672 
1 0 0:0.029703 
1 0 0:0.039604 
1 0 0:0.019802 
1 0 0:0.039604 
1 0 0:0.049505 
1 0 0:0.0891089 1:0.102041 
1 0 0:0.019802 
1 0 0:0.108911 2:0.0819672 
1 0 0:0.227723 2:0.0491803 
1 0 0:0.029703 
1 0 0:0.148515 2:0.0327869 
1 0 0:0.019802 
1 0 0:0.019802 
1 0 0:0.029703 2:0.0163934 
1 0 0:0.0891089 2:0.0655738 
1 0 0:0.455446 
1 0 0:0.039604 
1 0 0:0.118812 2:0.0983607 
1 0 0:0.019802 
1 0 0:0.019802 
1 0 0:0.049505 
1 0 
1 0 0:0.108911 
1 0 0:0.0693069 
1 0 0:0.039604 
1 0 0:0.049505 
1 0 0:0.029703 1:0.0816327 2:0.0819672 
1 0 
1 0 0:0.029703 
1 0 0:0.128713 1:0.0204082 
1 0 0:0.019802 
1 0 0:0.049505 
1 0 0:0.138614 2:0.0491803 
1 0 0:0.039604 
1 0 0:0.019802 
1 0 0:0.148515 1:0.326531 2:0.131148 
1 0 
1 0 0:0.217822 
1 0 0:0.019802 
1 0 
1 0 
1 0 
1 0 
1 0 
1 0 0:0.108911 1:0.122449 2:0.0819672 
1 0 0:0.108911 1:0.0204082 
1 0 0:0.029703 
1 0 0:0.039604 
1 0 0:0.019802 
1 0 0:0.0693069 
1 0 0:0.188119 2:0.0163934 
1 0 0:0.0891089 
1 0 0:0.039604 
1 0 0:0.0594059 1:0.0408163 2:0.114754 
1 0 0:0.019802 
1 0 0:0.039604 
1 0 0:0.148515 
1 0 0:0.0594059 
1 0 0:0.039604 
1 0 0:0.019802 
1 0 0:0.0693069 
1 0 0:0.138614 
1 0 0:0.039604 
1 0 0:0.029703 
1 0 0:0.0891089 
1 0 0:0.0891089 2:0.0983607 
1 0 0:0.148515 1:0.0612245 2:0.0819672 
1 0 0:0.029703 
1 0 0:0.019802 1:0.0204082 
1 0 0:0.029703 
1 0 0:0.0891089 
1 0 0:0.029703 1:0.122449 2:0.327869 
1 0 0:0.029703 
1 0 0:0.039604 2:0.0327869 
1 0 0:0.188119 1:0.102041 
1 0 0:0.277228 1:0.0408163 2:0.0819672 
1 0 0:0.019802 1:0.122449 
1 0 0:0.039604 
1 0 0:0.029703 
1 0 0:0.138614 1:0.102041 
1 0 0:0.0990099 
1 0 0:0.019802 
1 0 0:0.029703 
1 0 0:0.029703 2:0.0327869 
1 0 0:0.039604 
1 0 0:0.0792079 1:0.346939 
1 0 0:0.188119 1:0.0612245 
1 0 0:0.0594059 2:0.0655738 
1 0 0:0.039604 
1 0 0:0.039604 1:0.0408163 2:0.0491803 
1 0 0:0.019802 
1 0 0:0.188119 1:0.183673 2:0.0163934 
1 0 0:0.049505 
1 0 0:0.108911 2:0.114754 
1 0 0:0.128713 1:0.22449 2:0.0327869 
1 1 0:0.247525 2:0.114754 
1 0 0:0.029703 
1 0 0:0.019802 
1 0 0:0.178218 1:0.0408163 2:0.0655738 
1 0 0:0.029703 
1 0 0:0.0693069 
1 0 0:0.029703 
1 1 0:0.029703 1:0.0816327 2:0.0655738 
1 0 0:0.0594059 
1 0 0:0.168317 1:0.0612245 2:0.0491803 
1 0 0:0.128713 1:0.0612245 
1 0 0:0.0594059 
1 0 0:0.029703 
1 0 0:0.0693069 
1 0 0:0.039604 2:0.0327869 
1 0 0:0.118812 2:0.163934 
1 0 0:0.0594059 
1 0 0:0.029703 
1 0 
1 0 0:0.039604 
1 0 0:0.029703 
1 0 0:0.178218 1:0.0408163 2:0.0983607 
1 0 0:0.039604 
1 0 0:0.029703 
1 0 0:0.029703 
1 0 0:0.019802 
1 0 0:0.118812 1:0.0408163 2:0.0983607 
1 0 0:0.019802 
1 0 0:0.158416 
1 0 0:0.0990099 2:0.0163934 
1 0 0:0.148515 1:0.0204082 
1 0 0:0.039604 2:0.0163934 
1 0 0:0.118812 1:0.0204082 2:0.0491803 
1 0 0:0.049505 
1 0 0:0.029703 
1 0 0:0.0693069 
1 0 0:0.0990099 1:0.0408163 2:0.0163934 
1 0 0:0.029703 2:0.0163934 
1 0 0:0.019802 
1 0 0:0.029703 
1 0 0:0.0891089 
1 0 0:0.039604 2:0.0327869 
1 0 0:0.0693069 2:0.0491803 
1 0 0:0.049505 
1 0 0:0.019802 
1 0 0:0.019802 2:0.0655738 
1 0 0:0.039604 
1 0 0:0.0891089 1:0.0408163 2:0.0327869 
1 0 0:0.029703 
1 0 0:0.049505 
1 0 0:0.019802 
1 0 0:0.039604 
1 0 0:0.019802 
1 0 0:0.029703 
1 0 0:0.019802 
1 0 0:0.188119 
1 0 0:0.029703 1:0.0408163 2:0.0491803 
1 0 
1 0 
1 0 
1 0 0:0.0594059 1:0.0612245 2:0.0163934 
1 0 0:0.019802 
1 0 0:0.0594059 1:0.0612245 
1 0 0:0.00990099 
1 0 0:0.019802 
1 0 
1 0 0:0.00990099 
1 0 0:0.039604 2:0.0327869 
1 0 0:0.0990099 
1 0 0:0.0891089 2:0.0327869 
1 0 0:0.0891089 2:0.0655738 
1 0 
1 0 
1 0 0:0.029703 
1 0 0:0.00990099 
1 0 0:0.029703 
1 0 0:0.158416 1:0.0204082 2:0.0655738 
1 0 
1 0 0:0.0891089 
1 0 0:0.19802 1:0.163265 
1 0 0:0.029703 
1 0 0:0.019802 2:0.0327869 
1 0 0:0.029703 
1 0 
1 0 0:0.019802 
1 0 0:0.0891089 2:0.0327869 
1 0 0:0.019802 1:0.0816327 
1 0 0:0.376238 1:0.0408163 
1 0 0:0.019802 
1 0 0:0.0792079 
1 0 0:0.207921 2:0.0327869 
1 0 0:0.039604 
1 0 0:0.0990099 1:0.122449 2:0.0491803 
1 0 0:0.19802 
0 0.9797821071806395 0:0.524752 1:0.428571 
1 0 0:0.039604 1:0.122449 
1 0 0:0.049505 
1 0 0:0.039604 
1 0 0:0.0594059 2:0.0491803 
1 0 0:0.039604 
1 0 0:0.0891089 
1 0 0:0.0990099 2:0.0163934 
1 0 0:0.257426 2:0.131148 
1 0 0:0.207921 1:0.204082 
1 0 0:0.118812 
1 0 
1 1 0:0.029703 1:0.0408163 2:0.0327869 
1 0 
1 0 0:0.019802 
1 0 0:0.138614 
1 0 0:0.188119 
1 0 0:0.108911 2:0.0655738 
1 0 0:0.039604 
1 0 0:0.0891089 
1 0 0:0.019802 
1 0 0:0.0792079 
1 0 0:0.148515 2:0.0655738 
1 0 
1 0 0:0.168317 1:0.0204082 2:0.0819672 
1 0 0:0.029703 
1 0 0:0.029703 
1 0 0:0.0990099 
1 0 0:0.148515 
1 0.1009820935946543 0:0.00990099 1:0.285714 
1 0 
1 0 0:0.138614 2:0.0327869 
1 0 0:0.029703 
1 0 0:0.0693069 2:0.0163934 
1 0 0:0.019802 
1 0 0:0.326733 
1 0 0:0.029703 
1 0 0:0.039604 
1 0 0:0.029703 
1 0 0:0.0891089 
1 0 0:0.0891089 1:0.0612245 2:0.0163934 
1 0 0:0.0792079 
1 0 0:0.049505 2:0.0983607 
1 0 0:0.108911 1:0.0204082 2:0.0163934 
1 0 0:0.029703 
1 0 0:0.029703 
1 0 0:0.019802 
1 0 0:0.019802 
1 0 0:0.0792079 
1 0 0:0.207921 1:0.0408163 2:0.0327869 
1 0 0:0.0990099 1:0.0612245 
1 0 0:0.029703 
1 0 0:0.128713 2:0.0655738 
1 0 0:0.019802 
1 0 0:0.049505 
1 0 0:0.019802 
1 0 0:0.207921 2:0.0163934 
1 0 0:0.138614 2:0.0983607 
1 0 0:0.019802 
1 0 0:0.0693069 
1 0 0:0.019802 
1 0 0:0.0891089 1:0.0612245 2:0.0819672 
1 0 0:0.019802 
1 0 0:0.029703 
1 0 0:0.019802 
1 0 0:0.29703 1:0.204082 
1 0 0:0.0792079 
1 0 
1 0 0:0.0693069 
1 0 0:0.0594059 2:0.0655738 
1 0 0:0.039604 
1 0 0:0.128713 
1 0 0:0.0594059 
1 0 0:0.049505 
1 0 
1 0 0:0.0891089 2:0.114754 
1 0 0:0.0891089 2:0.0163934 
1 0 0:0.019802 
1 0 0:0.029703 
1 0 0:0.019802 
1 0 0:0.0693069 1:0.102041 2:0.114754 
1 0 0:0.0990099 2:0.0163934 
1 0 0:0.108911 1:0.0204082 
1 0 0:0.0792079 
1 0 0:0.267327 1:0.0204082 
1 0 0:0.039604 
1 0 0:0.168317 2:0.0327869 
1 0 0:0.0693069 
1 0.2293163942348656 0:0.237624 1:0.367347 2:0.0327869 
1 0 0:0.039604 
1 0 0:0.168317 2:0.0983607 
1 0 0:0.168317 1:0.0408163 
1 0 
1 0 0:0.148515 1:0.163265 2:0.0163934 
1 0 0:0.019802 2:0.0983607 
1 0 0:0.029703 
1 0 0:0.019802 1:0.0612245 2:0.0983607 
1 0 0:0.0594059 1:0.0408163 2:0.0819672 
1 0 0:0.019802 
1 0 0:0.029703 
1 0 0:0.0693069 
1 0 0:0.118812 1:0.142857 2:0.0491803 
1 0 0:0.0693069 
1 0 0:0.029703 
1 0 0:0.029703 
1 0 
1 0 0:0.138614 2:0.0983607 
1 0 0:0.118812 2:0.0983607 
1 0 0:0.207921 1:0.653061 2:0.0327869 
1 0 0:0.128713 2:0.0655738 
1 0 0:0.108911 1:0.163265 2:0.0327869 
1 0 0:0.108911 2:0.0983607 
1 0 0:0.049505 1:0.0612245 
1 0 0:0.148515 1:0.102041 
1 0 0:0.0792079 
1 0 0:0.019802 
1 0 0:0.00990099 
1 0 0:0.148515 
1 0 0:0.029703 
1 0 0:0.019802 
1 0 0:0.019802 
1 0 0:0.168317 1:0.204082 2:0.0655738 
1 0 0:0.0990099 
1 0 0:0.0792079 1:0.0816327 2:0.278689 
1 0 0:0.0891089 
1 0 0:0.0990099 2:0.0163934 
1 0 0:0.049505 
1 0 0:0.0792079 1:0.142857 
1 0 0:0.178218 1:0.122449 
1 0 0:0.138614 1:0.102041 
1 0 0:0.118812 
1 0 0:0.039604 
1 0 0:0.148515 1:0.0408163 
1 0 0:0.049505 
1 0 0:0.029703 
1 0 0:0.158416 
1 0 0:0.00990099 1:0.0408163 2:0.163934 
1 0 0:0.019802 1:0.0612245 2:0.0327869 
1 0 0:0.019802 
1 0 0:0.049505 1:0.0408163 2:0.0819672 
1 0 0:0.019802 
1 0 0:0.019802 
1 0 0:0.029703 
1 1 0:0.019802 1:0.0408163 2:0.147541 
1 0 0:0.207921 2:0.0655738 
1 0 0:0.019802 
1 0 0:0.029703 
1 0 0:0.029703 1:0.0204082 
1 0 0:0.029703 
1 0 0:0.029703 
1 0 0:0.019802 
1 0 0:0.029703 
1 0 0:0.118812 2:0.0327869 
1 0 0:0.029703 
1 1 0:0.0990099 2:0.114754 
1 0 0:0.108911 1:0.0408163 
1 0 0:0.019802 
1 0 0:0.029703 
1 0 0:0.158416 1:0.0408163 
1 0 0:0.148515 1:0.0408163 2:0.0655738 
1 0 0:0.0594059 
1 0 
1 0 0:0.50495 1:0.0612245 2:0.0983607 
1 0 0:0.0594059 
1 0 0:0.029703 
1 0 0:0.178218 1:0.0612245 2:0.0983607 
1 0 0:0.118812 1:0.163265 2:0.0655738 
1 0 0:0.326733 1:0.673469 2:0.0491803 
1 0 0:0.019802 
1 0 0:0.00990099 
1 0 0:0.029703 
1 0 0:0.0693069 1:0.142857 
1 0 0:0.019802 
1 0 0:0.00990099 2:0.0163934 
1 0 0:0.029703 
1 0 0:0.019802 
1 0 0:0.019802 
1 0 0:0.029703 
1 0 0:0.039604 1:0.0816327 
1 0 0:0.019802 
1 0 
1 0 
1 0 0:0.00990099 
1 0 0:0.118812 
1 0 0:0.039604 
1 0 0:0.029703 
1 0 0:0.049505 
1 0 0:0.029703 1:0.183673 
1 0 0:0.0693069 1:0.22449 
1 0 0:0.128713 
1 0 
1 0 0:0.148515 2:0.0163934 
1 0 
1 0 
1 0 
1 0 0:0.039604 
1 0 
1 0 
1 0 0:0.029703 
1 0 0:0.039604 
1 0 0:0.029703 
1 0 0:0.029703 
1 0 0:0.0990099 1:0.0204082 
1 0 0:0.178218 1:0.142857 
1 0 0:0.0594059 
1 0 0:0.0594059 
1 0 0:0.0792079 
1 0 0:0.0891089 1:0.265306 2:0.0327869 
1 0 0:0.0693069 1:0.122449 2:0.0163934 
1 0 0:0.029703 
1 0 0:0.0891089 1:0.0612245 
1 0 0:0.178218 
1 0 0:0.049505 
1 0 0:0.039604 
1 0 0:0.029703 1:0.0408163 
1 0 0:0.326733 1:0.306122 
1 0 0:0.158416 2:0.0655738 
1 1 0:0.237624 1:0.244898 
1 0 
1 0 0:0.0990099 
1 0 0:0.029703 
1 0 0:0.0693069 
1 0 0:0.029703 
1 0 0:0.039604 
1 0 0:0.039604 
1 0 0:0.128713 1:0.0612245 2:0.0163934 
1 0 0:0.118812 1:0.0612245 2:0.0983607 
1 0 0:0.0594059 2:0.0163934 
1 0 0:0.039604 2:0.0327869 
1 0 0:0.118812 1:0.22449 
1 0 
1 0 0:0.0594059 1:0.0408163 
1 0 0:0.0594059 
1 0 0:0.0594059 
1 0 0:0.00990099 2:0.114754 
1 0 0:0.0891089 
1 0 0:0.029703 2:0.0327869 
1 0 0:0.178218 
1 0 0:0.039604 
1 0 0:0.0792079 
1 0 0:0.029703 
1 0 0:0.0594059 
1 0 0:0.049505 1:0.0612245 2:0.229508 
1 0 0:0.366337 1:0.244898 
1 0 0:0.237624 1:0.22449 
1 0 0:0.188119 
1 0 0:0.019802 
1 0 0:0.039604 
1 0 0:0.128713 1:0.163265 
1 0 0:0.0594059 
1 1 0:0.207921 1:0.285714 2:0.114754 
1 0 0:0.0792079 1:0.0612245 
1 0 0:0.0594059 2:0.0655738 
1 0 0:0.0792079 2:0.0163934 
1 0 0:0.029703 2:0.0819672 
1 0 0:0.049505 1:0.0204082 2:0.0819672 
1 0 0:0.00990099 
1 0 0:0.0594059 1:0.142857 2:0.0655738 
1 0 0:0.049505 2:0.0327869 
1 0 0:0.178218 1:0.0408163 2:0.180328 
1 0 0:0.029703 
1 0 0:0.029703 
1 0 0:0.049505 
1 0 0:0.267327 1:0.0204082 
1 0 0:0.0594059 
1 0 0:0.029703 
1 0 0:0.049505 
1 0 0:0.019802 1:0.0408163 
1 0 0:0.029703 
1 0 0:0.029703 
1 0 0:0.019802 
1 0 0:0.049505 
1 0 0:0.0693069 1:0.102041 
1 0.1037713295316859 0:0.148515 1:0.163265 2:0.0655738 
1 0 0:0.019802 
1 0 0:0.0693069 
1 0 0:0.029703 
1 0 0:0.039604 
1 0 0:0.039604 
1 0 0:0.039604 
1 0 0:0.0891089 
1 0 0:0.029703 
1 0 0:0.029703 
1 0 
1 0 0:0.108911 2:0.0327869 
1 0 0:0.029703 
1 0 0:0.019802 1:0.0816327 2:0.0327869 
1 0 0:0.128713 2:0.0655738 
1 0 0:0.019802 
1 0 0:0.0693069 
1 0 0:0.138614 1:0.0408163 2:0.0819672 
1 0 0:0.217822 2:0.0163934 
1 0 0:0.019802 
1 0 0:0.138614 2:0.0819672 
1 0 0:0.227723 1:0.0816327 2:0.0163934 
1 0 0:0.029703 
1 0 0:0.0891089 1:0.0408163 2:0.0163934 
1 0 0:0.0594059 2:0.0491803 
1 0 0:0.039604 
1 0 0:0.049505 2:0.0655738 
1 0 0:0.039604 2:0.0163934 
1 0 0:0.019802 
1 0 0:0.039604 
1 0.02869310137222477 0:0.039604 1:0.367347 
1 0 0:0.029703 
1 0 0:0.029703 
1 0 0:0.019802 
1 0 0:0.0990099 
1 0 0:0.029703 
1 0 0:0.029703 
1 0 0:0.0792079 1:0.306122 
1 0 0:0.019802 
1 0 0:0.029703 
1 0 0:0.0990099 1:0.244898 2:0.0655738 
1 0 0:0.019802 
1 1 0:0.019802 1:0.0816327 
1 0 0:0.029703 1:0.0204082 
1 0 0:0.029703 2:0.0327869 
1 0 0:0.128713 1:0.0408163 2:0.0327869 
1 0 0:0.207921 
1 0 0:0.029703 2:0.0655738 
1 0 0:0.039604 
1 0 0:0.039604 
1 1 0:0.158416 1:0.0612245 2:0.0983607 
1 0 0:0.019802 
1 0 0:0.0990099 1:0.163265 
1 0 0:0.0792079 
1 0 0:0.019802 
1 0 0:0.029703 2:0.0327869 
1 0 
1 0 
1 0 0:0.029703 
1 0 0:0.039604 
1 0 0:0.019802 
1 0 0:0.039604 
1 0 0:0.00990099 
1 0 0:0.019802 
1 1 0:0.039604 1:0.102041 2:0.0655738 
1 0 0:0.118812 1:0.22449 
1 0 0:0.049505 
1 0 
1 0 
1 0 0:0.019802 
0.498332104320829 0 0:0.346535 1:0.326531 2:0.114754 
1 0 0:0.0594059 
1 0 0:0.0792079 
1 0 0:0.019802 
1 0 0:0.0594059 2:0.131148 
1 0 0:0.019802 
1 0 
1 0 0:0.0693069 2:0.0491803 
1 0 0:0.039604 
1 0 0:0.039604 
1 0 0:0.029703 2:0.114754 
1 0 0:0.039604 
1 0 0:0.00990099 
1 0 0:0.049505 
1 0 0:0.108911 
1 0 0:0.0594059 1:0.204082 2:0.0983607 
1 0 0:0.029703 
1 0 0:0.118812 1:0.0204082 2:0.0163934 
1 0 0:0.0891089 2:0.0163934 
1 0 0:0.019802 
1 0 0:0.039604 1:0.122449 2:0.0655738 
1 1 0:0.128713 1:0.0204082 
1 0 
1 0 0:0.029703 1:0.0612245 2:0.0163934 
1 0 0:0.029703 
1 0 0:0.108911 
1 0 0:0.029703 
1 0 
1 0 0:0.019802 
1 0 0:0.029703 2:0.147541 
1 0 0:0.029703 
1 0 0:0.0693069 1:0.0204082 2:0.0655738 
1 0 0:0.118812 
1 0 0:0.178218 2:0.0327869 
1 0 0:0.019802 
1 0 0:0.049505 2:0.0327869 
1 0 0:0.019802 2:0.0163934 
1 0 0:0.0891089 1:0.0612245 2:0.131148 
1 0 0:0.0594059 2:0.0327869 
1 0 0:0.118812 2:0.0655738 
1 0.09013322248330942 0:0.237624 1:0.367347 
1 0 0:0.108911 1:0.102041 2:0.0327869 
1 0 0:0.207921 
1 0 0:0.178218 2:0.0655738 
1 0 0:0.257426 2:0.0655738 
1 0 0:0.029703 
1 0 0:0.029703 
1 0 0:0.019802 
1 0 0:0.108911 2:0.0983607 
1 0 0:0.148515 2:0.0163934 
1 0 0:0.207921 1:0.163265 2:0.0491803 
1 0 
1 0 
1 0 0:0.049505 
1 0 0:0.019802 
1 0 0:0.019802 
1 0 0:0.148515 1:0.0612245 
1 0 0:0.029703 2:0.0163934 
1 0 0:0.039604 
1 0 0:0.0891089 1:0.0612245 2:0.0655738 
1 0 0:0.108911 2:0.0491803 
1 0 0:0.138614 1:0.142857 
1 0 0:0.029703 1:0.0408163 
1 0 0:0.00990099 
1 0 0:0.108911 2:0.0655738 
1 0 0:0.039604 
1 0 
1 0 0:0.039604 
1 0 0:0.0693069 2:0.0491803 
1 0 0:0.049505 
1 0 0:0.039604 1:0.0408163 2:0.0983607 
1 0 0:0.237624 1:0.0408163 
1 0 0:0.0594059 2:0.0655738 
1 0 0:0.019802 
1 0 0:0.029703 
1 0 0:0.029703 
1 0 0:0.019802 
1 0 0:0.019802 2:0.0327869 
1 0 0:0.019802 
1 0 0:0.039604 
1 0 0:0.138614 2:0.0163934 
1 0 
1 0 0:0.178218 2:0.0655738 
1 0 0:0.465347 
1 0 0:0.049505 
1 1 1:0.0204082 2:0.163934 
1 0 0:0.118812 2:0.0655738 
1 0 0:0.118812 1:0.0612245 2:0.0983607 
1 0 0:0.019802 
1 0 0:0.039604 2:0.196721 
1 0 0:0.049505 
1 0 0:0.0693069 1:0.142857 
1 0 0:0.0891089 2:0.0327869 
1 0 0:0.029703 
1 0 0:0.178218 2:0.0327869 
1 1 0:0.19802 1:0.0816327 
1 0 0:0.039604 
1 0 0:0.0891089 1:0.122449 
1 0 0:0.039604 
1 0 0:0.019802 
1 0 0:0.108911 2:0.131148 
1 0 0:0.039604 
1 0 0:0.049505 
1 0 0:0.188119 1:0.0408163 2:0.0655738 
1 0 0:0.0693069 
1 0 0:0.019802 
1 0 0:0.00990099 
1 0 0:0.029703 
1 0 0:0.029703 
1 0 0:0.019802 
1 0 0:0.019802 
1 0 0:0.029703 2:0.0983607 
1 0 0:0.108911 2:0.0327869 
1 0 0:0.019802 
1 0 0:0.316832 1:0.122449 
1 0 0:0.029703 
1 0 0:0.0792079 2:0.0163934 
1 0 0:0.0792079 1:0.122449 
1 0 0:0.128713 1:0.122449 2:0.0163934 
1 0 0:0.0594059 
1 0 0:0.108911 2:0.0819672 
1 0.007634849322695177 0:0.237624 1:0.571429 
1 0 0:0.019802 
1 0 0:0.019802 
1 0 0:0.029703 
1 0 0:0.0990099 2:0.0819672 
1 0 0:0.0594059 
1 0 0:0.049505 
1 0 0:0.029703 
1 0 0:0.108911 2:0.0655738 
1 0 0:0.029703 
1 0 1:0.0816327 2:0.0327869 
1 0 0:0.0693069 1:0.0408163 
1 0 0:0.029703 
1 0 0:0.138614 2:0.0655738 
1 0 0:0.039604 
1 0 0:0.019802 
1 0 0:0.138614 2:0.0491803 
1 0 0:0.019802 
1 0 0:0.029703 
1 0 0:0.049505 2:0.0327869 
1 0 0:0.029703 
1 0 0:0.108911 1:0.183673 2:0.0327869 
1 0 0:0.049505 
1 0 0:0.0693069 
1 0 0:0.0594059 
1 0 0:0.148515 1:0.122449 
1 0 0:0.019802 
1 0 0:0.039604 
1 0 0:0.039604 
1 0 0:0.0594059 
1 0 0:0.029703 
1 0 0:0.029703 2:0.0327869 
1 0 
1 0 0:0.029703 
1 0 0:0.019802 
1 0 0:0.029703 
1 0 0:0.029703 
1 0 0:0.019802 
1 0 0:0.039604 
1 0 0:0.019802 2:0.0491803 
1 0 0:0.029703 
1 0 0:0.019802 
1 0 0:0.0594059 
1 0 0:0.029703 
1 0 0:0.257426 1:0.142857 
1 0 0:0.029703 
1 0 0:0.029703 
1 0 0:0.0891089 1:0.0816327 2:0.0327869 
1 0 0:0.178218 1:0.102041 2:0.0655738 
1 0 0:0.019802 
1 0 0:0.029703 
1 0 0:0.019802 1:0.0612245 
1 0 0:0.0891089 
1 0 0:0.19802 1:0.122449 2:0.0327869 
1 0 0:0.039604 
1 0 0:0.039604 1:0.0204082 2:0.0163934 
1 0 0:0.039604 
1 0 0:0.207921 1:0.0408163 
1 0 0:0.118812 2:0.0163934 
1 0 0:0.0891089 1:0.102041 
1 0 0:0.019802 
1 0 0:0.029703 1:0.0204082 2:0.0163934 
1 0 0:0.029703 
1 0 0:0.108911 2:0.0491803 
1 0 0:0.0792079 2:0.0819672 
1 0 0:0.019802 
1 0 0:0.049505 
1 0 0:0.039604 
1 0 0:0.029703 
1 0 0:0.039604 
1 0 0:0.108911 
1 0 0:0.029703 
1 0 0:0.019802 
1 0 0:0.029703 
1 0 0:0.029703 
1 0 0:0.029703 
1 0 0:0.049505 1:0.0408163 2:0.0655738 
1 0 0:0.029703 
1 0 0:0.029703 
1 0 0:0.049505 
1 0 0:0.00990099 
1 0 0:0.039604 
1 0 0:0.00990099 
1 0 0:0.118812 2:0.0163934 
1 0 0:0.049505 
1 0 0:0.029703 
1 0 0:0.049505 
1 0 0:0.148515 2:0.311475 
1 0 0:0.029703 
1 0 0:0.108911 
1 0 0:0.029703 
1 0 0:0.029703 2:0.0163934 
1 0 0:0.019802 
1 0 0:0.029703 2:0.0327869 
1 0 0:0.019802 
1 0 0:0.029703 1:0.0408163 
1 0 0:0.019802 
1 0 0:0.0693069 
1 0 0:0.029703 
1 0 0:0.029703 1:0.0204082 
1 0 0:0.0990099 
1 0 0:0.019802 
1 0 0:0.019802 
1 0 0:0.019802 
1 0 0:0.029703 
1 0 0:0.0792079 2:0.0163934 
1 0 0:0.039604 
1 0 0:0.0792079 2:0.0327869 
1 0 0:0.138614 1:0.142857 2:0.0163934 
1 0 0:0.128713 2:0.0327869 
1 0 0:0.019802 
1 0 
1 0 0:0.029703 
1 0 
1 0 
1 0 
1 0 
1 0 0:0.019802 
1 0 0:0.029703 
1 0 0:0.039604 1:0.0408163 2:0.131148 
1 0 
1 0 0:0.019802 
1 0 0:0.247525 1:0.0204082 2:0.0163934 
1 0 0:0.0792079 2:0.0163934 
1 0 0:0.0990099 2:0.0163934 
1 0 0:0.217822 
1 0 0:0.039604 
1 0 0:0.00990099 
1 0 0:0.019802 
1 0 0:0.029703 
1 0 0:0.0594059 1:0.0204082 
1 0 0:0.039604 
1 0 0:0.029703 
1 0 0:0.039604 
1 0 0:0.019802 
1 0 0:0.019802 
1 0 0:0.0891089 
1 0 0:0.188119 
1 0 0:0.029703 
1 0 0:0.039604 
1 0 0:0.475248 
1 0 0:0.029703 
1 0 0:0.188119 1:0.122449 2:0.0163934 
1 0 0:0.128713 1:0.0612245 2:0.0327869 
1 0 0:0.00990099 2:0.0819672 
1 0 0:0.019802 
1 0 0:0.049505 2:0.131148 
1 0 0:0.039604 
1 0 0:0.207921 
1 0 0:0.019802 
1 1 0:0.148515 1:0.0612245 2:0.0327869 
1 0 0:0.0891089 1:0.122449 2:0.0491803 
1 0 0:0.0990099 1:0.102041 
1 0 0:0.0594059 1:0.0612245 2:0.0983607 
1 0 0:0.039604 
1 0 0:0.0594059 
1 0 0:0.039604 1:0.0408163 2:0.0983607 
1 0 
1 0 0:0.108911 2:0.0163934 
1 0 0:0.108911 1:0.0816327 2:0.0983607 
1 0 0:0.376238 
1 0 0:0.049505 
1 0 0:0.029703 
1 0 0:0.029703 
1 0 0:0.029703 1:0.0408163 
1 1 0:0.148515 1:0.265306 2:0.114754 
1 0 0:0.158416 
1 0 0:0.118812 
1 0 0:0.049505 
1 0 0:0.039604 
1 0 0:0.029703 
1 0 0:0.029703 
1 0 0:0.0990099 2:0.0163934 
1 0 0:0.0990099 
1 0 0:0.00990099 
1 0 0:0.108911 1:0.163265 
1 0 0:0.0792079 2:0.0327869 
1 0 0:0.029703 
1 0 0:0.049505 
1 0 0:0.168317 2:0.0819672 
1 0 0:0.128713 1:0.0612245 2:0.131148 
1 0 0:0.128713 2:0.0327869 
1 0 0:0.019802 
1 0 0:0.029703 
1 0 0:0.0792079 1:0.0612245 2:0.0819672 
1 0 0:0.039604 
1 0 0:0.039604 
1 0 0:0.039604 
1 0 0:0.029703 
1 0 0:0.039604 
1 0 0:0.0594059 2:0.0655738 
1 0 0:0.029703 1:0.122449 2:0.327869 
1 0 0:0.0990099 2:0.0491803 
1 0 0:0.0891089 1:0.0612245 
1 0 
1 0 0:0.049505 
1 0 0:0.0693069 2:0.131148 
1 0 0:0.039604 2:0.0983607 
1 0 0:0.118812 1:0.0612245 2:0.0983607 
1 0 0:0.178218 2:0.0327869 
1 0 0:0.019802 
1 0 0:0.019802 
1 1 0:0.00990099 2:0.0655738 
1 0 0:0.227723 
1 0 0:0.0792079 1:0.0612245 2:0.0819672 
1 0 0:0.029703 
1 1 0:0.0693069 1:0.183673 2:0.0983607 
1 0 0:0.00990099 
1 0 0:0.0594059 1:0.102041 
1 0 0:0.168317 
1 0.9500611720789774 0:0.049505 1:0.204082 
1 0 0:0.029703 
1 0.05136839894686522 0:0.237624 1:0.326531 2:0.0163934 
1 0 0:0.128713 
1 0 0:0.029703 1:0.204082 
1 0 0:0.039604 
1 0 0:0.0594059 2:0.0655738 
1 0 0:0.029703 
1 0 0:0.0891089 
1 0 0:0.039604 1:0.122449 
1 0 0:0.039604 
1 0 0:0.148515 
1 0 0:0.0891089 2:0.0163934 
1 0 0:0.0693069 
1 0 0:0.0792079 1:0.102041 2:0.0655738 
1 0 0:0.0990099 
1 0 0:0.029703 
1 0 0:0.029703 2:0.0327869 
1 0 0:0.207921 1:0.0408163 2:0.0983607 
1 0 0:0.0693069 
1 0 0:0.158416 
1 0 0:0.0792079 2:0.0655738 
1 0 0:0.029703 
1 0 0:0.039604 
1 0 0:0.0990099 1:0.0408163 2:0.0163934 
1 0 0:0.237624 1:0.0408163 2:0.0327869 
1 0 0:0.039604 1:0.0204082 2:0.0163934 
1 0 0:0.029703 
1 0 0:0.0693069 
1 0 0:0.029703 
1 0 0:0.019802 
1 0 0:0.019802 
1 0 
1 0 
1 0 0:0.019802 
1 0 
1 0 
1 0 
1 0 
1 0 
1 0 
1 0 
1 0 
1 0 
1 0 
1 0 0:0.019802 
1 0 0:0.019802 
1 0 0:0.049505 
1 0 0:0.039604 
1 0 0:0.029703 
1 0 0:0.29703 2:0.0163934 
1 0 0:0.019802 
1 0 0:0.029703 
1 1 0:0.287129 
1 0 0:0.0594059 
1 0 0:0.029703 
1 0 0:0.29703 1:0.0612245 
1 0 0:0.0990099 1:0.163265 2:0.0163934 
1 0 0:0.148515 
1 0 0:0.029703 1:0.0612245 2:0.147541 
1 0 0:0.108911 2:0.0491803 
1 0 0:0.0792079 2:0.0655738 
1 0 0:0.019802 
1 0 0:0.00990099 2:0.0163934 
1 0 0:0.049505 
1 0 0:0.108911 2:0.0655738 
1 0 0:0.178218 1:0.0408163 2:0.0655738 
1 0 0:0.19802 
1 0 
1 0 0:0.039604 
1 0 0:0.039604 
1 1 0:0.207921 1:0.122449 2:0.0983607 
1 0 0:0.019802 1:0.0204082 
1 0 0:0.019802 
1 0 0:0.039604 
1 0 
1 1 0:0.0891089 1:0.122449 2:0.0983607 
1 0 0:0.029703 
1 0 0:0.029703 
1 0 0:0.217822 1:0.0408163 2:0.0655738 
1 0 0:0.029703 
1 0 0:0.108911 1:0.122449 2:0.0655738 
1 0 0:0.128713 2:0.0819672 
1 0 0:0.0594059 
1 0 0:0.049505 
1 0 
1 0 0:0.0990099 
1 0 0:0.237624 
1 0 0:0.049505 
1 0 0:0.019802 
1 0 0:0.019802 
1 0 0:0.039604 
1 0 
1 0 
1 0 0:0.0693069 
1 0 0:0.029703 
1 0 0:0.019802 
1 0 0:0.029703 
1 0 0:0.019802 
1 0 0:0.0891089 1:0.0408163 
1 0 0:0.049505 
1 0 0:0.128713 1:0.0408163 2:0.0327869 
1 0 0:0.168317 
1 0 0:0.118812 
1 0 0:0.029703 
1 0 0:0.039604 
1 0 0:0.0594059 2:0.0327869 
1 0 0:0.029703 
1 0 0:0.019802 2:0.0819672 
1 0 0:0.029703 
1 0 0:0.0693069 1:0.122449 
1 0 0:0.019802 
1 0 0:0.029703 
1 0 0:0.019802 1:0.0612245 2:0.0983607 
1 0 0:0.039604 
1 0 0:0.118812 
1 0 0:0.039604 2:0.0327869 
1 0 0:0.039604 1:0.0816327 2:0.0819672 
1 0 0:0.039604 2:0.0491803 
1 0 0:0.188119 1:0.22449 
1 0 0:0.029703 
1 0 0:0.158416 2:0.0327869 
1 0 0:0.029703 
1 0 0:0.0990099 
1 0 0:0.138614 1:0.142857 2:0.0163934 
1 0 0:0.366337 1:0.22449 2:0.0163934 
1 0 0:0.019802 
1 0 0:0.019802 
1 0 0:0.039604 2:0.0655738 
1 0 0:0.0891089 2:0.0655738 
1 0 0:0.019802 
1 0 0:0.108911 1:0.102041 2:0.0491803 
1 0 0:0.029703 1:0.0408163 2:0.0491803 
1 0 
1 0 0:0.019802 
1 0 0:0.019802 
1 0 0:0.0594059 
1 0 
1 0 0:0.0792079 
1 0 0:0.039604 
1 0 0:0.0891089 2:0.0327869 
1 0 0:0.0891089 2:0.0491803 
1 0 0:0.128713 2:0.0491803 
1 0 0:0.0594059 
1 0 0:0.0891089 2:0.0327869 
1 0 0:0.029703 
1 0 
1 0 0:0.039604 2:0.114754 
1 0 0:0.029703 
1 0 0:0.0990099 1:0.22449 
1 0 0:0.237624 1:0.0408163 2:0.0327869 
1 0 
1 0 0:0.0792079 2:0.0819672 
1 0 0:0.0990099 2:0.0163934 
1 0 0:0.178218 
1 0 0:0.029703 
1 0 0:0.029703 
1 0 0:0.029703 
1 0 
1 0 0:0.029703 
1 0 0:0.019802 
1 0 0:0.0594059 
1 0 0:0.039604 
1 0 0:0.039604 
1 0 0:0.039604 
1 0 0:0.029703 
1 0 0:0.019802 
1 0 
1 0 0:0.118812 2:0.0655738 
1 0 0:0.049505 
1 0 0:0.019802 
1 0 0:0.108911 1:0.0816327 
1 0 0:0.019802 
1 0 0:0.039604 
1 0 0:0.207921 
1 0 0:0.019802 
1 0 0:0.0594059 
1 0 0:0.039604 
1 0 0:0.039604 2:0.0327869 
1 0 0:0.019802 1:0.0408163 
1 0 0:0.00990099 
1 0 0:0.029703 
1 0 0:0.188119 1:0.102041 2:0.0327869 
1 0 0:0.029703 
1 0 0:0.039604 
1 0 0:0.267327 1:0.0816327 
1 0 0:0.019802 
1 0 
1 0 
1 0 0:0.039604 
1 0 0:0.049505 1:0.0204082 2:0.0655738 
1 0 0:0.0693069 1:0.0408163 
1 0 0:0.138614 
1 0 0:0.029703 
1 0 0:0.118812 
1 0 0:0.0891089 2:0.0655738 
1 0 0:0.029703 
1 0 0:0.0792079 
1 0 0:0.0792079 
1 0 0:0.039604 1:0.0612245 
1 0 0:0.00990099 2:0.0327869 
1 0 0:0.0693069 
1 0 0:0.0693069 
1 0 0:0.257426 1:0.163265 2:0.0819672 
1 0 0:0.029703 2:0.0655738 
1 0 
1 0 0:0.039604 2:0.0327869 
1 0 0:0.029703 
1 0 0:0.445545 
1 0 0:0.039604 1:0.142857 2:0.114754 
1 0 0:0.019802 2:0.0327869 
1 0 0:0.029703 
1 0 0:0.039604 1:0.0408163 2:0.0327869 
1 0 0:0.029703 1:0.0204082 2:0.0163934 
1 0 0:0.039604 
1 0 0:0.049505 
1 0 0:0.019802 
1 0 0:0.0594059 1:0.142857 2:0.0819672 
1 0 0:0.049505 
1 0 
1 0 0:0.0693069 1:0.0612245 
1 0 0:0.049505 
1 1 0:0.0693069 1:0.0204082 
1 0 0:0.148515 
1 0 0:0.029703 
1 0 0:0.148515 1:0.122449 2:0.0491803 
1 0 0:0.039604 
1 0 0:0.108911 2:0.0491803 
1 0 0:0.168317 1:0.0408163 2:0.0491803 
1 0 0:0.029703 
1 0 0:0.316832 1:0.0816327 
1 0 0:0.019802 
1 0 0:0.0891089 1:0.326531 
1 0 0:0.029703 
1 0 0:0.029703 
1 0 0:0.049505 
1 0 0:0.049505 
1 0 0:0.029703 
1 0 0:0.0693069 1:0.0408163 2:0.0655738 
1 0 
1 0 0:0.049505 2:0.0327869 
1 0 
1 0 
1 0 0:0.148515 1:0.122449 2:0.0491803 
1 0 0:0.049505 
1 0 0:0.00990099 
1 0 0:0.039604 
1 0 0:0.019802 2:0.0327869 
1 0 0:0.00990099 
1 0 0:0.00990099 
1 0 0:0.227723 1:0.204082 
1 0 0:0.039604 2:0.0491803 
1 0 0:0.019802 
1 0 0:0.019802 
1 0 0:0.128713 1:0.0408163 2:0.0819672 
1 0 0:0.029703 
1 0 0:0.029703 
1 1 0:0.039604 1:0.0612245 2:0.229508 
1 0 0:0.019802 
1 0 0:0.118812 
1 0 0:0.118812 2:0.0491803 
1 0 0:0.0990099 
1 0 0:0.019802 
1 0 0:0.019802 
1 0 0:0.019802 
1 0 0:0.168317 1:0.0816327 2:0.0491803 
1 0 0:0.316832 
1 0 0:0.049505 2:0.0163934 
1 0 0:0.029703 
1 0 0:0.0990099 
1 1 0:0.178218 1:0.142857 2:0.0327869 
1 0 0:0.0594059 
1 0 0:0.029703 
1 0 0:0.029703 
1 0 0:0.039604 1:0.0408163 2:0.131148 
1 0 0:0.138614 2:0.0983607 
1 0 0:0.118812 1:0.102041 
1 0 0:0.138614 2:0.0655738 
1 0 0:0.267327 
1 0 0:0.287129 1:0.0204082 
1 0 0:0.029703 
1 0 0:0.039604 
1 0 0:0.029703 
1 0 0:0.148515 2:0.0491803 
1 0 0:0.019802 
1 0 0:0.019802 
1 0 0:0.118812 1:0.0612245 2:0.0983607 
1 0 0:0.0990099 2:0.0327869 
1 0 0:0.168317 
1 0 0:0.019802 
1 0 0:0.0792079 1:0.163265 2:0.0163934 
1 0 0:0.019802 
1 0 0:0.0891089 
1 0 0:0.029703 
1 0 0:0.029703 2:0.0327869 
1 0 0:0.168317 
1 0.0207329079902458 0:0.128713 1:0.326531 2:0.0491803 
1 0 0:0.029703 
1 0 0:0.0792079 
1 1 0:0.019802 1:0.0816327 
1 0 
1 0 0:0.267327 1:0.734694 2:0.0163934 
1 0 0:0.039604 
1 0 
1 0 0:0.049505 2:0.114754 
1 0 0:0.118812 
1 0 0:0.029703 
1 0 0:0.0891089 
1 0 0:0.0792079 2:0.0327869 
1 0 0:0.128713 1:0.22449 
1 0 0:0.0594059 
1 0 0:0.019802 
1 0 0:0.029703 1:0.0204082 
1 0 0:0.0990099 1:0.0816327 
1 0 0:0.0693069 2:0.131148 
1 0 0:0.0792079 2:0.163934 
1 0 0:0.0693069 1:0.163265 2:0.0655738 
1 0 0:0.039604 
1 0 0:0.178218 2:0.0983607 
1 0 0:0.257426 
1 0 0:0.138614 
1 0 0:0.039604 
1 0 0:0.049505 
1 0 
1 0 0:0.039604 2:0.0491803 
1 0 0:0.0891089 
1 0 0:0.039604 
1 0 0:0.029703 
1 0 0:0.029703 
1 0 0:0.039604 
1 0 0:0.0693069 
1 0 0:0.029703 2:0.0983607 
1 0 0:0.485149 
1 0 0:0.019802 
1 0 0:0.019802 
1 0 0:0.0990099 2:0.0327869 
1 0 0:0.0693069 
1 0 0:0.019802 
1 0 0:0.039604 
1 0 0:0.019802 
1 0 0:0.029703 
1 0 0:0.0693069 
1 0 0:0.029703 
1 0 0:0.019802 
1 0 0:0.0990099 1:0.102041 
1 0 0:0.029703 
1 1 0:0.039604 1:0.0204082 2:0.0327869 
1 0 0:0.039604 2:0.0327869 
1 0 0:0.019802 
1 0 0:0.049505 1:0.0612245 2:0.0983607 
1 0 0:0.00990099 
1 0 0:0.108911 2:0.0983607 
1 0 0:0.019802 
1 0 0:0.0693069 
1 0 0:0.029703 
1 0 0:0.118812 2:0.0491803 
1 0 
1 0 0:0.128713 
1 1 0:0.554455 1:0.163265 2:0.0163934 
1 0 0:0.178218 1:0.102041 2:0.0655738 
1 0 0:0.217822 
1 0 0:0.0891089 
0.705725972976837 0 0:0.128713 1:0.0408163 2:0.180328 
1 0 0:0.039604 
1 0 0:0.029703 
1 0 0:0.039604 
1 0 0:0.138614 
1 0 0:0.019802 
1 0 0:0.118812 
1 0 0:0.019802 
1 0 0:0.039604 1:0.142857 
1 0 0:0.019802 
1 0 0:0.0693069 
1 0 0:0.158416 1:0.122449 
1 0 0:0.019802 
1 0 0:0.029703 
1 0 0:0.019802 
1 0 
1 0 0:0.019802 
1 0 0:0.128713 
1 0 0:0.128713 
1 0 0:0.00990099 
1 0 0:0.029703 
1 0 0:0.019802 
1 0 0:0.128713 1:0.22449 2:0.0327869 
0.07108870780759878 0 0:0.128713 1:0.0612245 2:0.147541 
1 0 0:0.316832 1:0.142857 
1 0 0:0.108911 1:0.0816327 2:0.0983607 
1 0 0:0.227723 1:0.0408163 
1 0 
1 0 0:0.049505 
1 0 0:0.019802 
1 0 
1 0 0:0.247525 1:0.142857 
1 0 0:0.019802 
1 0 0:0.039604 
1 0 0:0.019802 
1 0 0:0.188119 2:0.0491803 
1 0 0:0.049505 
1 0 0:0.029703 
1 0 0:0.019802 
1 0 0:0.029703 
1 0 0:0.029703 1:0.0204082 2:0.0327869 
1 0 0:0.039604 
1 0 0:0.019802 
1 0 0:0.0594059 2:0.114754 
1 0 0:0.00990099 
1 0 0:0.029703 2:0.0327869 
1 0 0:0.168317 2:0.0655738 
1 0 0:0.019802 
1 0 0:0.029703 
1 0 0:0.148515 2:0.147541 
1 0 0:0.039604 
1 0 0:0.0594059 
1 0 0:0.019802 
1 0 0:0.029703 
1 0 0:0.138614 1:0.0408163 2:0.114754 
1 0 0:0.019802 
1 0 0:0.039604 
1 0 0:0.049505 
1 0 0:0.019802 
1 0 0:0.108911 2:0.0327869 
1 0 0:0.168317 
1 0 0:0.0990099 
1 0 0:0.039604 
1 0 0:0.158416 
1 0 0:0.019802 
1 0 0:0.029703 
1 0 0:0.049505 1:0.0816327 2:0.0163934 
1 0 0:0.029703 2:0.0655738 
1 0 
1 0 0:0.257426 
1 0 0:0.039604 
1 0 0:0.128713 1:0.0816327 
1 0 0:0.019802 
1 0 0:0.029703 
0 1 0:0.158416 1:0.102041 
1 0 0:0.0990099 1:0.0408163 2:0.0655738 
1 0 0:0.019802 2:0.0655738 
1 0 
1 0 0:0.217822 1:0.285714 2:0.311475 
1 0 0:0.019802 1:0.0408163 
1 0 0:0.049505 
1 0 0:0.148515 
1 0 0:0.148515 2:0.0327869 
1 0 0:0.029703 
1 0 0:0.019802 
1 0 0:0.0594059 
1 0 0:0.019802 
1 0 0:0.0693069 
1 0 0:0.039604 
1 0 0:0.029703 
1 0 0:0.029703 
1 0 0:0.257426 1:0.0408163 
1 0 0:0.019802 
1 0 0:0.019802 
1 0 0:0.029703 
1 0 0:0.019802 
1 0 0:0.019802 
1 0 0:0.029703 1:0.0204082 
1 0 0:0.019802 
1 0 0:0.019802 
1 0 0:0.0594059 
1 0 0:0.019802 
1 0 0:0.0693069 2:0.114754 
1 0 0:0.019802 
1 0 0:0.029703 
1 0 0:0.138614 2:0.0983607 
1 0 0:0.0891089 1:0.0612245 
1 0 0:0.00990099 
1 0 
1 0 0:0.148515 1:0.326531 
1 0 0:0.0891089 
1 0 0:0.029703 
1 0 0:0.148515 1:0.285714 2:0.0163934 
1 0 0:0.118812 
1 0 
1 0 0:0.019802 
1 0 0:0.049505 
1 0 
1 0 0:0.019802 
1 0 0:0.108911 
1 0 
1 0 0:0.049505 
1 0 0:0.029703 
1 0 0:0.049505 2:0.0163934 
1 0 0:0.029703 
1 0 0:0.019802 
1 0 0:0.039604 2:0.147541 
1 0 0:0.168317 1:0.183673 2:0.0163934 
1 0 0:0.029703 
1 0 0:0.029703 
1 0 0:0.019802 
1 0 0:0.049505 
1 0 0:0.0990099 
1 0 0:0.00990099 
1 0 0:0.0693069 1:0.0612245 2:0.147541 
1 0.05337622859146186 0:0.0594059 1:0.122449 2:0.0983607 
1 0 0:0.029703 
1 0 0:0.019802 
1 0 0:0.039604 
1 0 0:0.108911 
1 0 0:0.039604 
1 0 0:0.0891089 
1 0 0:0.128713 2:0.0491803 
1 0 0:0.118812 2:0.0327869 
1 0 0:0.108911 
1 0 0:0.019802 
1 0 0:0.019802 
1 0 0:0.158416 2:0.0491803 
1 0 0:0.0693069 1:0.102041 2:0.0163934 
1 0 0:0.0594059 1:0.0204082 
1 0 0:0.019802 
1 0 0:0.0594059 
1 0 0:0.0693069 1:0.0612245 
1 0 0:0.00990099 
1 0 0:0.019802 
1 0 0:0.0594059 
1 0 0:0.039604 
1 0 0:0.0792079 1:0.0408163 
1 0 0:0.118812 1:0.142857 2:0.0327869 
1 0 0:0.178218 
1 0 0:0.0693069 1:0.0408163 2:0.0163934 
1 0 0:0.0594059 
1 0 0:0.0990099 
1 0 0:0.158416 1:0.0408163 2:0.0491803 
1 0 0:0.108911 2:0.0327869 
1 0 0:0.029703 
1 0 0:0.0792079 2:0.0491803 
1 0 0:0.039604 1:0.122449 
1 0 0:0.0990099 2:0.0819672 
1 0 0:0.0792079 2:0.0655738 
1 0 
1 0 
1 0 
1 0 0:0.0891089 
1 0 0:0.039604 2:0.0327869 
1 0 0:0.128713 
1 0 0:0.39604 1:0.571429 
1 0 0:0.019802 
1 0 0:0.029703 
1 0 0:0.019802 
1 0 0:0.019802 
1 0 0:0.029703 1:0.0204082 
1 0 0:0.029703 2:0.0491803 
1 0 0:0.207921 2:0.0327869 
1 0 0:0.029703 
1 0 
1 0 
1 0 0:0.029703 
1 0 0:0.217822 2:0.0491803 
1 0 0:0.029703 
1 0 0:0.029703 
1 0 
1 0 0:0.0693069 2:0.0491803 
1 0 0:0.019802 
1 0 0:0.019802 
1 0 0:0.039604 1:0.122449 2:0.0819672 
1 0 0:0.0693069 
1 0 0:0.0990099 1:0.0408163 
1 0 0:0.039604 
1 0 0:0.0891089 
1 0 0:0.0792079 2:0.114754 
1 0 0:0.108911 1:0.102041 2:0.0819672 
1 0 0:0.108911 1:0.0816327 
1 0 0:0.0594059 1:0.0408163 2:0.0983607 
1 0 0:0.227723 1:0.0612245 2:0.0163934 
1 1 0:0.168317 2:0.0491803 
1 0 0:0.0990099 2:0.0983607 
1 0 0:0.049505 1:0.0816327 2:0.0655738 
1 0 0:0.0792079 
1 0 0:0.019802 1:0.0204082 
1 0 0:0.039604 
1 0 0:0.00990099 
1 1 0:0.376238 1:0.22449 
1 0 0:0.0891089 1:0.0408163 2:0.0327869 
1 0 0:0.0792079 1:0.183673 2:0.0819672 
1 0 0:0.029703 
1 0 0:0.029703 
1 0 0:0.227723 1:0.0612245 2:0.0983607 
1 0 0:0.039604 2:0.0819672 
1 0 0:0.148515 1:0.22449 
1 0 0:0.039604 
1 0 0:0.029703 
1 0 0:0.0891089 2:0.0983607 
1 0 0:0.039604 
1 0 0:0.029703 2:0.0163934 
1 0 0:0.039604 
1 1 0:0.118812 1:0.0204082 2:0.0655738 
1 0 0:0.029703 1:0.0816327 
1 0 0:0.0693069 
1 0 0:0.0594059 1:0.102041 2:0.0655738 
1 0 0:0.049505 2:0.0491803 
1 0 0:0.019802 
1 0 0:0.0792079 2:0.0163934 
1 0 0:0.029703 
1 0 0:0.019802 
1 0 0:0.00990099 
1 0 0:0.0594059 1:0.0408163 2:0.0819672 
1 0 0:0.108911 2:0.0163934 
1 0 0:0.029703 
1 0 0:0.148515 
1 0 0:0.188119 2:0.0163934 
1 0 0:0.0594059 
1 0 0:0.0594059 
1 0 0:0.0594059 2:0.0655738 
1 0 0:0.019802 
1 0 0:0.128713 1:0.0408163 2:0.0819672 
1 0 0:0.029703 
1 0 0:0.207921 1:0.653061 2:0.0327869 
1 0 0:0.0990099 
1 0 0:0.257426 
1 0 0:0.019802 
1 0 0:0.039604 
1 0 0:0.019802 
1 0 0:0.217822 
1 0 0:0.0693069 1:0.244898 2:0.114754 
1 0 0:0.108911 
1 0 0:0.0693069 
1 0 0:0.019802 
1 0 0:0.0891089 1:0.122449 
1 0 0:0.029703 
1 1 0:0.158416 2:0.0983607 
1 0 0:0.029703 
1 0 0:0.029703 
1 0 0:0.207921 
1 0 0:0.049505 
1 0 0:0.029703 
1 0 0:0.0693069 
1 0 0:0.029703 
1 0 0:0.029703 
1 0 0:0.019802 
1 0 0:0.029703 
1 0 0:0.019802 
1 0 0:0.039604 
1 0 0:0.019802 
1 0 0:0.029703 
1 0 0:0.019802 1:0.0408163 2:0.0327869 
1 0 0:0.0594059 2:0.0655738 
1 0 0:0.029703 
1 0 0:0.049505 
1 0 0:0.049505 2:0.0327869 
1 0 0:0.029703 
1 0 0:0.0693069 1:0.0612245 2:0.131148 
1 0 0:0.0792079 
1 0 0:0.0990099 2:0.131148 
1 0 0:0.0990099 
1 0 0:0.039604 2:0.0163934 
1 0 0:0.029703 2:0.0163934 
1 0 0:0.019802 
1 0 0:0.029703 
1 0 0:0.0792079 2:0.131148 
1 0 0:0.544554 
1 0 0:0.0891089 1:0.265306 
1 0 0:0.029703 
1 0 0:0.039604 1:0.0408163 
1 0 0:0.158416 
1 0 0:0.118812 
1 0 0:0.138614 1:0.102041 
1 0 0:0.019802 
1 0 0:0.108911 2:0.0491803 
1 0 0:0.019802 
1 0 0:0.029703 
1 1 0:0.178218 2:0.196721 
1 0 0:0.0792079 
1 0 0:0.039604 1:0.0816327 
1 0 0:0.0990099 2:0.0819672 
1 0 0:0.039604 
1 0 0:0.039604 
1 0 
1 0 0:0.00990099 
1 0 0:0.019802 
1 0 0:0.019802 
1 0 0:0.019802 
1 0 0:0.019802 
1 0 0:0.019802 
1 0 0:0.029703 
1 0 0:0.039604 2:0.0491803 
1 0 0:0.0792079 
1 0 0:0.0891089 2:0.0327869 
1 0 0:0.0990099 
1 0 0:0.049505 
1 0 0:0.138614 1:0.122449 
1 0 0:0.148515 
1 0 0:0.039604 
1 0 0:0.148515 2:0.114754 
1 0 0:0.188119 
1 0 0:0.0693069 2:0.0163934 
1 0 0:0.158416 2:0.114754 
1 0 0:0.019802 
1 0 0:0.108911 2:0.0491803 
1 0 
1 0 0:0.00990099 
1 0 
1 0 
1 0 
1 0 
1 0 0:0.019802 
1 0 0:0.118812 
1 0 0:0.029703 1:0.0408163 2:0.0655738 
1 0 0:0.108911 2:0.0163934 
1 0 0:0.049505 
1 0 0:0.138614 1:0.163265 
1 0 0:0.039604 1:0.0612245 
1 0 0:0.019802 1:0.142857 2:0.0163934 
1 0 0:0.138614 2:0.131148 
1 0 0:0.029703 2:0.0327869 
1 0 0:0.0990099 2:0.0819672 
1 0 0:0.029703 
1 0 0:0.039604 
1 0 0:0.148515 2:0.0819672 
1 0 0:0.029703 
1 0 0:0.0594059 1:0.0816327 2:0.0163934 
1 0 0:0.178218 1:0.0204082 
1 0 0:0.326733 2:0.0655738 
1 0 0:0.029703 2:0.0163934 
1 0 0:0.029703 
1 0 0:0.0594059 
1 0 
1 0 0:0.029703 
1 0 0:0.029703 
1 0 0:0.178218 2:0.0327869 
1 0 0:0.019802 
1 0 0:0.039604 
1 0 0:0.029703 
1 0 0:0.128713 2:0.0983607 
1 0 0:0.039604 
1 0 0:0.029703 1:0.142857 
1 0.03382357989712296 0:0.287129 1:0.306122 2:0.0819672 
1 0 0:0.019802 
1 0 0:0.039604 
1 0 0:0.039604 
1 0 0:0.029703 
1 0 0:0.029703 
1 0 0:0.039604 
1 0 0:0.0792079 2:0.0983607 
1 0 0:0.148515 2:0.0163934 
1 0 0:0.118812 1:0.0408163 2:0.0163934 
1 0 0:0.0792079 
1 0 0:0.0792079 2:0.0491803 
1 0 0:0.0693069 1:0.0408163 2:0.196721 
1 0 0:0.0990099 1:0.163265 
1 0 0:0.019802 
1 0 0:0.19802 2:0.0163934 
1 0 0:0.376238 1:0.0408163 
1 0 0:0.039604 
1 0 0:0.039604 
1 0 0:0.019802 
1 0 0:0.0891089 
1 0 0:0.0990099 2:0.0819672 
1 0 0:0.0990099 
1 0 0:0.029703 
1 0 0:0.227723 1:0.0204082 2:0.0163934 
1 0 0:0.326733 1:0.142857 2:0.0327869 
1 0 0:0.108911 1:0.428571 
1 0 0:0.0891089 
1 0 0:0.128713 
1 0 0:0.178218 1:0.0408163 2:0.0655738 
1 0 0:0.029703 
1 0 0:0.039604 1:0.0408163 2:0.0655738 
1 0 0:0.029703 
1 0 0:0.0891089 2:0.0163934 
1 0 0:0.0891089 2:0.0163934 
1 0 0:0.0891089 2:0.0163934 
1 0 0:0.0891089 2:0.0163934 
1 0 0:0.128713 
1 0 0:0.029703 
1 0 0:0.0990099 2:0.0983607 
1 0 0:0.049505 
1 0 0:0.049505 
1 0 0:0.039604 
1 0 0:0.039604 
1 0 0:0.029703 
1 1 0:0.0891089 1:0.0612245 2:0.0983607 
1 0 0:0.029703 
1 0 0:0.029703 
1 0 0:0.039604 
1 0 0:0.029703 
1 0 0:0.366337 1:0.22449 2:0.0163934 
1 0 0:0.0792079 
1 0 0:0.0990099 2:0.0327869 
1 0 0:0.207921 
1 0 
1 0 0:0.039604 
1 0 0:0.049505 
1 0 0:0.049505 
1 0 0:0.0594059 
1 0 0:0.049505 1:0.163265 
1 0 0:0.029703 
1 0 0:0.029703 
1 0 0:0.029703 
1 0 0:0.168317 2:0.0163934 
1 0 0:0.168317 1:0.346939 
1 0.1065957410710604 0:0.148515 1:0.55102 2:0.0655738 
1 0 0:0.029703 
1 0 0:0.019802 
1 0 0:0.0594059 1:0.0204082 
1 0 0:0.049505 2:0.131148 
1 0 0:0.118812 1:0.0408163 2:0.0655738 
1 0 0:0.029703 
1 0 0:0.0594059 
1 0 0:0.029703 
1 0 0:0.029703 2:0.0163934 
1 0 0:0.019802 
1 0 0:0.0990099 2:0.0327869 
1 0 0:0.336634 1:0.183673 
1 0 0:0.019802 2:0.0163934 
1 0 0:0.108911 1:0.0204082 
1 0 0:0.019802 
1 0 0:0.019802 
1 0 0:0.019802 
1 0 0:0.019802 
1 0 0:0.0693069 
0.8837538882087512 0 0:0.514851 1:0.367347 
1 0 0:0.029703 
1 0 0:0.019802 
1 0 0:0.039604 
1 0 0:0.128713 1:0.0408163 2:0.0491803 
1 0 0:0.019802 
1 0 0:0.138614 1:0.0408163 2:0.0655738 
1 0 0:0.029703 
1 0 0:0.0594059 
1 0 0:0.108911 1:0.183673 
1 0 0:0.158416 1:0.0408163 
1 0 0:0.158416 1:0.244898 
1 0 0:0.049505 1:0.122449 
1 0 0:0.019802 
1 0 0:0.00990099 
1 0 0:0.029703 2:0.0163934 
1 0 0:0.049505 
1 0 0:0.0693069 
1 0 0:0.0594059 1:0.102041 
1 0 0:0.148515 2:0.0655738 
1 0 0:0.0891089 
1 0 0:0.128713 1:0.102041 
1 0 0:0.029703 
1 0 0:0.029703 
1 0 0:0.029703 
1 0 0:0.0594059 1:0.163265 2:0.0819672 
1 0 0:0.029703 
1 0 0:0.049505 
1 0 0:0.0792079 1:0.163265 2:0.0163934 
1 0 0:0.0891089 
1 0 0:0.029703 
1 0 0:0.247525 1:0.571429 2:0.0655738 
1 0 0:0.039604 
1 0 0:0.029703 
1 0 0:0.217822 1:0.0204082 2:0.0327869 
1 0 
1 0 0:0.108911 1:0.0204082 2:0.0327869 
1 0 0:0.138614 2:0.114754 
1 0 0:0.415842 1:0.285714 
1 0 0:0.39604 1:0.285714 
1 0 0:0.049505 1:0.122449 
1 0 0:0.0990099 2:0.0819672 
1 0 0:0.049505 1:0.0612245 
1 0 0:0.019802 
1 0 0:0.019802 
1 0 0:0.158416 
1 0 0:0.019802 
1 0 0:0.039604 1:0.0204082 2:0.0983607 
1 0 0:0.376238 1:0.122449 2:0.0163934 
1 0 0:0.019802 
1 0 0:0.019802 
1 0 0:0.029703 1:0.0816327 
1 0 0:0.108911 1:0.0408163 2:0.0163934 
1 0 
1 0 0:0.108911 1:0.0408163 2:0.0491803 
1 0 0:0.108911 2:0.0655738 
1 0 0:0.029703 
1 0 0:0.029703 
1 0 0:0.019802 
1 0 0:0.0891089 1:0.142857 
1 0 0:0.128713 2:0.0655738 
1 0 0:0.029703 
1 0 0:0.168317 2:0.0327869 
1 0 0:0.217822 1:0.44898 
1 0 0:0.0693069 2:0.0163934 
1 0 0:0.029703 
1 0 0:0.019802 
1 0 0:0.029703 
1 0 
1 0 
1 0 0:0.029703 
1 0 0:0.108911 
1 0 0:0.118812 
1 0 0:0.0792079 
1 0 0:0.0792079 1:0.183673 
1 0 0:0.019802 
1 0 0:0.0594059 2:0.0327869 
1 0 0:0.019802 
1 0 0:0.0594059 
1 1 0:0.029703 2:0.163934 
1 0 0:0.237624 
1 0 0:0.148515 2:0.114754 
1 0 0:0.039604 
1 0 0:0.019802 
1 0 0:0.019802 1:0.122449 
1 0 0:0.188119 1:0.163265 
1 0 0:0.029703 
1 0 
1 0 
1 0 
1 0 0:0.019802 
1 0 
1 0 
1 0 0:0.039604 
1 0 
1 0 0:0.019802 
1 0 
1 0 
1 0 
1 0 0:0.029703 
1 0 0:0.158416 1:0.122449 2:0.180328 
1 0 0:0.039604 2:0.0983607 
1 0 0:0.019802 
1 0 0:0.049505 
1 0 0:0.108911 2:0.0655738 
1 0 0:0.00990099 
1 0 0:0.029703 
1 0 0:0.049505 1:0.0408163 2:0.0491803 
1 0 0:0.0792079 2:0.0163934 
1 0 
1 0 0:0.0594059 
1 0 0:0.029703 
1 0 0:0.049505 
1 0 0:0.029703 
1 0 0:0.247525 1:0.0612245 2:0.0163934 
1 0 0:0.029703 
1 0 0:0.049505 
1 0 
1 0 0:0.049505 1:0.0816327 2:0.0491803 
1 0 0:0.039604 
1 0 0:0.029703 1:0.204082 
1 0 0:0.0891089 2:0.0983607 
1 0 0:0.039604 
1 0 0:0.158416 2:0.0163934 
1 0 
1 0 0:0.029703 
1 0 0:0.405941 
1 0 0:0.029703 
1 0 0:0.00990099 1:0.0204082 
1 0 0:0.326733 1:0.0816327 
1 0 0:0.019802 
1 0 0:0.0693069 1:0.0204082 2:0.0655738 
1 0 0:0.0594059 2:0.0163934 
1 0 0:0.029703 
1 0 0:0.108911 2:0.0327869 
1 0 0:0.0990099 
1 0 0:0.0990099 2:0.147541 
1 0 0:0.108911 2:0.0655738 
1 0 0:0.0693069 
1 0 0:0.0792079 
1 0 0:0.0594059 
1 1 0:0.118812 2:0.147541 
1 0 0:0.039604 1:0.0204082 2:0.163934 
1 0 0:0.019802 1:0.0408163 2:0.0327869 
1 0 0:0.029703 
1 0 0:0.029703 
1 0 0:0.029703 2:0.0327869 
1 0 0:0.039604 
1 0 0:0.19802 2:0.0655738 
1 0 0:0.0990099 2:0.131148 
1 0 0:0.029703 
1 0 0:0.0792079 
1 0 0:0.029703 
1 0 0:0.0693069 
1 0 0:0.019802 
1 0 
1 0 
1 0 0:0.049505 
1 0 
1 0 
1 0 0:0.0693069 
1 0 0:0.019802 
1 1 0:0.019802 1:0.44898 
1 0 0:0.019802 2:0.0163934 
1 0 0:0.029703 
1 0 0:0.019802 
1 0 0:0.049505 
1 0 0:0.019802 
1 0 0:0.108911 2:0.0983607 
1 0 0:0.049505 
1 0 0:0.039604 
1 0 0:0.039604 1:0.0204082 
1 0 0:0.029703 
1 0 0:0.049505 
1 0 0:0.029703 
1 0 0:0.029703 
1 0 0:0.207921 
1 0 0:0.207921 2:0.0163934 
1 0 0:0.326733 1:0.142857 
1 0 0:0.0792079 
1 0 0:0.039604 
1 0 0:0.019802 
1 0 
1 0 0:0.00990099 
1 0 0:0.049505 2:0.0327869 
1 0 0:0.019802 
1 0 0:0.00990099 2:0.0163934 
1 0 0:0.168317 2:0.0327869 
1 0 0:0.029703 
1 0 0:0.019802 
1 0 0:0.039604 
1 0 0:0.029703 
1 0 0:0.0594059 1:0.142857 2:0.0163934 
1 0 0:0.108911 2:0.0655738 
1 0 0:0.039604 
1 0 0:0.049505 
1 0 
1 0 
1 0 0:0.178218 1:0.244898 
1 0 0:0.029703 
1 0 0:0.0792079 2:0.196721 
1 0 0:0.029703 
1 0 0:0.019802 
1 0 0:0.0990099 
1 0 
1 0 0:0.029703 
1 0 0:0.356436 1:0.22449 
1 0 0:0.019802 
1 0 0:0.00990099 
1 0 0:0.188119 2:0.0327869 
1 0 0:0.0693069 
1 0 0:0.019802 2:0.0983607 
1 0 0:0.029703 
1 0 0:0.108911 1:0.0408163 2:0.0655738 
1 0 0:0.336634 1:0.183673 
1 0 
1 0 0:0.0693069 1:0.0612245 2:0.196721 
1 0 
1 0 0:0.0693069 2:0.131148 
1 0 0:0.0891089 2:0.0491803 
1 0.03129340910200169 0:0.316832 1:0.163265 2:0.147541 
1 0 0:0.0693069 1:0.0204082 2:0.0327869 
1 0 
1 0 0:0.00990099 
1 0 0:0.118812 1:0.0204082 2:0.0327869 
1 0 0:0.0891089 2:0.0327869 
1 0 0:0.019802 
1 0 0:0.267327 
1 0 0:0.019802 
1 0 0:0.029703 
1 0 0:0.19802 
1 0 0:0.029703 2:0.0163934 
1 0 0:0.029703 
1 0 0:0.0990099 2:0.131148 
1 0 
1 0 0:0.029703 
1 0 0:0.019802 
1 0 0:0.0693069 
1 0 0:0.287129 1:0.122449 
1 0 0:0.049505 
1 0 0:0.029703 
1 0 0:0.029703 2:0.0327869 
1 0 0:0.0891089 1:0.102041 
1 0 0:0.029703 
1 0 0:0.029703 
1 0 0:0.108911 1:0.346939 2:0.0491803 
1 0 0:0.00990099 
1 0 0:0.108911 2:0.0983607 
1 0 0:0.029703 
1 1 0:0.029703 1:0.0408163 2:0.0655738 
1 0 0:0.138614 
1 0 0:0.029703 
1 0 0:0.168317 
1 0 0:0.257426 2:0.0327869 
1 0 0:0.0792079 
1 0 0:0.0792079 2:0.131148 
1 0 0:0.237624 2:0.0163934 
1 0 0:0.0693069 1:0.244898 2:0.0163934 
1 0 0:0.128713 1:0.265306 
1 0 0:0.128713 1:0.0408163 2:0.0819672 
1 0 0:0.039604 
1 0 0:0.029703 
1 1 0:0.118812 2:0.163934 
1 0 0:0.039604 1:0.0408163 2:0.114754 
1 1 0:0.138614 1:0.0408163 2:0.0655738 
1 0 0:0.0594059 
1 0 0:0.039604 1:0.122449 
1 0 0:0.118812 2:0.0655738 
1 0 0:0.039604 
1 0 0:0.049505 
1 0 0:0.039604 
1 0 0:0.0693069 
1 0 0:0.118812 2:0.0491803 
1 0 0:0.029703 2:0.0327869 
1 0 0:0.049505 
1 0 0:0.039604 
1 0 0:0.0990099 
1 0 0:0.019802 
1 0 0:0.039604 
1 0 0:0.029703 
1 0 0:0.039604 
1 0 0:0.237624 
1 0 0:0.0594059 
1 0 0:0.158416 
1 0 0:0.148515 
1 0 0:0.039604 
1 0 0:0.049505 
1 0 0:0.039604 
1 0 0:0.019802 
1 0 0:0.188119 2:0.0983607 
1 0 0:0.158416 
1 0 0:0.049505 
1 0 0:0.029703 1:0.591837 
1 0 0:0.128713 
1 0 
1 0 0:0.019802 
1 0 0:0.00990099 
1 0 0:0.0594059 2:0.0163934 
1 0 0:0.118812 1:0.0612245 2:0.0983607 
1 0 0:0.0594059 
1 0 0:0.029703 
1 0 0:0.019802 1:0.102041 
1 0 0:0.138614 1:0.0204082 2:0.0983607 
1 0 0:0.0792079 
1 0 0:0.019802 
1 0 0:0.019802 
1 0 0:0.0594059 
1 0 0:0.0594059 
1 0 0:0.029703 
1 0 0:0.00990099 
1 0 0:0.019802 
1 0 0:0.039604 2:0.0163934 
1 0 0:0.118812 2:0.0655738 
1 0 0:0.049505 
1 0 0:0.029703 
1 0 0:0.118812 1:0.0204082 
1 0 0:0.0594059 1:0.204082 
1 0 0:0.316832 1:0.0816327 2:0.0163934 
1 0 0:0.0990099 1:0.0408163 2:0.0163934 
1 0 0:0.019802 2:0.0163934 
1 0 0:0.0693069 1:0.204082 
1 0 0:0.0792079 
1 0 0:0.019802 
1 0 0:0.138614 2:0.0819672 
1 0 0:0.049505 1:0.265306 
1 0 0:0.019802 
1 0 0:0.029703 
1 0 0:0.029703 1:0.0204082 2:0.0655738 
1 0 0:0.0891089 2:0.0327869 
1 0 0:0.029703 
1 0 0:0.049505 2:0.0655738 
1 0 0:0.029703 
1 0 0:0.128713 1:0.265306 2:0.0491803 
1 0 0:0.0990099 1:0.0204082 
1 0 0:0.029703 
1 0 0:0.049505 
1 0 0:0.019802 2:0.0163934 
1 0 0:0.0990099 1:0.122449 2:0.0163934 
1 0 0:0.168317 1:0.0612245 
1 0 0:0.0792079 1:0.0408163 2:0.0819672 
1 0 0:0.237624 
1 0 0:0.336634 
1 0 0:0.019802 
1 0 0:0.019802 
1 0 0:0.0594059 
1 0 0:0.257426 
1 0 0:0.188119 
1 0 0:0.148515 
1 0 
1 0 
1 0 
1 0 0:0.019802 
1 0 0:0.049505 
1 0 0:0.178218 2:0.0819672 
1 0 0:0.029703 
1 0 0:0.0594059 
1 0 0:0.0792079 
1 0 0:0.0594059 
1 0 0:0.118812 
1 0 0:0.019802 
1 0 
1 0 
1 0 
1 0 
1 0 
1 0 
1 0 
1 0 
1 0 
1 0 
1 0 0:0.00990099 
1 0 
1 0 
1 0 0:0.019802 
1 0 
1 0 
1 0 
1 0 
1 0 
1 0 0:0.039604 
1 1 0:0.0594059 2:0.114754 
1 0 0:0.039604 
1 0 0:0.019802 
1 0 0:0.0990099 1:0.0204082 2:0.0491803 
1 0 0:0.029703 2:0.0327869 
1 0 0:0.019802 
1 0 0:0.039604 
1 0 0:0.148515 2:0.0983607 
1 0 0:0.049505 
1 0 0:0.019802 
1 0 0:0.19802 2:0.0163934 
1 0 0:0.049505 1:0.0408163 
1 0 0:0.148515 1:0.122449 2:0.131148 
1 0 0:0.019802 
1 0 0:0.0891089 
1 0 0:0.0594059 1:0.142857 2:0.0819672 
1 0 0:0.029703 2:0.0327869 
1 0 0:0.049505 
1 0 0:0.039604 
1 0 0:0.029703 
1 0 0:0.029703 
1 0 0:0.168317 2:0.0655738 
1 0 0:0.0693069 1:0.102041 2:0.0163934 
1 0 0:0.029703 
1 0 0:0.287129 1:0.0408163 2:0.0491803 
1 0 0:0.00990099 2:0.0327869 
1 0 0:0.0792079 
1 0 0:0.0693069 
1 0 0:0.39604 2:0.0655738 
1 0 
1 0 0:0.029703 
1 0 0:0.168317 1:0.183673 
1 0 0:0.019802 2:0.0163934 
1 0 0:0.029703 
1 0 
1 0 0:0.019802 
1 0 0:0.019802 
1 0 0:0.029703 
1 0 0:0.128713 2:0.0655738 
1 0 
1 0 0:0.227723 2:0.0491803 
1 0 0:0.207921 2:0.0327869 
1 0 0:0.118812 1:0.244898 
1 0 0:0.029703 
1 0 0:0.148515 2:0.114754 
1 0 0:0.0792079 1:0.44898 
1 0 0:0.019802 2:0.0491803 
1 0 0:0.0990099 
1 0 
1 0 
1 0 0:0.019802 
1 0 0:0.039604 
1 0 
1 0 0:0.128713 1:0.122449 2:0.0655738 
1 0 0:0.029703 
1 0 0:0.0891089 
1 0 0:0.049505 1:0.0816327 
1 0 0:0.128713 
1 0 0:0.0792079 
1 0 
1 0 0:0.049505 1:0.0612245 2:0.0163934 
1 0 0:0.029703 1:0.0408163 
1 0 0:0.039604 2:0.0327869 
1 0 0:0.0693069 
0.04246767824385218 0 0:0.049505 2:0.0819672 
1 0 0:0.039604 
1 0 0:0.019802 
1 0 0:0.0891089 
1 0 0:0.108911 1:0.102041 
1 0 0:0.0693069 
1 0 0:0.168317 1:0.122449 
1 0 0:0.039604 
1 0 0:0.029703 
1 0 0:0.148515 
1 0 0:0.029703 
1 0 0:0.029703 
1 0 0:0.019802 
1 0 0:0.039604 1:0.0408163 
1 0 0:0.148515 2:0.0983607 
1 0 0:0.0891089 1:0.163265 2:0.0327869 
1 0 0:0.029703 
1 0 0:0.019802 
1 0 0:0.0792079 2:0.0983607 
1 0 0:0.019802 
1 0 0:0.039604 
1 0 0:0.029703 
1 0 0:0.039604 
1 0 0:0.029703 
1 0 0:0.0792079 2:0.0327869 
1 0 0:0.019802 
1 0 0:0.019802 
1 0 
1 0 
1 0 
1 0 0:0.019802 
1 0 
1 0 
1 0 0:0.108911 2:0.131148 
1 0 0:0.0693069 1:0.44898 
1 0 0:0.366337 1:0.0204082 2:0.0327869 
1 0 0:0.0891089 1:0.0816327 
1 0 0:0.0990099 1:0.102041 
1 0 0:0.029703 
1 0 0:0.019802 
1 0 0:0.188119 
1 0 0:0.039604 
1 0 0:0.019802 
1 0 0:0.019802 
1 0 0:0.039604 
1 0 0:0.00990099 
1 1 0:0.0990099 1:0.0612245 2:0.0491803 
1 0 0:0.019802 
1 0 0:0.029703 1:0.0408163 
1 0 0:0.019802 
1 0 0:0.0990099 
1 0 0:0.019802 
1 0 0:0.326733 1:0.489796 
1 0 0:0.049505 
1 0 0:0.277228 2:0.0327869 
1 0 0:0.039604 2:0.0327869 
1 0 0:0.108911 2:0.0983607 
1 0 0:0.049505 1:0.0408163 
1 0 0:0.049505 
1 0 0:0.0792079 
1 1 0:0.0990099 1:0.0612245 2:0.0983607 
1 0 0:0.158416 1:0.163265 
1 0 0:0.029703 2:0.147541 
1 0 0:0.0792079 
1 0 0:0.0990099 1:0.122449 
1 0 
1 0 0:0.029703 
1 0 0:0.19802 1:0.122449 
1 0 0:0.0891089 1:0.0816327 
1 0 0:0.108911 
1 0 0:0.049505 
1 0 0:0.188119 1:0.0816327 2:0.0163934 
1 0 0:0.0693069 2:0.131148 
1 0 0:0.0990099 2:0.0491803 
1 0 0:0.019802 
1 0 0:0.029703 
1 0 0:0.029703 
1 0 0:0.148515 1:0.102041 
1 0 0:0.108911 2:0.0983607 
1 0 0:0.0693069 1:0.0816327 2:0.0327869 
1 0 0:0.019802 2:0.0163934 
1 0 0:0.029703 1:0.0408163 
1 0 0:0.039604 2:0.0327869 
1 0 0:0.108911 2:0.0163934 
1 0 0:0.0792079 1:0.0408163 2:0.0491803 
1 0 0:0.049505 
1 0 0:0.029703 2:0.0491803 
1 0 0:0.029703 
1 1 0:0.405941 1:0.204082 2:0.0655738 
1 0 0:0.178218 2:0.0819672 
1 0 0:0.019802 
1 0 0:0.019802 
1 0 0:0.0891089 
1 0 0:0.0594059 
1 0 0:0.217822 
1 0 0:0.0792079 
1 0 0:0.049505 2:0.0491803 
1 0 0:0.029703 
1 0 0:0.039604 
1 0 0:0.0990099 2:0.131148 
1 0 0:0.0792079 
1 0 0:0.0990099 
1 0 0:0.029703 
1 0 0:0.039604 
1 0 0:0.029703 
1 0 0:0.0891089 
1 0 0:0.158416 
1 0 0:0.138614 2:0.0491803 
1 0 0:0.039604 
1 0 0:0.019802 
1 0 0:0.336634 2:0.0327869 
1 0 0:0.019802 
1 0 0:0.029703 
1 0 0:0.029703 
1 0 0:0.019802 2:0.0327869 
1 0 0:0.00990099 
1 0 0:0.247525 1:0.571429 2:0.0655738 
1 0 0:0.029703 
1 0 0:0.039604 
1 0 0:0.207921 1:0.122449 
1 0 0:0.0792079 
1 0 0:0.0792079 
1 0 0:0.019802 
1 0 0:0.0792079 2:0.0983607 
1 0 0:0.019802 
1 0 0:0.029703 
1 0 0:0.019802 
1 0 0:0.029703 1:0.0408163 2:0.0163934 
1 0 0:0.19802 1:0.163265 
1 0 0:0.108911 2:0.163934 
1 0 0:0.029703 
1 0 0:0.158416 
1 0 0:0.039604 
1 0 0:0.0594059 
1 0 0:0.049505 
1 0 0:0.0891089 
1 0 0:0.267327 1:0.0816327 
1 0 0:0.138614 
1 0 0:0.019802 
1 0 0:0.029703 
1 0 0:0.108911 2:0.114754 
1 0 0:0.0990099 1:0.163265 
1 0 0:0.118812 1:0.0612245 
1 0 0:0.019802 2:0.0163934 
1 0 0:0.217822 1:0.0204082 2:0.196721 
1 0 0:0.039604 
1 0 0:0.0792079 1:0.0204082 2:0.0327869 
1 0 
1 0 
1 0 0:0.029703 
1 0 0:0.019802 
1 0 0:0.029703 
1 0 0:0.138614 
1 0 0:0.039604 
1 0 0:0.029703 
1 0 0:0.0990099 
1 0 0:0.207921 1:0.122449 2:0.0327869 
1 0 0:0.00990099 
1 0 0:0.0990099 1:0.0204082 2:0.0163934 
1 0 0:0.0693069 
1 0 0:0.039604 
1 0 0:0.118812 1:0.142857 
1 0 0:0.029703 
1 0 0:0.019802 
1 0 0:0.118812 1:0.265306 2:0.0983607 
1 0.06370996808225526 0:0.19802 1:0.387755 2:0.0163934 
1 0 0:0.019802 
1 0 0:0.029703 
1 0 0:0.049505 2:0.0327869 
1 0 0:0.029703 
1 0 0:0.247525 1:0.204082 
1 0 0:0.029703 
1 0 0:0.029703 
1 0 0:0.049505 
1 0 0:0.108911 
1 0 0:0.019802 
1 0 0:0.138614 2:0.0655738 
1 0 0:0.049505 
1 0 0:0.0594059 1:0.0816327 
1 0 0:0.029703 
1 0 0:0.108911 
1 0.04123472689997656 0:0.49505 2:0.114754 
1 0 0:0.029703 
1 0 0:0.019802 
1 0 0:0.019802 
1 0 
1 0 0:0.118812 1:0.0204082 
1 0 
1 0 0:0.178218 
1 0 0:0.138614 
1 0 0:0.029703 
1 0 0:0.00990099 2:0.0983607 
1 0 0:0.188119 
1 0 0:0.0693069 1:0.0408163 
1 0 0:0.039604 
1 1 0:0.128713 1:0.0204082 
1 0 0:0.029703 2:0.0983607 
1 0 0:0.029703 
1 0 0:0.019802 
1 0 0:0.019802 
1 0 0:0.029703 
1 0 0:0.049505 
1 1 0:0.0594059 2:0.0655738 
1 0 0:0.019802 
1 0 0:0.019802 
1 0 0:0.039604 1:0.0816327 2:0.0655738 
1 0 0:0.188119 2:0.0163934 
1 0 0:0.0891089 2:0.0655738 
1 0 0:0.019802 
1 0 0:0.019802 
1 0 0:0.207921 1:0.0204082 
1 0 0:0.108911 1:0.0612245 
1 0 0:0.0693069 
1 0 0:0.029703 
1 0 0:0.138614 
1 0 0:0.049505 
1 0 0:0.049505 
1 0 0:0.148515 2:0.196721 
1 0 0:0.19802 1:0.142857 
1 0 0:0.128713 2:0.0819672 
1 0 0:0.138614 
1 0 0:0.178218 1:0.0408163 2:0.0491803 
1 0 0:0.118812 1:0.163265 
1 0 0:0.108911 1:0.122449 2:0.0655738 
1 0 0:0.0891089 1:0.0612245 2:0.0655738 
1 0 0:0.039604 1:0.0204082 
1 0 0:0.118812 1:0.0204082 2:0.0163934 
1 0 0:0.019802 
1 0 0:0.019802 
1 0 0:0.039604 1:0.0408163 
1 0 0:0.0594059 
1 0 0:0.0792079 
1 0 0:0.039604 
1 0 0:0.019802 
1 0 0:0.019802 
1 0 
1 0 0:0.019802 
1 0 0:0.0792079 2:0.131148 
1 0 0:0.029703 
1 0 0:0.049505 
1 0 0:0.039604 2:0.196721 
1 0 0:0.019802 
1 0 
1 0 0:0.029703 
1 0 0:0.148515 2:0.0491803 
1 0 0:0.029703 1:0.122449 
1 0 0:0.019802 
1 1 0:0.118812 2:0.114754 
1 0 0:0.019802 
1 0 0:0.029703 1:0.0204082 
1 0 0:0.049505 1:0.0612245 
1 0 0:0.0792079 1:0.0408163 2:0.131148 
1 0 0:0.029703 2:0.0983607 
1 0 0:0.029703 
1 0 0:0.029703 1:0.122449 
1 0 0:0.227723 
1 0 0:0.168317 1:0.0408163 2:0.0491803 
1 0 0:0.029703 
1 0 0:0.029703 
1 0 0:0.019802 
1 0 0:0.19802 
1 0 0:0.029703 
1 0 0:0.019802 
1 0 0:0.0792079 2:0.0163934 
1 0 0:0.029703 
1 0 0:0.029703 
1 0 0:0.019802 
1 0 0:0.019802 
1 0 0:0.019802 
1 0 0:0.039604 1:0.22449 2:0.0327869 
1 0 0:0.019802 
1 0 0:0.128713 
1 0 0:0.0792079 1:0.163265 2:0.0163934 
1 0 0:0.108911 2:0.131148 
1 0 0:0.019802 
1 0 0:0.029703 
1 0 0:0.029703 
1 0 0:0.049505 
1 0 0:0.029703 
1 0 0:0.019802 
1 0 0:0.029703 
1 0 0:0.019802 
1 0 0:0.019802 
1 0 0:0.029703 
1 0 0:0.029703 
1 0 0:0.029703 
1 0 0:0.019802 
1 0 0:0.0693069 
1 0 0:0.019802 
1 0 0:0.019802 
1 0 0:0.0792079 
1 0 0:0.029703 
1 0 0:0.019802 
1 0 0:0.039604 2:0.114754 
1 0 0:0.178218 1:0.428571 2:0.0491803 
1 0 0:0.0891089 1:0.0816327 2:0.0327869 
1 0 0:0.029703 
1 0 0:0.019802 
1 0 
1 0 0:0.0693069 1:0.0408163 
1 0 0:0.029703 
1 0 0:0.168317 
1 0 0:0.039604 
1 0 0:0.019802 
1 0 0:0.019802 
1 0 0:0.039604 2:0.114754 
1 0 0:0.039604 2:0.0163934 
1 0 0:0.049505 1:0.0612245 2:0.0819672 
1 0 0:0.049505 2:0.0163934 
1 0 0:0.029703 1:0.0408163 
1 0 0:0.0693069 1:0.0204082 2:0.0491803 
1 0 0:0.029703 
1 0 0:0.029703 
1 0 0:0.039604 2:0.0327869 
1 0 0:0.148515 2:0.0983607 
1 0 0:0.108911 1:0.0612245 
1 0 0:0.108911 
1 0.03883550755931139 0:0.029703 1:0.0408163 2:0.114754 
1 0 0:0.0891089 
1 0 0:0.0594059 1:0.102041 
1 0 0:0.029703 
1 0.5693282822971913 0:0.029703 1:0.285714 2:0.229508 
1 0 0:0.039604 
1 0 0:0.029703 
1 0 0:0.019802 
1 0 0:0.118812 
1 1 0:0.0792079 1:0.204082 
1 0 0:0.029703 
1 0 0:0.168317 1:0.122449 
1 0 0:0.039604 
1 0 0:0.029703 
1 0 0:0.0792079 1:0.0816327 
1 0 0:0.029703 
1 0 0:0.029703 
1 0 
1 1 0:0.0990099 2:0.114754 
1 0 0:0.0594059 
1 0 0:0.039604 
1 0 0:0.049505 
1 0 0:0.158416 
1 0 0:0.029703 
1 0 0:0.00990099 
1 0 0:0.049505 
1 0 0:0.019802 
1 0 0:0.188119 2:0.147541 
1 0 0:0.148515 1:0.0408163 2:0.0655738 
1 0 0:0.019802 
1 0.03780706902724713 0:0.0693069 1:0.0816327 2:0.163934 
1 0 0:0.128713 2:0.0327869 
1 0 0:0.0990099 2:0.0655738 
1 0 0:0.237624 
1 0 0:0.237624 
1 0 0:0.138614 1:0.122449 
1 0 0:0.019802 
1 0 0:0.158416 1:0.122449 2:0.180328 
1 0 0:0.148515 2:0.147541 
1 0 0:0.039604 
1 0 0:0.049505 
1 0 0:0.0594059 2:0.131148 
1 0 0:0.207921 1:0.346939 2:0.0655738 
1 0 0:0.207921 2:0.0491803 
1 0 0:0.0594059 
1 0 0:0.0891089 1:0.0612245 2:0.0327869 
1 0 0:0.029703 
1 0 0:0.168317 
1 0 0:0.019802 
1 0 0:0.039604 
1 0 0:0.138614 2:0.0163934 
1 0 0:0.019802 
1 0 0:0.0792079 
1 0 0:0.0792079 
1 0 0:0.108911 
1 0 0:0.039604 1:0.163265 
1 0 0:0.0594059 1:0.102041 
1 0 0:0.0792079 2:0.131148 
1 0 0:0.00990099 
1 0 0:0.0693069 
1 0 0:0.019802 
1 0 0:0.029703 
1 0 0:0.019802 
1 0 0:0.019802 
1 0 0:0.128713 2:0.0491803 
1 0 0:0.0594059 2:0.0163934 
1 0 0:0.0990099 
1 0 0:0.019802 
1 0 0:0.039604 
1 0 0:0.0891089 2:0.131148 
1 0 0:0.029703 
1 0 0:0.019802 
1 0 0:0.029703 
1 0 0:0.029703 
1 0 0:0.237624 1:0.0204082 
1 0 0:0.138614 2:0.131148 
1 0.01888503842786973 0:0.108911 1:0.163265 2:0.0819672 
1 0 0:0.029703 
1 0 
1 0 0:0.019802 1:0.0408163 
1 0 0:0.029703 
1 0 0:0.0693069 1:0.22449 2:0.0327869 
1 1 0:0.039604 1:0.204082 2:0.0163934 
1 0 0:0.019802 
1 0 0:0.049505 
1 0 0:0.029703 
1 0 0:0.0891089 2:0.0327869 
1 0 0:0.00990099 2:0.0491803 
1 0 0:0.138614 
1 0 0:0.0891089 2:0.0327869 
1 0 0:0.0990099 
1 0 0:0.00990099 
1 0 0:0.029703 1:0.163265 
1 0 0:0.257426 1:0.0612245 2:0.0819672 
1 0 0:0.049505 
1 0 0:0.0891089 1:0.163265 2:0.0655738 
1 0.09299773394347352 0:0.0891089 2:0.245902 
1 0 0:0.0792079 2:0.0655738 
1 0 0:0.039604 
1 0 0:0.0594059 2:0.0163934 
1 0 0:0.0891089 
1 0 0:0.0594059 1:0.0408163 
1 0 0:0.039604 2:0.0491803 
1 1 0:0.0693069 1:0.142857 2:0.0163934 
1 0 0:0.039604 
1 0 0:0.049505 2:0.0819672 
1 0 0:0.049505 
1 0 0:0.029703 
1 0 0:0.217822 
1 0 
1 0 
1 0 0:0.049505 1:0.0408163 2:0.0655738 
1 0 0:0.118812 1:0.0816327 2:0.114754 
1 0 0:0.019802 
1 0 0:0.019802 
1 0 0:0.039604 1:0.0816327 2:0.0491803 
1 0 0:0.0891089 
1 0 0:0.039604 2:0.0163934 
1 0 0:0.029703 
1 0 0:0.039604 
1 0 0:0.039604 
1 0 0:0.415842 1:0.102041 2:0.0163934 
1 0 0:0.039604 1:0.0816327 2:0.147541 
1 0 0:0.019802 
1 0 0:0.029703 
1 0 0:0.128713 2:0.0327869 
1 0 0:0.029703 
1 0.01997999543824387 0:0.0792079 1:0.0816327 2:0.114754 
1 1 0:0.326733 1:0.0816327 
1 0 0:0.0693069 
1 0 0:0.118812 
1 0 0:0.029703 
1 0 0:0.029703 
1 0 0:0.019802 1:0.0408163 
1 0 0:0.0891089 1:0.183673 
1 0 0:0.019802 
1 0 0:0.118812 
1 0 0:0.029703 
1 0 0:0.118812 
1 0 0:0.514851 2:0.0163934 
1 0 0:0.0990099 1:0.0204082 
1 0 0:0.188119 2:0.0655738 
1 0 0:0.029703 
1 0 0:0.049505 
1 0 0:0.039604 1:0.244898 2:0.0327869 
1 0 0:0.019802 
1 0 0:0.0594059 1:0.0612245 
1 0 0:0.029703 
1 0 0:0.0594059 
1 0 0:0.0693069 2:0.0163934 
1 0 0:0.019802 
1 0 0:0.019802 
1 0 0:0.029703 
1 0 0:0.049505 
1 0 
1 0 0:0.108911 1:0.142857 
1 0 0:0.00990099 
1 0 0:0.0693069 
1 0 0:0.029703 
1 0 0:0.049505 1:0.0408163 
1 0 0:0.019802 
1 0 0:0.029703 
1 0 0:0.118812 2:0.0655738 
1 0 
1 0 0:0.267327 1:0.0408163 
1 0 0:0.0792079 2:0.0819672 
1 0 0:0.128713 2:0.0983607 
1 0 0:0.039604 
1 0 0:0.0990099 1:0.0408163 2:0.0655738 
1 0 0:0.188119 1:0.0816327 2:0.0327869 
1 0.03662851112434003 0:0.0891089 1:0.102041 2:0.131148 
1 0 0:0.019802 
1 0 0:0.019802 
1 0 0:0.039604 
1 0 0:0.158416 1:0.0408163 
1 0 0:0.0891089 2:0.0983607 
1 0 0:0.0594059 
1 0 0:0.029703 
1 0 0:0.019802 
1 0 0:0.019802 
1 0 0:0.029703 2:0.0655738 
1 0 0:0.029703 
1 0 0:0.019802 
1 0 0:0.019802 
1 0 0:0.0594059 1:0.0408163 
1 0 0:0.0990099 1:0.183673 
1 0 0:0.0594059 
1 0 
1 0 0:0.188119 2:0.147541 
1 0 0:0.0594059 
1 0 0:0.049505 
1 0 0:0.019802 
1 0 0:0.0594059 
1 0 0:0.049505 1:0.0408163 
1 0 0:0.0792079 
1 0 0:0.0990099 
1 0 0:0.019802 
1 0 0:0.128713 2:0.0163934 
1 0 0:0.019802 
1 0 0:0.0693069 2:0.0491803 
1 0 0:0.029703 
1 0 0:0.019802 
1 0 0:0.376238 
1 0 0:0.039604 
1 0 
1 0 
1 0 0:0.049505 
1 0 0:0.039604 
1 0 0:0.049505 1:0.0612245 
1 0 0:0.128713 1:0.0408163 
1 0 0:0.049505 
1 0 0:0.039604 
1 0 0:0.217822 1:0.0204082 
1 0 0:0.0594059 2:0.0491803 
1 0 0:0.108911 
1 0 
1 0 
1 0 0:0.0792079 2:0.0327869 
1 0 0:0.039604 1:0.0408163 
1 0 0:0.029703 
1 0 0:0.029703 
1 0 0:0.029703 
1 0 0:0.247525 2:0.0327869 
1 0 0:0.029703 
1 0 0:0.029703 
1 0 0:0.0693069 2:0.196721 
1 0 0:0.029703 
1 0 0:0.108911 2:0.0819672 
1 0 0:0.178218 2:0.0327869 
1 0 0:0.039604 2:0.0327869 
1 0 0:0.039604 1:0.0408163 
1 0 0:0.0594059 1:0.0816327 2:0.0163934 
1 0 0:0.108911 2:0.0163934 
1 0 0:0.019802 
1 0 0:0.178218 1:0.0408163 2:0.0819672 
1 0 0:0.049505 1:0.0408163 2:0.0983607 
1 0 0:0.0891089 2:0.0983607 
1 0 0:0.019802 
1 0 0:0.019802 
1 0 0:0.019802 
1 0 
1 0 0:0.019802 
1 0 
1 0 0:0.019802 
1 0 0:0.306931 1:0.0612245 
1 0 0:0.039604 
1 0 0:0.108911 1:0.244898 
1 0 0:0.029703 
1 0 0:0.029703 1:0.0204082 
1 0 0:0.029703 
1 0.201720360653431 0:0.00990099 2:0.131148 
1 0 0:0.029703 1:0.0612245 
1 0 0:0.019802 2:0.0163934 
1 0 0:0.019802 
1 0 0:0.019802 
1 0 0:0.188119 
0.7899999821276525 1 0:0.0594059 2:0.114754 
1 0 0:0.148515 
1 0 0:0.0693069 1:0.142857 
1 0 0:0.0891089 2:0.0163934 
1 0 0:0.029703 
1 0 0:0.00990099 
1 0 0:0.019802 
1 0 0:0.168317 1:0.265306 2:0.0163934 
1 0 0:0.0693069 
1 0 0:0.029703 
1 0 0:0.049505 
1 0 
1 0 0:0.019802 
1 0.1924283995618037 0:0.019802 2:0.0983607 
1 0 0:0.019802 
1 0 0:0.39604 1:0.285714 
1 0 0:0.0891089 2:0.0983607 
1 0 0:0.029703 
1 0 0:0.039604 
1 0 0:0.049505 
1 0 0:0.019802 
1 0 0:0.29703 1:0.122449 
1 0 0:0.029703 
1 0 0:0.019802 
1 0 0:0.019802 
1 0 0:0.0792079 
1 0 0:0.029703 
1 0 0:0.376238 2:0.0163934 
1 0 0:0.148515 
1 0 0:0.227723 1:0.408163 
1 0 0:0.029703 
1 0 0:0.148515 2:0.0327869 
1 0 0:0.019802 2:0.0819672 
1 0 0:0.118812 2:0.0655738 
1 0 0:0.0792079 
1 0 0:0.039604 1:0.0408163 
1 0 0:0.118812 2:0.0327869 
1 0 0:0.039604 
1 0 0:0.019802 
1 0 0:0.039604 1:0.142857 
1 0 0:0.029703 
1 0 0:0.257426 
1 0 0:0.188119 
1 0 0:0.049505 
1 0 0:0.029703 
1 0 0:0.039604 
1 0 0:0.0891089 1:0.0816327 2:0.0491803 
1 0 0:0.0693069 1:0.0408163 2:0.0163934 
1 0 0:0.029703 
1 0 0:0.019802 
1 0 0:0.118812 
1 0 0:0.049505 
1 0 0:0.039604 1:0.0204082 2:0.0163934 
1 0 0:0.108911 1:0.183673 
1 0 0:0.029703 
1 0 0:0.029703 
1 0 0:0.00990099 1:0.0204082 
1 0 0:0.029703 
1 0 0:0.029703 
1 1 0:0.019802 1:0.0408163 2:0.0163934 
1 0 0:0.029703 1:0.163265 
1 0 0:0.0792079 
1 0 0:0.0594059 
1 0 0:0.0594059 1:0.0816327 2:0.0327869 
1 0 0:0.108911 1:0.244898 
1 0 0:0.039604 
1 0 0:0.118812 1:0.244898 2:0.0819672 
1 0 0:0.0792079 
1 0 0:0.029703 
1 0 0:0.029703 
1 0 0:0.019802 
1 0 0:0.019802 
1 0 0:0.039604 
1 0 0:0.039604 
1 0 0:0.039604 
1 0 0:0.019802 
1 0 0:0.029703 
1 0 0:0.118812 2:0.0983607 
1 0 0:0.544554 1:0.0204082 
1 0.06229852348940233 0:0.207921 1:0.346939 2:0.0327869 
1 0 0:0.178218 1:0.142857 2:0.0163934 
1 0 0:0.0693069 
1 0 0:0.049505 
1 0 0:0.0594059 1:0.183673 2:0.147541 
1 0 0:0.039604 
1 0 0:0.039604 2:0.0163934 
1 0 0:0.049505 1:0.0816327 2:0.0327869 
1 0 0:0.019802 
0.7827391747454049 0 0:0.19802 1:0.122449 2:0.0491803 
1 0 0:0.0594059 2:0.0163934 
1 0 0:0.0792079 
1 0 0:0.0891089 2:0.147541 
1 0 0:0.019802 
1 0 0:0.0990099 1:0.0408163 
1 0 0:0.0594059 
1 0 
1 0 0:0.029703 
1 0 0:0.049505 
1 0 0:0.0693069 
1 0 0:0.0891089 1:0.0816327 
1 0 0:0.029703 
1 0 0:0.019802 
1 0 0:0.0693069 
1 0 0:0.029703 2:0.0819672 
1 1 0:0.0693069 1:0.0204082 
1 0 0:0.019802 
1 0 0:0.168317 
1 0 
1 0.3448990231701132 0:0.514851 1:0.285714 2:0.0327869 
1 0 0:0.019802 
1 0 0:0.138614 2:0.0163934 
1 0 0:0.029703 
1 0 0:0.039604 
1 0 0:0.178218 
1 0 0:0.029703 
1 0 
1 0 
1 0 
1 0 0:0.029703 
1 0 0:0.178218 
1 0 0:0.019802 
1 0 0:0.178218 1:0.0612245 2:0.0655738 
1 0 0:0.0990099 1:0.408163 
1 0 0:0.039604 
1 0 0:0.049505 1:0.163265 
1 0 0:0.029703 
1 0 0:0.029703 2:0.0983607 
1 0 0:0.019802 
1 0 0:0.039604 
1 0 0:0.0891089 2:0.0163934 
1 0.069878386262982 0:0.029703 2:0.147541 
1 0 0:0.168317 2:0.0655738 
1 0 0:0.049505 1:0.122449 2:0.0491803 
1 0 0:0.019802 
1 0 0:0.029703 
1 0 0:0.415842 1:0.306122 
1 0 0:0.168317 1:0.0408163 2:0.0655738 
1 0 0:0.039604 
1 0 0:0.019802 
1 0 0:0.00990099 
1 0 0:0.257426 2:0.0491803 
1 0 0:0.138614 2:0.131148 
1 0 0:0.0693069 2:0.0491803 
1 0 0:0.029703 
1 0 0:0.118812 1:0.0204082 
1 0 0:0.019802 
1 1 0:0.039604 1:0.0612245 2:0.213115 
1 0 0:0.019802 
1 0 0:0.019802 
1 0 0:0.029703 
1 0 0:0.019802 
1 0 0:0.049505 
1 0 0:0.019802 
1 0 0:0.029703 1:0.0408163 
1 0 0:0.019802 
1 0 0:0.0693069 1:0.0204082 2:0.0327869 
1 0 0:0.019802 
1 0 0:0.029703 
1 0 0:0.049505 2:0.196721 
1 0 0:0.0594059 1:0.122449 
1 0 0:0.019802 
1 0 0:0.138614 2:0.0327869 
1 0 0:0.128713 2:0.114754 
1 0 0:0.019802 
1 0 0:0.0594059 
1 0 0:0.019802 
1 0 0:0.039604 
1 0 0:0.227723 
1 0 0:0.029703 1:0.244898 
1 0 0:0.029703 
1 0 0:0.019802 
1 0 0:0.029703 
1 0 0:0.207921 
1 0 0:0.158416 1:0.0612245 
1 0 0:0.019802 
1 0 0:0.108911 2:0.0655738 
1 0 0:0.0693069 
1 0 0:0.039604 
1 0 0:0.019802 
1 0 0:0.039604 
1 0 0:0.029703 
1 0 0:0.0792079 1:0.0612245 2:0.0491803 
1 0 0:0.029703 
1 0 0:0.128713 
1 0 0:0.039604 
1 0 0:0.168317 
1 0 0:0.0792079 2:0.0819672 
1 0 0:0.029703 
1 0 0:0.128713 2:0.0983607 
1 0 0:0.019802 
1 0 0:0.138614 1:0.0816327 2:0.0819672 
1 0 0:0.029703 
1 0 0:0.0792079 1:0.0408163 
1 0 0:0.019802 
1 0 0:0.029703 
1 0 0:0.029703 
1 0 0:0.0990099 2:0.0655738 
1 0 0:0.108911 1:0.0612245 2:0.0983607 
1 0 0:0.039604 
1 0 0:0.039604 1:0.204082 
1 0 0:0.049505 2:0.0163934 
1 0 0:0.029703 
1 0 0:0.019802 
1 1 0:0.247525 2:0.0655738 
1 0 0:0.029703 
1 0 0:0.049505 1:0.0408163 2:0.0819672 
1 0 0:0.019802 
1 0 0:0.049505 
1 0 0:0.00990099 
1 0 0:0.0594059 
1 0 0:0.128713 2:0.0327869 
1 0 0:0.029703 
1 0 0:0.039604 
1 0 0:0.049505 
1 0 0:0.0990099 2:0.131148 
1 0 0:0.039604 
1 0 0:0.049505 1:0.244898 2:0.0163934 
1 0 0:0.049505 
1 0 0:0.029703 1:0.0408163 
1 0 0:0.019802 
1 0 0:0.029703 
1 0 0:0.029703 
1 0 0:0.0891089 
1 0 0:0.0594059 
1 0 0:0.0891089 2:0.0983607 
1 0 0:0.148515 1:0.0408163 2:0.0819672 
1 0 0:0.108911 1:0.0408163 2:0.0655738 
1 0 0:0.039604 
1 0 0:0.0594059 1:0.122449 2:0.344262 
1 0 0:0.039604 
1 0 0:0.039604 
1 0 0:0.0693069 
1 0 0:0.0594059 
1 0 0:0.108911 
1 0 0:0.138614 1:0.122449 
1 0 0:0.0891089 2:0.0491803 
1 0 0:0.029703 
1 0 0:0.148515 1:0.0204082 
1 0 0:0.049505 2:0.0163934 
1 0 0:0.049505 
1 0 0:0.0792079 
1 0 0:0.039604 
1 0 0:0.0594059 
1 0 0:0.108911 2:0.131148 
1 0 0:0.029703 
1 0 0:0.108911 2:0.0491803 
1 0 0:0.0693069 
1 0 
1 0 0:0.029703 
1 0 0:0.039604 
1 0 0:0.0891089 
1 0 0:0.019802 
1 0 0:0.0594059 
1 0 0:0.346535 2:0.0163934 
1 0 0:0.0693069 
1 0 0:0.029703 
1 0 0:0.029703 
1 0 0:0.00990099 
1 0 0:0.029703 
1 0 0:0.019802 
1 0 0:0.039604 
1 0 0:0.019802 
1 0 0:0.188119 1:0.183673 
1 0 0:0.0594059 
1 0 0:0.0693069 2:0.131148 
1 0 0:0.039604 
1 0 0:0.148515 1:0.0816327 2:0.0655738 
1 0 0:0.029703 
1 0 0:0.029703 
1 0 0:0.039604 
1 0 0:0.0594059 
1 0 0:0.0891089 2:0.0163934 
1 0 0:0.524752 1:0.0612245 
1 0 0:0.0594059 
1 0 0:0.0792079 
1 0 0:0.029703 2:0.0655738 
1 0 0:0.108911 1:0.163265 2:0.196721 
1 0 0:0.019802 
1 0 0:0.108911 
1 0 0:0.019802 
1 0 0:0.0693069 
1 0 0:0.0990099 2:0.0819672 
1 0 
1 0 0:0.0693069 2:0.0819672 
1 0 0:0.019802 
1 0 0:0.0693069 1:0.0408163 2:0.0491803 
1 0 0:0.118812 1:0.0816327 
1 0 0:0.0594059 
1 0 0:0.019802 2:0.0163934 
1 0 0:0.029703 
1 0 0:0.029703 
1 0 0:0.049505 2:0.131148 
1 0 0:0.029703 
1 0 0:0.178218 2:0.0491803 
1 0 0:0.029703 2:0.0819672 
1 0 0:0.019802 
1 0 0:0.029703 1:0.183673 
1 0 0:0.029703 
1 0 0:0.039604 
1 0 0:0.029703 2:0.0163934 
1 0 0:0.0792079 2:0.0327869 
1 0 0:0.128713 1:0.163265 2:0.0655738 
1 0 0:0.029703 
1 0 0:0.118812 2:0.0491803 
1 0 0:0.019802 
1 0 0:0.207921 2:0.196721 
1 0 0:0.118812 
0.3029019338585752 0 0:0.178218 1:0.122449 
1 0 0:0.0594059 1:0.0612245 2:0.0655738 
1 0 0:0.108911 
1 0 0:0.039604 
1 0 0:0.019802 
1 0 0:0.029703 
1 0 0:0.0891089 2:0.0163934 
1 0 0:0.019802 
1 0 0:0.019802 
1 0 0:0.029703 
1 0 0:0.0891089 2:0.0163934 
1 0 0:0.029703 
1 0 0:0.049505 
1 0 0:0.019802 
1 0 
1 0 0:0.019802 
1 0 0:0.029703 
1 0 
1 0 
1 0 
1 0 0:0.019802 
1 0 
1 0 0:0.039604 
1 0 
1 0 0:0.148515 
1 0 0:0.029703 
1 0 0:0.029703 
1 0 0:0.029703 
1 0 0:0.00990099 
1 0 0:0.0693069 
1 0 0:0.0693069 
1 0 0:0.118812 1:0.0408163 
1 0 0:0.0792079 1:0.163265 
1 0 0:0.039604 
1 0 0:0.019802 
1 0 0:0.029703 
1 0 0:0.0693069 
1 0 0:0.217822 1:0.122449 
1 0 0:0.0990099 
1 0 0:0.019802 
1 0 0:0.039604 
1 0 0:0.0990099 
1 0 0:0.049505 
1 0 0:0.049505 1:0.142857 
1 0 0:0.039604 
1 0 0:0.178218 1:0.102041 
1 0 0:0.039604 
1 0 0:0.019802 
1 0 0:0.277228 1:0.489796 
1 0 0:0.128713 1:0.0408163 2:0.114754 
1 0 0:0.039604 1:0.0408163 
1 0 0:0.039604 
1 0 0:0.029703 
1 0 0:0.0792079 1:0.0408163 2:0.0491803 
1 0 0:0.0792079 2:0.0327869 
1 0 0:0.0891089 
1 0 0:0.0891089 1:0.244898 2:0.0163934 
1 0 0:0.039604 
1 0 0:0.029703 
1 0 0:0.019802 
1 0 0:0.0693069 2:0.0491803 
1 0 0:0.366337 
1 0 0:0.247525 1:0.102041 
1 0 0:0.029703 
1 0 0:0.029703 1:0.0408163 
1 0 0:0.128713 
1 1 0:0.158416 1:0.22449 
1 1 0:0.0792079 1:0.0204082 2:0.163934 
1 0 0:0.217822 1:0.102041 
1 0 0:0.019802 1:0.102041 2:0.0163934 
1 0 0:0.029703 
1 0 0:0.118812 2:0.0655738 
1 0 0:0.356436 
1 0 0:0.029703 
1 0 0:0.0891089 2:0.196721 
1 0 0:0.019802 
1 0 0:0.019802 
1 0 0:0.039604 
1 0 0:0.0594059 
1 0 
1 0 
1 0 
1 0 
1 0 0:0.227723 1:0.0612245 2:0.0655738 
1 0 0:0.019802 
1 0 0:0.039604 
1 0 
1 0 0:0.029703 
1 0 0:0.0693069 
1 0 0:0.0594059 1:0.0408163 2:0.0491803 
1 0 0:0.039604 
1 0 0:0.049505 
1 0 0:0.148515 1:0.142857 
1 0 0:0.039604 
1 0 0:0.0990099 1:0.102041 
1 0 0:0.019802 
1 0 0:0.178218 1:0.142857 2:0.0655738 
1 0 0:0.0891089 1:0.122449 
1 0 0:0.0594059 
1 0 0:0.138614 1:0.102041 
1 0 0:0.0891089 
1 0 0:0.118812 2:0.0819672 
1 0 0:0.00990099 1:0.204082 
1 0 0:0.0990099 2:0.0163934 
1 0 0:0.128713 
1 0 0:0.039604 1:0.102041 
1 0 0:0.019802 
1 0 0:0.0594059 
1 0 0:0.178218 2:0.262295 
1 0 0:0.049505 
1 0 0:0.029703 
1 0 0:0.138614 2:0.0655738 
1 0 0:0.039604 
1 0 0:0.029703 2:0.0163934 
1 0 0:0.039604 2:0.0819672 
1 0 0:0.039604 
1 0 0:0.0693069 
1 0 0:0.108911 
1 0 0:0.0891089 2:0.131148 
1 0 0:0.0693069 2:0.0819672 
1 0 0:0.108911 2:0.0491803 
1 0 0:0.019802 
1 0 
1 0 0:0.029703 
1 0 
1 0 0:0.019802 
1 0 0:0.148515 
1 0 0:0.019802 
1 0 
1 0 
1 0 
1 0 0:0.039604 2:0.0655738 
1 0 0:0.039604 2:0.0491803 
1 0 0:0.0693069 1:0.142857 2:0.0491803 
1 0 0:0.019802 
1 0 0:0.029703 
1 0 0:0.0693069 
1 0 0:0.158416 
1 0 0:0.108911 
1 0 0:0.019802 
1 0 0:0.237624 2:0.147541 
1 0 0:0.138614 1:0.122449 2:0.0491803 
1 0 0:0.118812 
1 0 0:0.158416 1:0.0204082 2:0.0327869 
1 0 0:0.0693069 1:0.0408163 2:0.0163934 
1 0 0:0.019802 
1 0 0:0.019802 
1 0 0:0.019802 
1 0 0:0.0891089 2:0.0327869 
1 0 
1 0 
1 0 0:0.108911 2:0.0655738 
1 0 0:0.118812 
1 0 0:0.029703 
1 0 0:0.0693069 1:0.0408163 2:0.0655738 
1 0 0:0.168317 1:0.163265 2:0.0163934 
1 0 0:0.0891089 2:0.147541 
1 0 0:0.267327 1:0.0408163 
1 0 0:0.0594059 
1 0 0:0.277228 
1 0 0:0.029703 
1 0 0:0.108911 1:0.0408163 2:0.0655738 
1 0 0:0.049505 
1 0 0:0.0891089 1:0.122449 
1 0 
1 0 0:0.0990099 2:0.0491803 
1 0 
1 0 
1 0 0:0.029703 
1 0 
1 0 0:0.019802 
1 0 0:0.0792079 
1 0 0:0.019802 
1 0 0:0.0792079 1:0.122449 
1 0 0:0.049505 
1 0 0:0.237624 1:0.0816327 2:0.0163934 
1 0 0:0.158416 
1 0 0:0.039604 
1 0 0:0.029703 
1 0 0:0.0792079 2:0.131148 
1 0 0:0.029703 
1 1 0:0.0792079 2:0.0163934 
1 0 0:0.0693069 
1 0 0:0.0693069 2:0.0163934 
1 0 0:0.158416 2:0.0163934 
1 0 0:0.019802 
1 0 0:0.039604 
1 0.3038009711115892 0:0.029703 1:0.714286 
1 0 0:0.108911 1:0.22449 
1 0 0:0.039604 1:0.0408163 2:0.0655738 
1 0 0:0.207921 1:0.0612245 2:0.0983607 
1 0 0:0.039604 
1 0 0:0.029703 
1 0 0:0.158416 1:0.183673 2:0.0163934 
1 0 0:0.019802 
1 0 0:0.0693069 
1 0 0:0.039604 
1 0 0:0.019802 
1 0 0:0.0990099 1:0.0204082 2:0.0327869 
1 0 0:0.019802 
1 0 0:0.019802 
1 0 0:0.039604 2:0.0983607 
1 0 0:0.00990099 
1 0 0:0.00990099 
1 0 0:0.039604 
1 0 0:0.019802 2:0.0163934 
1 0 0:0.039604 
1 0 0:0.118812 1:0.142857 
1 0 0:0.029703 
1 0 0:0.039604 
1 0 0:0.029703 
1 0 0:0.029703 
1 0 0:0.0693069 
1 0 0:0.029703 
1 0 0:0.039604 
1 0 0:0.029703 
1 0 0:0.049505 
1 0 0:0.118812 
1 0 0:0.019802 
1 0 0:0.029703 
1 0 0:0.019802 
1 0 0:0.0693069 2:0.0819672 
1 0 0:0.019802 
1 0 0:0.029703 
1 0 0:0.019802 
1 0 0:0.148515 2:0.0655738 
1 0 0:0.029703 
1 0 
1 0 0:0.0792079 1:0.122449 2:0.0819672 
1 0 0:0.019802 
1 0 0:0.168317 
1 0 0:0.158416 
1 0 0:0.039604 
1 0 0:0.168317 1:0.183673 
1 0 0:0.039604 2:0.0819672 
1 0 0:0.029703 
1 0 0:0.158416 
1 0 0:0.0792079 1:0.0612245 2:0.0327869 
1 0 0:0.128713 
1 0 0:0.0792079 1:0.102041 
1 0 0:0.049505 2:0.0163934 
1 0 0:0.039604 
1 0 0:0.118812 1:0.387755 
1 0 0:0.019802 
1 0 0:0.019802 
1 0 0:0.168317 2:0.0655738 
1 0 0:0.168317 1:0.163265 2:0.0163934 
1 0 0:0.138614 
1 0 0:0.019802 
1 0 0:0.207921 2:0.0491803 
1 0 0:0.049505 
1 0 0:0.108911 
1 0.09038154580076657 0:0.029703 2:0.196721 
1 0 0:0.029703 
1 0 0:0.029703 
1 0 0:0.049505 1:0.122449 2:0.0655738 
1 0 0:0.029703 
1 0 0:0.019802 
1 0 
1 0 0:0.0693069 2:0.0491803 
1 0 0:0.039604 
1 0 0:0.019802 
1 0 0:0.0990099 
1 0 0:0.029703 
1 0 0:0.019802 
1 0 0:0.128713 1:0.306122 
1 0 0:0.049505 
1 0 0:0.0891089 
1 0 0:0.0891089 2:0.0327869 
1 0 0:0.029703 
1 0 0:0.019802 
1 0 0:0.029703 
1 0 0:0.0693069 
1 0 0:0.029703 
1 0 0:0.029703 
1 0 0:0.019802 
1 0 0:0.039604 
1 0 0:0.0990099 
1 0 0:0.039604 
1 0 0:0.0891089 1:0.102041 
1 0 0:0.029703 
1 0 0:0.0792079 1:0.122449 2:0.0327869 
1 0 0:0.019802 
1 0 0:0.029703 
1 0 0:0.148515 
1 0 0:0.0792079 2:0.0655738 
1 0 0:0.029703 
1 0 0:0.00990099 
1 0 0:0.188119 1:0.0204082 
1 0 0:0.0594059 
1 0 0:0.039604 
1 0 0:0.019802 
1 0 0:0.029703 
1 0 0:0.148515 2:0.0983607 
1 0 0:0.0693069 2:0.0491803 
1 0 0:0.029703 
1 0 0:0.118812 2:0.0819672 
1 0 0:0.039604 
1 0 0:0.108911 1:0.122449 
1 0 0:0.019802 
1 0 0:0.366337 1:0.346939 
1 0 0:0.207921 1:0.795918 
1 0 0:0.049505 
1 0 0:0.029703 2:0.0163934 
1 0 0:0.158416 2:0.0163934 
1 0 0:0.039604 
1 0 0:0.158416 2:0.0491803 
1 0 0:0.108911 2:0.0327869 
1 0 0:0.019802 
1 0 
1 0 0:0.138614 
1 0 0:0.019802 
1 0 0:0.039604 
1 0 
1 0 0:0.039604 
1 0 0:0.039604 
1 0 0:0.019802 
1 0 0:0.039604 
1 0 0:0.039604 
1 0 0:0.0594059 
1 0 0:0.168317 1:0.142857 2:0.0983607 
1 0 0:0.029703 1:0.0408163 2:0.0491803 
1 0 0:0.049505 2:0.0163934 
1 0 0:0.029703 
1 0 0:0.0594059 
1 0 0:0.029703 
1 0 0:0.039604 
1 0 
1 0 0:0.039604 
1 0 0:0.0693069 
1 0 0:0.0792079 1:0.0612245 2:0.131148 
1 0 0:0.118812 1:0.0612245 2:0.0983607 
1 0 0:0.0693069 
1 0 0:0.128713 2:0.0163934 
1 0 0:0.019802 
1 0 0:0.019802 
1 0 
1 0 
1 0 0:0.336634 1:0.183673 
1 0 0:0.029703 
1 0 0:0.366337 2:0.0655738 
1 0 0:0.138614 
1 0 0:0.019802 
1 0 0:0.019802 
1 1 0:0.247525 1:0.142857 
1 0 0:0.029703 
1 0 0:0.019802 1:0.0204082 2:0.0163934 
1 0 0:0.019802 
1 0 0:0.029703 
1 0 0:0.019802 
1 0 0:0.019802 
1 0 0:0.049505 
1 1 0:0.0792079 2:0.0163934 
1 0 0:0.019802 
1 0 0:0.019802 
1 0 0:0.019802 
1 0 
1 0 0:0.019802 
1 0 0:0.019802 
1 0 0:0.019802 
1 0 0:0.019802 
1 0 0:0.118812 
1 0 0:0.019802 
1 0 0:0.019802 
1 0 0:0.019802 
1 1 0:0.188119 2:0.0983607 
1 0 
1 0 0:0.019802 
1 0 0:0.019802 
1 0 0:0.029703 1:0.0816327 
1 0 0:0.138614 1:0.0204082 
1 0 0:0.158416 1:0.142857 
1 0.05984386548512281 0:0.019802 2:0.147541 
1 0 0:0.148515 1:0.183673 2:0.0983607 
1 0 0:0.019802 
1 0 0:0.0693069 
1 0 0:0.019802 
1 0 0:0.019802 
1 0 0:0.475248 1:0.122449 2:0.0327869 
1 0 0:0.475248 1:0.122449 2:0.0327869 
1 1 0:0.207921 
1 0 0:0.108911 1:0.0612245 2:0.0983607 
1 0 0:0.029703 
1 0 0:0.039604 1:0.0204082 
1 0 0:0.049505 2:0.0819672 
1 0 0:0.019802 
1 0 0:0.0792079 1:0.0408163 
1 0 0:0.039604 
1 0 0:0.049505 
1 0 0:0.029703 
1 0 0:0.019802 
1 0 0:0.118812 
1 0 0:0.0594059 
1 0 0:0.049505 2:0.0655738 
1 0 0:0.019802 
1 0 0:0.019802 
1 0 0:0.128713 2:0.0655738 
1 0 0:0.0891089 
1 0 0:0.237624 1:0.306122 
1 0 0:0.108911 2:0.0655738 
1 0 0:0.019802 
1 0 0:0.029703 
1 0 0:0.0792079 
1 0 0:0.0792079 2:0.0655738 
1 0 0:0.029703 
1 0 0:0.029703 
1 0 0:0.0990099 1:0.0612245 2:0.0163934 
1 0 0:0.158416 1:0.0204082 
1 0 
1 0 0:0.019802 
1 0 0:0.118812 2:0.131148 
1 0 0:0.148515 
1 0 0:0.128713 1:0.142857 
1 0 0:0.029703 2:0.0491803 
1 0 0:0.0891089 2:0.0327869 
1 0 0:0.039604 
1 0 0:0.039604 1:0.122449 2:0.0655738 
1 0 0:0.118812 1:0.0204082 
1 0 0:0.049505 
1 0 0:0.039604 
1 0 0:0.0990099 
1 0 0:0.019802 
1 0 0:0.019802 
1 0 0:0.019802 2:0.0327869 
1 0 0:0.029703 
1 0 0:0.366337 1:0.326531 
1 0 0:0.029703 
1 0 0:0.039604 
1 0 0:0.0693069 
1 0 
1 0 0:0.039604 
1 0 0:0.019802 
1 0 0:0.0990099 1:0.0408163 
1 0 0:0.0990099 1:0.102041 2:0.0819672 
1 0 0:0.029703 
1 0 0:0.029703 
1 0 0:0.029703 
1 0 0:0.019802 
1 0 0:0.029703 
1 0 0:0.158416 
1 0 0:0.029703 
1 0 0:0.287129 1:0.122449 
1 0 0:0.019802 
1 0 0:0.148515 
1 0 0:0.039604 
1 0 0:0.227723 1:0.204082 2:0.0327869 
1 0.03449888368219192 0:0.178218 1:0.0408163 2:0.163934 
1 0 0:0.049505 
1 0 
1 0 0:0.029703 
1 0 0:0.188119 1:0.0408163 2:0.0655738 
1 0 0:0.287129 1:0.102041 
1 0 0:0.019802 
1 0 0:0.039604 
1 0 0:0.168317 
1 0 
1 0 0:0.019802 
1 0 0:0.148515 2:0.114754 
1 0 0:0.019802 
1 0 
0.734951560771778 0 0:0.158416 1:0.102041 2:0.0983607 
1 0 0:0.039604 
0.06463385150126966 0 0:0.108911 1:0.0408163 2:0.0983607 
1 0 0:0.019802 2:0.0655738 
1 0 0:0.00990099 
1 0 0:0.019802 
1 0 0:0.138614 1:0.0816327 2:0.0163934 
1 0 0:0.049505 
1 0 0:0.029703 
1 0 0:0.148515 1:0.102041 
1 0 0:0.188119 2:0.0327869 
1 0 0:0.029703 
1 0 0:0.039604 
1 0 0:0.128713 1:0.102041 2:0.0819672 
1 0 0:0.019802 
1 1 0:0.168317 2:0.0491803 
1 0 0:0.019802 
1 0 0:0.029703 
1 0 
1 0 0:0.019802 
1 0 0:0.029703 
1 0 0:0.029703 
1 0 0:0.019802 
1 0 0:0.108911 1:0.244898 2:0.0327869 
1 0 0:0.019802 1:0.0408163 
1 1 0:0.0693069 1:0.0204082 
1 0 0:0.0792079 1:0.163265 
1 0 0:0.029703 
1 0 0:0.049505 
1 0 0:0.0693069 2:0.0655738 
1 0 0:0.0594059 1:0.0816327 
1 0 0:0.0594059 
1 0 
1 0 0:0.029703 
1 0 0:0.019802 
1 0 0:0.039604 1:0.0612245 2:0.0327869 
1 0 0:0.0990099 1:0.0204082 
1 0 0:0.158416 
1 0 0:0.039604 
1 0 0:0.138614 
1 0 0:0.029703 
1 0 0:0.019802 
1 0 0:0.108911 
1 0 0:0.029703 
1 0 0:0.138614 1:0.0816327 
1 0 0:0.0594059 2:0.0163934 
1 0 0:0.029703 
1 0 0:0.029703 
1 0 0:0.0792079 1:0.122449 
1 0 0:0.029703 
1 0 0:0.00990099 2:0.0163934 
1 0 0:0.029703 
1 0 0:0.0693069 
1 0 0:0.178218 1:0.183673 
1 0 0:0.029703 
1 0 0:0.029703 
1 0 0:0.148515 1:0.0408163 2:0.0491803 
1 0 0:0.356436 1:0.183673 
1 0 0:0.019802 
1 0 0:0.0990099 2:0.0163934 
1 0 0:0.0891089 1:0.163265 2:0.0819672 
1 0 0:0.019802 
1 0 0:0.0891089 
1 0 0:0.029703 2:0.0163934 
1 1 0:0.118812 1:0.244898 2:0.0491803 
1 0 0:0.029703 2:0.0655738 
1 0 0:0.039604 
1 0 0:0.019802 
1 0 0:0.029703 
1 0 0:0.039604 
1 0 0:0.0990099 1:0.0408163 
1 0 0:0.019802 2:0.0163934 
1 0 0:0.029703 2:0.0163934 
1 0 0:0.029703 2:0.0327869 
1 0 0:0.039604 
1 1 0:0.465347 1:0.102041 
1 0 0:0.0891089 1:0.0408163 2:0.0655738 
1 0 
1 0 0:0.019802 
1 0 0:0.0891089 
1 0 0:0.108911 1:0.204082 
1 0 0:0.029703 
1 0 0:0.019802 
1 0 0:0.019802 
1 0 0:0.039604 
1 0 0:0.158416 2:0.0491803 
1 0 0:0.0693069 1:0.163265 
1 0 0:0.0891089 2:0.0655738 
1 0 0:0.019802 
1 0 0:0.019802 
1 0 0:0.029703 
1 0 0:0.019802 
1 1 0:0.029703 1:0.102041 2:0.147541 
1 0 0:0.019802 
1 0 0:0.0891089 1:0.22449 2:0.0163934 
1 1 0:0.356436 2:0.0819672 
1 0 0:0.0792079 
1 0 0:0.019802 
1 0 0:0.029703 
1 0 
1 0 0:0.029703 
1 0 0:0.0693069 1:0.0612245 
1 0 0:0.029703 
1 0 0:0.0891089 
0.76609609022999 0 0:0.0891089 1:0.0408163 2:0.114754 
1 0 0:0.019802 
1 0 0:0.029703 
1 0 0:0.029703 
1 0 0:0.049505 2:0.0655738 
1 0 0:0.029703 
1 0 0:0.019802 
1 0 0:0.019802 
1 0 0:0.019802 
1 0 0:0.0693069 1:0.0816327 2:0.180328 
1 0 0:0.019802 1:0.0204082 
1 0 0:0.0792079 
1 0 0:0.227723 2:0.0655738 
1 0 0:0.019802 
1 0 0:0.019802 
1 0 0:0.0594059 2:0.0327869 
1 0 
1 0 0:0.039604 
1 0 0:0.029703 
1 0 0:0.019802 
1 0 0:0.019802 
1 0 0:0.029703 
1 0 0:0.0990099 
1 0 0:0.019802 
1 0 0:0.0792079 1:0.285714 2:0.0327869 
1 0 0:0.019802 
1 0 0:0.108911 2:0.0819672 
1 1 0:0.039604 1:0.0408163 2:0.0163934 
1 0 0:0.049505 
1 0 0:0.0990099 
1 0 0:0.0693069 
1 0 0:0.158416 
1 0 0:0.019802 
1 0 0:0.039604 
1 0 0:0.029703 
1 0 0:0.0594059 
1 0 0:0.148515 
1 0 0:0.029703 
1 0 0:0.019802 
1 0 0:0.138614 2:0.0819672 
1 0 0:0.128713 1:0.0612245 2:0.0983607 
1 0 0:0.118812 2:0.0655738 
1 0 0:0.019802 
1 0 0:0.049505 
1 0 0:0.019802 
1 0 0:0.138614 1:0.163265 
1 0 0:0.029703 
1 0 0:0.0891089 2:0.0983607 
1 0 0:0.118812 2:0.0983607 
1 0 0:0.148515 1:0.0408163 
1 0 0:0.029703 
1 0 0:0.049505 1:0.0408163 2:0.114754 
1 0 0:0.049505 
1 0 0:0.029703 
1 0 0:0.188119 
1 0 0:0.029703 
1 0 0:0.0891089 1:0.102041 
1 0 0:0.049505 
1 0 0:0.029703 
1 0 0:0.029703 
1 0 0:0.049505 
1 0 0:0.019802 
1 0 0:0.039604 
1 0 0:0.039604 2:0.0819672 
1 0 0:0.0891089 1:0.0612245 2:0.0163934 
1 0.02466976342661389 0:0.178218 2:0.147541 
1 0 0:0.0891089 
1 0 0:0.287129 1:0.183673 
1 0 0:0.039604 1:0.0408163 2:0.0819672 
1 0 0:0.128713 1:0.0612245 2:0.0983607 
1 0 0:0.049505 1:0.0408163 2:0.0491803 
1 0 0:0.019802 
1 0 0:0.019802 
1 0 0:0.237624 1:0.102041 
1 0 
1 0 0:0.029703 
1 0 
1 0 0:0.0990099 
1 0 0:0.039604 
1 0 0:0.049505 
1 0 0:0.0594059 1:0.102041 
1 0 0:0.039604 
1 0 0:0.029703 
1 0 0:0.029703 
1 0 0:0.029703 
1 0 
1 0 0:0.118812 1:0.0816327 
1 0 0:0.039604 
1 0 0:0.415842 1:0.244898 
1 0 0:0.0891089 1:0.0816327 2:0.0491803 
1 0 0:0.039604 
1 0 0:0.0693069 
1 0 0:0.128713 1:0.0408163 
1 0 0:0.029703 
1 0 0:0.029703 
1 0 0:0.029703 
1 0 
1 0 
1 0 0:0.148515 1:0.122449 2:0.0983607 
1 0 0:0.019802 
1 0 0:0.029703 2:0.0819672 
1 0 0:0.019802 
1 0 0:0.039604 1:0.0612245 2:0.147541 
1 0 0:0.019802 2:0.0491803 
1 0 0:0.019802 
1 0 0:0.0693069 1:0.0204082 2:0.0327869 
1 0 0:0.316832 2:0.0655738 
1 0 0:0.029703 
1 0 0:0.019802 2:0.0327869 
1 0 0:0.049505 2:0.0327869 
1 0 0:0.0594059 2:0.0819672 
1 0 0:0.178218 1:0.204082 2:0.0163934 
1 0 0:0.019802 
1 0 0:0.0891089 2:0.0163934 
1 0 
1 0 0:0.0594059 
1 0 0:0.336634 1:0.0408163 2:0.0655738 
1 0 0:0.0693069 
1 0 0:0.029703 
1 0 0:0.029703 
1 0 0:0.0792079 
1 0 0:0.029703 
1 0 0:0.148515 1:0.0408163 
1 0 0:0.029703 2:0.0327869 
1 0 0:0.019802 1:0.122449 
1 1 0:0.0891089 1:0.22449 2:0.0491803 
1 0 0:0.019802 
1 0 0:0.0990099 
1 0 0:0.0693069 
1 0 0:0.029703 2:0.0655738 
1 0 0:0.019802 
1 1 0:0.207921 
1 0 0:0.019802 
1 0 0:0.029703 
1 0 0:0.039604 
1 0 0:0.049505 
1 0 0:0.0891089 
1 0 0:0.0990099 
1 0 0:0.178218 2:0.0163934 
1 0 
1 0 0:0.029703 
1 0 0:0.029703 
1 0 0:0.029703 1:0.0204082 
1 0 0:0.00990099 
1 0 0:0.019802 
1 0 0:0.0693069 1:0.0612245 
1 0 0:0.019802 
1 0 0:0.316832 2:0.0327869 
1 0 0:0.039604 2:0.0327869 
1 0 0:0.039604 
1 0 0:0.00990099 
1 0 0:0.019802 
1 0 0:0.039604 
1 0 0:0.029703 
1 0 0:0.0891089 2:0.0327869 
0.8428284646928531 0 0:0.217822 1:0.122449 2:0.131148 
1 0 0:0.049505 1:0.0408163 
1 0 0:0.207921 1:0.244898 
1 0 0:0.019802 
1 0 0:0.00990099 
1 0 0:0.0891089 1:0.0408163 
1 0 0:0.128713 1:0.285714 
1 0 0:0.049505 2:0.0491803 
1 1 0:0.0792079 1:0.0204082 2:0.0327869 
1 0 0:0.158416 
1 0 0:0.0594059 1:0.0204082 
1 0 0:0.039604 
1 0 0:0.029703 1:0.244898 
1 0 0:0.029703 2:0.0163934 
1 0 
1 0 0:0.0594059 
1 0 0:0.178218 1:0.102041 
1 0 0:0.049505 1:0.0408163 2:0.0983607 
1 0 0:0.029703 1:0.0408163 
1 0 0:0.039604 
1 0 0:0.019802 
1 0 0:0.257426 1:0.0204082 
1 0 0:0.0990099 
1 0 0:0.029703 
1 0 0:0.019802 
1 0 0:0.0693069 2:0.147541 
1 0 0:0.049505 
1 0 0:0.148515 1:0.142857 2:0.0327869 
1 0 0:0.0693069 
1 0 0:0.128713 1:0.204082 
1 0 0:0.029703 
1 0 0:0.0594059 1:0.0408163 2:0.0655738 
1 0 0:0.049505 
1 0 0:0.0792079 2:0.0983607 
1 0 0:0.029703 
1 0 0:0.19802 
1 0 0:0.0792079 
1 1 0:0.237624 1:0.0204082 
1 0 0:0.118812 1:0.244898 
1 0 0:0.029703 
1 0 0:0.019802 2:0.0163934 
1 0 0:0.039604 
1 0 0:0.128713 
1 0 0:0.019802 
1 0 0:0.188119 2:0.0491803 
1 0 0:0.118812 2:0.0491803 
1 0 0:0.0891089 2:0.0163934 
1 0 0:0.19802 1:0.183673 2:0.0327869 
1 0 0:0.029703 
1 0 0:0.19802 
1 0 0:0.029703 
1 0 0:0.029703 
1 0 0:0.148515 2:0.0655738 
1 0 0:0.029703 
1 0 0:0.019802 
1 0 0:0.039604 
1 0 0:0.029703 
1 0 0:0.118812 2:0.0327869 
1 0 0:0.019802 
1 0 0:0.0594059 1:0.0612245 2:0.0491803 
1 0 0:0.039604 
1 0 0:0.039604 2:0.0327869 
1 0 0:0.019802 
1 0 0:0.178218 
1 0 0:0.049505 2:0.0327869 
1 0 0:0.257426 
1 0 0:0.118812 1:0.0204082 2:0.0327869 
1 0 0:0.376238 1:0.346939 
1 0 0:0.0891089 2:0.0655738 
1 0 0:0.0594059 2:0.0163934 
1 0 0:0.039604 
1 0 0:0.019802 
1 0 0:0.00990099 
1 0 0:0.217822 1:0.163265 
1 0 0:0.039604 
1 0 0:0.039604 
1 0 0:0.148515 2:0.0819672 
1 0 0:0.029703 
1 0 0:0.0990099 2:0.131148 
1 0 0:0.0990099 
1 0 0:0.118812 2:0.0819672 
1 0 0:0.039604 
1 0 0:0.049505 
1 0 0:0.0891089 1:0.183673 2:0.0327869 
1 0 0:0.148515 1:0.102041 
1 0 0:0.019802 
1 0 0:0.039604 
0.1163417764980907 0 0:0.178218 1:0.102041 2:0.0819672 
1 0 
1 0 0:0.049505 
1 0 0:0.029703 
1 0 0:0.019802 
1 0 0:0.257426 
1 0 0:0.0891089 2:0.0163934 
1 0 0:0.0990099 2:0.0819672 
1 0 0:0.0594059 
1 0 0:0.415842 1:0.0408163 
1 0 0:0.0891089 1:0.0408163 2:0.0327869 
1 0 0:0.029703 
1 0 0:0.0693069 
1 0 0:0.049505 2:0.0491803 
1 0 0:0.158416 1:0.0408163 
1 0 0:0.0792079 
1 0.0823588778115826 0:0.287129 1:0.122449 2:0.131148 
1 0 0:0.039604 
1 0 0:0.029703 
1 0.2631560818652568 0:0.217822 1:0.0408163 2:0.213115 
1 0 0:0.029703 
1 0 0:0.118812 2:0.0491803 
1 0 0:0.138614 2:0.0819672 
1 0 0:0.029703 
1 0 0:0.049505 
1 0 0:0.019802 
1 0 0:0.168317 1:0.0204082 
1 0 0:0.029703 
1 0 0:0.029703 
1 0 0:0.029703 
1 0 0:0.039604 
1 0 0:0.039604 
1 0 0:0.019802 
1 0 0:0.00990099 
1 0 0:0.039604 1:0.0204082 2:0.0163934 
1 0 0:0.029703 1:0.0204082 
1 1 0:0.0594059 1:0.142857 
1 0 0:0.019802 
1 0 0:0.00990099 
1 0 0:0.049505 
1 0 0:0.019802 
1 0 0:0.148515 1:0.0408163 
1 0 0:0.029703 
1 0 0:0.0693069 1:0.0408163 
1 0 0:0.019802 
1 0 0:0.257426 1:0.0408163 2:0.0163934 
1 0 0:0.138614 2:0.0655738 
1 0 0:0.029703 
1 0 0:0.277228 2:0.0491803 
1 0 0:0.039604 
1 0 0:0.029703 
1 0 0:0.178218 1:0.0612245 2:0.0655738 
1 0 0:0.0594059 
1 0 
1 0 0:0.0990099 2:0.0655738 
1 0 0:0.0792079 1:0.0204082 2:0.0491803 
1 0 0:0.039604 
1 0 0:0.128713 1:0.0204082 2:0.0819672 
1 0 0:0.029703 
1 0 
1 0 0:0.039604 
1 0 0:0.039604 
1 0 0:0.029703 
1 0 0:0.128713 1:0.0612245 2:0.0983607 
1 0 0:0.019802 
1 0 0:0.019802 
1 0 0:0.039604 
1 0 
1 0 
1 0 0:0.039604 
1 0 
1 0 
1 1 0:0.118812 1:0.0612245 2:0.0655738 
1 0 0:0.148515 1:0.122449 2:0.0983607 
1 0 0:0.039604 
1 0 0:0.029703 
1 0 0:0.0693069 
1 0.01206698940791288 0:0.039604 1:0.306122 2:0.0491803 
1 0 0:0.00990099 
1 0 0:0.0990099 
1 0 0:0.029703 1:0.0408163 
1 0 0:0.128713 1:0.0816327 
1 0 0:0.128713 1:0.469388 2:0.0327869 
1 0 0:0.178218 1:0.0204082 2:0.0327869 
1 0 0:0.168317 
1 0 0:0.019802 
0.4410146297548353 0 0:0.0792079 1:0.0204082 2:0.0491803 
1 0 0:0.138614 2:0.0655738 
1 0 0:0.039604 
1 0 0:0.178218 1:0.204082 2:0.0163934 
1 0 0:0.158416 2:0.0819672 
1 0 0:0.0990099 
1 0 0:0.029703 
1 0 0:0.0891089 2:0.0983607 
1 0 0:0.0792079 
1 0 0:0.0990099 1:0.0816327 2:0.0655738 
1 0 0:0.019802 
1 0 0:0.118812 
1 0.1389899502540462 0:0.039604 1:0.265306 2:0.131148 
1 0 0:0.0792079 2:0.0983607 
1 0 0:0.128713 1:0.142857 2:0.262295 
1 0 0:0.029703 
1 0 0:0.049505 2:0.0327869 
1 0 0:0.188119 2:0.0327869 
1 0 0:0.039604 
1 0 0:0.0594059 
1 0 0:0.039604 
1 0 0:0.029703 
1 0 0:0.00990099 
1 0 0:0.049505 1:0.122449 
1 0 0:0.029703 
1 0 0:0.019802 
1 0 0:0.019802 2:0.0327869 
1 1 0:0.138614 2:0.0655738 
1 0 0:0.257426 1:0.0816327 2:0.0327869 
1 0 0:0.0891089 2:0.0491803 
1 0 0:0.039604 
1 0 0:0.029703 
1 0 0:0.039604 
1 0 0:0.039604 
1 0 0:0.029703 
1 0 0:0.0594059 1:0.0204082 
1 0 0:0.019802 
1 0 0:0.019802 
1 0 0:0.029703 
1 0 0:0.029703 
1 0 0:0.108911 2:0.0819672 
1 0 0:0.019802 1:0.0612245 2:0.0327869 
1 0 0:0.019802 
1 0 0:0.158416 2:0.0163934 
1 0 0:0.227723 1:0.0612245 2:0.0655738 
1 0 0:0.019802 
1 0 0:0.049505 1:0.0816327 
1 0 0:0.039604 1:0.0816327 
1 0 0:0.188119 1:0.204082 
1 0 0:0.168317 
1 0 0:0.0891089 1:0.142857 2:0.0491803 
1 0 0:0.029703 
1 0 0:0.019802 1:0.0408163 2:0.0491803 
1 0 0:0.0891089 2:0.0491803 
1 0 0:0.138614 1:0.0816327 
1 0 0:0.039604 
1 0 0:0.029703 
1 0 0:0.19802 1:0.0612245 2:0.0491803 
1 0 0:0.029703 
1 0 0:0.029703 
1 0 0:0.049505 
1 0 0:0.029703 
1 0 0:0.049505 1:0.0204082 2:0.0983607 
1 0 0:0.019802 2:0.0327869 
1 0 0:0.00990099 
1 0 0:0.039604 
1 0 0:0.148515 
1 0 0:0.029703 
1 0 0:0.029703 
1 0 0:0.029703 2:0.0163934 
1 0 0:0.158416 1:0.122449 
1 0 0:0.178218 
1 0 0:0.039604 2:0.114754 
1 0 0:0.148515 1:0.0204082 2:0.0327869 
1 1 0:0.0792079 2:0.0163934 
1 0 0:0.0792079 2:0.0327869 
1 0 0:0.0891089 2:0.0491803 
1 0 0:0.039604 
1 0 0:0.0693069 
1 0 0:0.148515 
1 0 0:0.138614 1:0.163265 
1 0 0:0.029703 2:0.0163934 
1 0 0:0.029703 
1 0 0:0.019802 
1 0 0:0.029703 
1 0 0:0.0693069 1:0.0408163 2:0.0819672 
1 0 0:0.029703 
1 0 0:0.108911 1:0.0612245 2:0.0655738 
1 0 0:0.0693069 1:0.22449 2:0.0655738 
1 0 0:0.039604 2:0.0327869 
1 0 0:0.0891089 1:0.306122 2:0.0983607 
1 0 0:0.0693069 1:0.204082 2:0.0327869 
1 0 0:0.029703 1:0.0408163 
1 0 0:0.237624 
1 0 0:0.138614 1:0.0612245 2:0.0983607 
1 0 0:0.0693069 
1 0 0:0.019802 
1 0 0:0.00990099 
1 0 0:0.029703 
1 0 0:0.039604 
1 0 0:0.0792079 1:0.183673 
1 0 0:0.178218 
1 0 0:0.049505 
1 0 0:0.0594059 
1 0 0:0.039604 1:0.22449 2:0.0327869 
1 0 0:0.0990099 2:0.0819672 
1 0 0:0.019802 
